<?xml version="1.0"?>
<MethodSetup Method="MLP::MLP">
  <GeneralInfo>
    <Info name="TMVA Release" value="4.1.2 [262402]"/>
    <Info name="ROOT Release" value="5.32/00 [335872]"/>
    <Info name="Creator" value="obondu"/>
    <Info name="Date" value="Tue Jun  4 17:38:40 2013"/>
    <Info name="Host" value="Linux lxbuild148.cern.ch 2.6.18-194.26.1.el5 #1 SMP Wed Nov 10 09:45:46 CET 2010 x86_64 x86_64 x86_64 GNU/Linux"/>
    <Info name="Dir" value="/afs/cern.ch/work/o/obondu/Higgs/CMSSW_5_3_9_patch1_radion/src/BJetRegression"/>
    <Info name="Training events" value="8345"/>
    <Info name="TrainingTime" value="9.90598009e+02"/>
    <Info name="AnalysisType" value="Regression"/>
  </GeneralInfo>
  <Options>
    <Option name="NCycles" modified="Yes">700</Option>
    <Option name="HiddenLayers" modified="Yes">N,N-1</Option>
    <Option name="NeuronType" modified="No">sigmoid</Option>
    <Option name="RandomSeed" modified="No">1</Option>
    <Option name="EstimatorType" modified="No">MSE</Option>
    <Option name="NeuronInputType" modified="No">sum</Option>
    <Option name="V" modified="No">False</Option>
    <Option name="VerbosityLevel" modified="No">Default</Option>
    <Option name="VarTransform" modified="Yes">Norm</Option>
    <Option name="H" modified="No">False</Option>
    <Option name="CreateMVAPdfs" modified="No">False</Option>
    <Option name="IgnoreNegWeightsInTraining" modified="No">False</Option>
    <Option name="TrainingMethod" modified="Yes">BFGS</Option>
    <Option name="LearningRate" modified="No">2.000000e-02</Option>
    <Option name="DecayRate" modified="No">1.000000e-02</Option>
    <Option name="TestRate" modified="Yes">5</Option>
    <Option name="EpochMonitoring" modified="No">False</Option>
    <Option name="Sampling" modified="No">1.000000e+00</Option>
    <Option name="SamplingEpoch" modified="No">1.000000e+00</Option>
    <Option name="SamplingImportance" modified="No">1.000000e+00</Option>
    <Option name="SamplingTraining" modified="No">True</Option>
    <Option name="SamplingTesting" modified="No">False</Option>
    <Option name="ResetStep" modified="No">50</Option>
    <Option name="Tau" modified="No">3.000000e+00</Option>
    <Option name="BPMode" modified="No">sequential</Option>
    <Option name="BatchSize" modified="No">-1</Option>
    <Option name="ConvergenceImprove" modified="No">1.000000e-30</Option>
    <Option name="ConvergenceTests" modified="No">-1</Option>
    <Option name="UseRegulator" modified="No">False</Option>
    <Option name="UpdateLimit" modified="No">10000</Option>
    <Option name="CalculateErrors" modified="No">False</Option>
    <Option name="WeightRange" modified="No">1.000000e+00</Option>
  </Options>
  <Variables NVar="15">
    <Variable VarIndex="0" Expression="jet_csvBtag" Label="jet_csvBtag" Title="jet_csvBtag" Unit="" Internal="jet_csvBtag" Type="F" Min="1.23532675e-03" Max="1.00000000e+00"/>
    <Variable VarIndex="1" Expression="jet_pt" Label="jet_pt" Title="jet_pt" Unit="" Internal="jet_pt" Type="F" Min="2.50004196e+01" Max="2.87793793e+02"/>
    <Variable VarIndex="2" Expression="jet_eta" Label="jet_eta" Title="jet_eta" Unit="" Internal="jet_eta" Type="F" Min="-2.49692631e+00" Max="2.48951554e+00"/>
    <Variable VarIndex="3" Expression="jet_dPhiMet" Label="jet_dPhiMet" Title="jet_dPhiMet" Unit="" Internal="jet_dPhiMet" Type="F" Min="-3.14125919e+00" Max="3.14078879e+00"/>
    <Variable VarIndex="4" Expression="jet_Chadfrac" Label="jet_Chadfrac" Title="jet_Chadfrac" Unit="" Internal="jet_Chadfrac" Type="F" Min="1.02857411e-01" Max="1.52253032e+00"/>
    <Variable VarIndex="5" Expression="jet_Phofrac" Label="jet_Phofrac" Title="jet_Phofrac" Unit="" Internal="jet_Phofrac" Type="F" Min="0.00000000e+00" Max="1.02896833e+00"/>
    <Variable VarIndex="6" Expression="jet_Nhadfrac" Label="jet_Nhadfrac" Title="jet_Nhadfrac" Unit="" Internal="jet_Nhadfrac" Type="F" Min="0.00000000e+00" Max="7.45654821e-01"/>
    <Variable VarIndex="7" Expression="jet_Elefrac" Label="jet_Elefrac" Title="jet_Elefrac" Unit="" Internal="jet_Elefrac" Type="F" Min="0.00000000e+00" Max="9.19637084e-01"/>
    <Variable VarIndex="8" Expression="jet_Mufrac" Label="jet_Mufrac" Title="jet_Mufrac" Unit="" Internal="jet_Mufrac" Type="F" Min="0.00000000e+00" Max="9.14918363e-01"/>
    <Variable VarIndex="9" Expression="jet_ptD" Label="jet_ptD" Title="jet_ptD" Unit="" Internal="jet_ptD" Type="F" Min="1.38248578e-01" Max="8.10778022e-01"/>
    <Variable VarIndex="10" Expression="jet_secVtxPt" Label="jet_secVtxPt" Title="jet_secVtxPt" Unit="" Internal="jet_secVtxPt" Type="F" Min="-1.00000000e+00" Max="2.82475519e+00"/>
    <Variable VarIndex="11" Expression="jet_secVtx3dL" Label="jet_secVtx3dL" Title="jet_secVtx3dL" Unit="" Internal="jet_secVtx3dL" Type="F" Min="-1.00000000e+00" Max="8.93551159e+00"/>
    <Variable VarIndex="12" Expression="jet_secVtx3deL" Label="jet_secVtx3deL" Title="jet_secVtx3deL" Unit="" Internal="jet_secVtx3deL" Type="F" Min="-1.00000000e+00" Max="9.64655399e-01"/>
    <Variable VarIndex="13" Expression="ev_met_corrMet" Label="ev_met_corrMet" Title="ev_met_corrMet" Unit="" Internal="ev_met_corrMet" Type="F" Min="2.48905405e-01" Max="1.47479385e+02"/>
    <Variable VarIndex="14" Expression="ev_rho" Label="ev_rho" Title="ev_rho" Unit="" Internal="ev_rho" Type="F" Min="2.98924148e-01" Max="4.55194740e+01"/>
  </Variables>
  <Spectators NSpec="0"/>
  <Classes NClass="1">
    <Class Name="Regression" Index="0"/>
  </Classes>
  <Targets NTrgt="1">
    <Target TargetIndex="0" Expression="jet_prtPt" Label="jet_prtPt" Title="jet_prtPt" Unit="" Internal="jet_prtPt" Type="F" Min="7.98057652e+00" Max="2.64776398e+02"/>
  </Targets>
  <Transformations NTransformations="1">
    <Transform Name="Normalize">
      <Selection>
        <Input NInputs="16">
          <Input Type="Variable" Label="jet_csvBtag" Expression="jet_csvBtag"/>
          <Input Type="Variable" Label="jet_pt" Expression="jet_pt"/>
          <Input Type="Variable" Label="jet_eta" Expression="jet_eta"/>
          <Input Type="Variable" Label="jet_dPhiMet" Expression="jet_dPhiMet"/>
          <Input Type="Variable" Label="jet_Chadfrac" Expression="jet_Chadfrac"/>
          <Input Type="Variable" Label="jet_Phofrac" Expression="jet_Phofrac"/>
          <Input Type="Variable" Label="jet_Nhadfrac" Expression="jet_Nhadfrac"/>
          <Input Type="Variable" Label="jet_Elefrac" Expression="jet_Elefrac"/>
          <Input Type="Variable" Label="jet_Mufrac" Expression="jet_Mufrac"/>
          <Input Type="Variable" Label="jet_ptD" Expression="jet_ptD"/>
          <Input Type="Variable" Label="jet_secVtxPt" Expression="jet_secVtxPt"/>
          <Input Type="Variable" Label="jet_secVtx3dL" Expression="jet_secVtx3dL"/>
          <Input Type="Variable" Label="jet_secVtx3deL" Expression="jet_secVtx3deL"/>
          <Input Type="Variable" Label="ev_met_corrMet" Expression="ev_met_corrMet"/>
          <Input Type="Variable" Label="ev_rho" Expression="ev_rho"/>
          <Input Type="Target" Label="jet_prtPt" Expression="jet_prtPt"/>
        </Input>
        <Output NOutputs="16">
          <Output Type="Variable" Label="jet_csvBtag" Expression="jet_csvBtag"/>
          <Output Type="Variable" Label="jet_pt" Expression="jet_pt"/>
          <Output Type="Variable" Label="jet_eta" Expression="jet_eta"/>
          <Output Type="Variable" Label="jet_dPhiMet" Expression="jet_dPhiMet"/>
          <Output Type="Variable" Label="jet_Chadfrac" Expression="jet_Chadfrac"/>
          <Output Type="Variable" Label="jet_Phofrac" Expression="jet_Phofrac"/>
          <Output Type="Variable" Label="jet_Nhadfrac" Expression="jet_Nhadfrac"/>
          <Output Type="Variable" Label="jet_Elefrac" Expression="jet_Elefrac"/>
          <Output Type="Variable" Label="jet_Mufrac" Expression="jet_Mufrac"/>
          <Output Type="Variable" Label="jet_ptD" Expression="jet_ptD"/>
          <Output Type="Variable" Label="jet_secVtxPt" Expression="jet_secVtxPt"/>
          <Output Type="Variable" Label="jet_secVtx3dL" Expression="jet_secVtx3dL"/>
          <Output Type="Variable" Label="jet_secVtx3deL" Expression="jet_secVtx3deL"/>
          <Output Type="Variable" Label="ev_met_corrMet" Expression="ev_met_corrMet"/>
          <Output Type="Variable" Label="ev_rho" Expression="ev_rho"/>
          <Output Type="Target" Label="jet_prtPt" Expression="jet_prtPt"/>
        </Output>
      </Selection>
      <Class ClassIndex="0">
        <Ranges>
          <Range Index="0" Min="1.2353267520666122e-03" Max="1.0000000000000000e+00"/>
          <Range Index="1" Min="2.5000419616699219e+01" Max="2.8779379272460938e+02"/>
          <Range Index="2" Min="-2.4969263076782227e+00" Max="2.4895155429840088e+00"/>
          <Range Index="3" Min="-3.1412591934204102e+00" Max="3.1407887935638428e+00"/>
          <Range Index="4" Min="1.0285741090774536e-01" Max="1.5225303173065186e+00"/>
          <Range Index="5" Min="0.0000000000000000e+00" Max="1.0289683341979980e+00"/>
          <Range Index="6" Min="0.0000000000000000e+00" Max="7.4565482139587402e-01"/>
          <Range Index="7" Min="0.0000000000000000e+00" Max="9.1963708400726318e-01"/>
          <Range Index="8" Min="0.0000000000000000e+00" Max="9.1491836309432983e-01"/>
          <Range Index="9" Min="1.3824857771396637e-01" Max="8.1077802181243896e-01"/>
          <Range Index="10" Min="-1.0000000000000000e+00" Max="2.8247551918029785e+00"/>
          <Range Index="11" Min="-1.0000000000000000e+00" Max="8.9355115890502930e+00"/>
          <Range Index="12" Min="-1.0000000000000000e+00" Max="9.6465539932250977e-01"/>
          <Range Index="13" Min="2.4890540540218353e-01" Max="1.4747938537597656e+02"/>
          <Range Index="14" Min="2.9892414808273315e-01" Max="4.5519474029541016e+01"/>
          <Range Index="15" Min="7.9805765151977539e+00" Max="2.6477639770507812e+02"/>
        </Ranges>
      </Class>
    </Transform>
  </Transformations>
  <MVAPdfs/>
  <Weights>
    <Layout NLayers="4">
      <Layer Index="0" NNeurons="16">
        <Neuron NSynapses="15">
          3.4059937515806993e-01 2.6347217863790173e+00 4.4247466812878467e-01 -6.1830331869729349e-01 -1.6523185755138605e+00 8.0413117869018358e-01 -9.3704523592711142e-01 3.7772594786196914e+00 4.6225943843861239e-01 -6.3538110307831075e-01 -2.0576762969408753e+00 -4.6817696227320044e-02 6.7883693639688647e-01 1.0291473045341881e-01 -3.3158372019485771e-01 
        </Neuron>
        <Neuron NSynapses="15">
          -6.8177557383559839e-01 2.6501217868696003e-01 1.7463128581506355e+00 3.3663617197800366e-01 5.1749426437329182e+00 6.0813033873396083e-01 -3.0139998110788526e+00 -3.9751802412452614e-01 4.6778319487327324e-01 -2.4959677620279606e+00 -9.5736644848517882e-01 2.8043275221644044e+00 1.9851762808421949e-01 -5.9757440679236851e+00 1.9686832475969893e+00 
        </Neuron>
        <Neuron NSynapses="15">
          6.6279589553515916e-01 -6.0636029173145069e-02 3.3616692558673056e-02 1.3244812596656821e+00 5.6728750940154571e+00 3.6923151424328982e-01 -1.7640190774143363e+00 1.9275609030087897e+00 -8.6778525883125901e-02 -2.5848421872543539e+00 1.3154166284365554e+00 5.9359569540626260e-02 2.9552166908842747e+00 5.2862031974036612e-02 -1.6500969032277837e+00 
        </Neuron>
        <Neuron NSynapses="15">
          -7.2607185822434461e-01 7.4300628706649718e-01 -1.1298782800502104e-01 -7.7809613644324604e-01 -8.8463428158915738e-02 8.6442538931267112e+00 3.7643806490612475e-01 -5.7264792595048808e-01 4.1238856944205304e+00 -2.2749302442815766e+00 -1.6682324194149620e+00 -5.5417696480208112e-01 -6.6369285744291873e-01 2.3484896430527449e-01 8.4562287839539629e-01 
        </Neuron>
        <Neuron NSynapses="15">
          -2.0657149173731457e+00 1.6574002707809723e+00 -1.8729815672706587e+00 1.6250757769006949e+00 -1.4499760085219089e+00 -3.0565277952377357e-01 3.3584495420429703e-03 -2.1064960419018326e+00 -1.4157315630438219e+00 -2.4779540975041732e+00 8.7554790070226052e-01 -1.2437134731730795e+00 3.8505461004025704e-01 -8.1218906694005402e-02 -1.1333930501048817e-01 
        </Neuron>
        <Neuron NSynapses="15">
          -5.1495261342014342e-01 -2.0839605519908853e+00 -8.7066039575603812e-02 4.0298554123377274e-02 3.5344416579459277e+00 -2.2202233848884356e-01 -5.5845716766734277e-01 2.4878485104324785e-01 -3.9411291938963933e-01 -2.3510151824502906e-01 1.5061176036910177e-02 -5.0326245305524653e-01 -1.1526124143410765e+00 -1.4029662558060735e-01 -7.6317410976169309e-01 
        </Neuron>
        <Neuron NSynapses="15">
          -1.4039788925146295e+00 -5.9736983336774119e-01 1.2788821085734687e+00 -1.7632040725118161e+00 2.9962361913997939e+00 7.0632097804060789e-01 -1.4306093814953333e-02 -2.2089929514979750e-01 -6.4446543701444176e-02 1.0925145385640154e+00 -1.1361425715968196e+00 -7.2000792358036025e-01 8.8172957717247213e-01 4.9933514311868732e-01 -1.9639660192526412e-01 
        </Neuron>
        <Neuron NSynapses="15">
          7.4134473127412692e-01 -1.7997002662006700e+00 -1.0013720067564642e+00 6.2039360518420454e-02 1.1591655532875333e+00 6.5469556331588152e-01 1.6732280482801321e-01 1.2832108289632183e+00 -5.9412383641316635e-01 -1.4317135436255568e+00 1.0024777331425010e+00 -7.6988784579506100e-02 -2.2502134007489967e+00 -3.5877264231122863e-01 -1.2753383164455083e+00 
        </Neuron>
        <Neuron NSynapses="15">
          -1.9204715677429216e+00 -1.3179067138554286e+00 1.4992933305603087e-01 1.8994928301996663e+00 8.7756573510599289e-01 -1.0661842332813922e+00 1.9639575071488440e+00 1.0268464126204140e+00 -1.2931319794942018e+00 1.7391090232161115e+00 -6.3611378060751977e-01 -7.1600462120460409e-02 4.5645632948736786e-01 -7.8393010820075981e-01 2.5434637322208881e-01 
        </Neuron>
        <Neuron NSynapses="15">
          7.1177909662563266e-01 1.1285882577184794e+00 -5.7347233419155252e-01 6.7223875502337638e-01 -1.1247114577561206e+00 2.8734057770813093e-01 9.1921894984926167e-01 -1.7694949124463657e+00 -3.6041264465470740e-01 -9.9880040710737705e-01 6.5091392922575209e-01 7.0275281950028257e-01 -1.3907288057980072e+00 -3.2748193683689436e-01 -7.0328499990060311e-01 
        </Neuron>
        <Neuron NSynapses="15">
          -1.2189375358520977e+00 1.0238044808280020e+00 2.1239848924669213e+00 -9.9675662802994863e-02 9.2405804614449694e-01 8.1702674349958460e-01 4.1556193421881654e-01 -9.5910825777813080e-01 7.3677942256156215e-01 1.6334711417258363e-01 2.6302439254759076e+00 3.8535345820618194e-01 3.5197617339448684e-01 8.8418763013327717e-01 -4.0467718761187110e-01 
        </Neuron>
        <Neuron NSynapses="15">
          -7.4928646492708606e-01 -8.0798304730548776e-01 1.5639863638409262e+00 -8.9534638036799374e-01 -2.2386770246443590e+00 5.0615560151045413e-01 9.6136848526376661e-01 -1.2251452423380811e+00 4.0978215142370711e-01 4.1036078868030228e-02 -1.6338953125666940e+00 6.9839669997016163e-01 -1.0888075695328745e+00 8.1914181335689493e-02 -1.0344812401439485e+00 
        </Neuron>
        <Neuron NSynapses="15">
          -1.7244788506457407e+00 1.8585432492374898e+00 4.3790556931579374e+00 -5.5166668176789735e-01 8.5975071410879589e-01 -1.4330927312086996e+00 8.2472562372062330e-01 -8.4706972186610530e-01 -1.0405490424928638e+00 7.4601423385757842e-02 1.3119013338687633e+00 -5.1582895569685905e-01 9.8779558362618924e-01 -6.0175743040153196e-01 3.8228155230123489e-01 
        </Neuron>
        <Neuron NSynapses="15">
          -1.6254283012706299e+00 -2.6805087225021635e+00 9.5619041619486034e-01 7.7082496805577483e-01 -2.3366079733135248e+00 1.9569887745355188e+00 -6.2888456137496862e-01 -8.0900513151106779e-01 -2.6464600121716577e+00 4.6102366557548295e+00 1.1143463600810035e+00 -6.9956148926179004e-02 3.8451202440925486e-01 -4.1511831094556265e-02 -2.4316077879826478e-01 
        </Neuron>
        <Neuron NSynapses="15">
          -2.5436034154568293e-01 3.4772360091282967e-01 1.6932568028598773e+00 -1.5265059007655510e+00 8.3029006102868463e-01 -8.3457964108443639e-02 -1.2236077671577941e+00 1.1064384806795697e+00 1.7990513338927356e+00 -2.0191011007111501e+00 -1.4454010312454462e+00 3.6959441633644435e-01 2.7235145030051022e-01 9.8206715718002224e-01 1.2625275079885632e+00 
        </Neuron>
        <Neuron NSynapses="15">
          -2.1829468302949298e-01 1.2471889673683272e+00 6.2882188412524165e-01 -2.5474154841911605e+00 -2.2380490637826354e+00 1.5439118404874026e+00 -1.2874084766989573e+00 1.3779637338078048e+00 -1.5965413065591174e+00 9.8604883135886601e-01 -2.3423785934768939e+00 2.1829165773709924e+00 7.6119465188146218e-01 -1.4757040678396129e+00 1.1317110175758989e+00 
        </Neuron>
      </Layer>
      <Layer Index="1" NNeurons="16">
        <Neuron NSynapses="14">
          -2.5513105870774666e+00 -5.3666100263778960e-01 -1.8807035789719306e+00 -1.9127320857521826e+00 -2.1779362337630142e+00 -3.4951856147875132e-02 -3.2586778931115534e-01 -1.2512405549667178e+00 1.4749063512902352e+00 4.9571969940475780e-01 1.4077884782689429e+00 -1.4479141393663078e+00 5.8818436845011002e-01 1.8354702834153527e+00 
        </Neuron>
        <Neuron NSynapses="14">
          4.3301411829437608e-01 -1.0975070786953984e+00 -1.4752827563093700e+00 -1.5152580680326024e+00 -1.3263065088243233e+00 -1.6845653292430898e+00 3.1295029598297591e-01 -5.8032689169784525e-02 2.8746105442792036e+00 -2.6305792714306717e+00 -2.1009836219479344e-01 -4.9945825925614623e-01 -1.9032684349039304e+00 -6.5113145365931924e-01 
        </Neuron>
        <Neuron NSynapses="14">
          2.6492860176595205e+00 -6.1640075305085862e-01 -1.0407593382744293e+00 2.3340076724886086e-01 6.9904927212852075e-01 5.4705290877943524e-01 -1.0668455993309131e-01 1.8555296412504846e-01 1.5357823748735648e+00 1.2363196647691699e+00 -3.0531787087971696e-01 1.0253884447469197e-02 -5.3834755806710477e-01 1.7519777757543162e+00 
        </Neuron>
        <Neuron NSynapses="14">
          -1.4162373069209824e+00 -6.3804423750222228e-01 -1.7518316866794952e+00 -1.7138270575675387e+00 -1.3737841865442260e+00 1.5206932429981936e+00 -1.1114802788074747e+00 -1.1863190561574217e+00 -7.5853077988523854e-01 2.5992222645986751e+00 -4.9717804061871029e-01 4.2254935384392948e-02 5.9611090868029837e-01 -1.4368676978322776e+00 
        </Neuron>
        <Neuron NSynapses="14">
          2.6852885106459384e-01 5.4178072905581964e-01 -1.9418705546572659e+00 -1.4964483415485679e+00 -2.1699754424657383e+00 -9.1855157313325053e-01 1.1979420428937895e+00 4.1947859007858701e-01 3.5469295880733431e-01 -3.2014648694375953e+00 -1.8775579125699587e-01 -1.7855438578289224e+00 2.8789033292883398e-01 -1.9482358986826258e+00 
        </Neuron>
        <Neuron NSynapses="14">
          2.0910737717766610e+00 -1.4303636048695763e+00 -1.2057806904545005e+00 1.5068489647687757e+00 1.3101836179421518e+00 -7.5443091359935388e-01 1.0593872883267423e+00 -3.3964322501730049e+00 1.7167344421072797e+00 2.3697353011643779e-01 -8.6635405191672776e-01 -1.1800970063993279e+00 2.9705006760100067e-01 6.0830906331617962e-01 
        </Neuron>
        <Neuron NSynapses="14">
          -6.5199024712981080e-01 1.7407226316065287e+00 1.3111954919101658e+00 1.2789473173478523e+00 -1.1082508366503265e+00 7.7548504748834890e-01 -2.3900637885449099e+00 -1.2026050131427199e+00 -9.4259875076934430e-01 -1.9668908657861730e+00 8.1359631691192025e-01 1.6443199207690096e+00 3.3754939115506777e-01 1.6394330943051334e+00 
        </Neuron>
        <Neuron NSynapses="14">
          8.5192809613169829e-01 -3.9946972618610871e-01 -7.0841158958506811e-01 -3.7739375278951581e-01 2.3159491578376863e+00 -1.4999453208628895e+00 -8.0674238783939956e-01 1.0322891605155138e+00 3.7422488230289036e-01 1.1316269602639273e-01 -4.2281646156156283e-01 -1.2563553759514234e+00 1.5559089934112136e+00 1.9866240579529300e+00 
        </Neuron>
        <Neuron NSynapses="14">
          4.8961214484296584e-01 -2.8655509169451848e-01 -9.9809457129527379e-01 -1.8968845662288973e+00 -3.2604684346052641e+00 7.9667670755948405e-01 6.1648651095024466e-02 -3.5156180037784166e+00 1.5542797072957371e+00 -1.8787643147633015e+00 -1.2898804734409777e+00 -1.5228057233626211e+00 1.0557898381163313e+00 -5.3180961512999503e-01 
        </Neuron>
        <Neuron NSynapses="14">
          -2.5988797580750544e+00 -7.5848045664821251e-01 -9.6329264883206878e-01 -1.8416833587262886e+00 1.6110744637784724e+00 -1.5785331548842216e+00 -2.9083570214741566e-01 6.4953777798654777e-01 1.0028037234577607e+00 -3.1220566999168118e+00 1.9166667037101495e-01 8.1535389036272277e-01 3.0819445245537889e+00 2.8618018447875232e-01 
        </Neuron>
        <Neuron NSynapses="14">
          -1.5558342919689276e+00 -7.1335055397045821e-01 -1.7235717899138845e+00 6.3604431013454399e-01 9.1640007385247524e-01 1.0027455725097639e-01 7.0666593288299107e-01 4.5900121127496030e-01 1.5966838960626590e+00 -1.4935189453184812e+00 7.0110236280721341e-02 7.8978014296568222e-01 -1.3987565765464207e+00 -1.6434502611400152e+00 
        </Neuron>
        <Neuron NSynapses="14">
          -9.2936035030496211e-01 8.1067515322799366e-01 4.7264174319958369e-01 2.2991148603517639e-01 1.3678458176320389e+00 -3.7793763608149883e-01 2.6786533453476271e+00 1.6785129664275664e-01 6.5179233991185148e-01 -5.9082927809871255e-01 1.6791567984324196e+00 -1.5731776956113332e+00 7.2111193321710976e-01 -7.2663434934380766e-01 
        </Neuron>
        <Neuron NSynapses="14">
          -1.7588792987497364e+00 -1.1437422462887221e+00 -1.5085946921226331e-02 -1.2993031666158272e+00 7.3535456329953575e-01 -2.0194113691842155e+00 -1.7701559276131987e-01 -5.4236659832645640e-01 2.2654293509485970e+00 -8.9445440669351373e-01 8.5667559893632872e-01 -6.4744897188454087e-01 1.0550662719636130e+00 -1.4327887431916360e+00 
        </Neuron>
        <Neuron NSynapses="14">
          2.7389849001834105e-01 -1.9659095707072485e+00 -1.2744956471885476e+00 -6.2823725176282408e-01 -3.8108406001080330e-01 -1.7178847242697808e+00 -3.2585855312494392e+00 3.1324931798050275e+00 4.6427283801707270e-01 -4.8589242478499468e+00 -2.1770903660574055e+00 -9.0739988127108484e-01 2.2559080771324229e+00 5.3042187919882373e+00 
        </Neuron>
        <Neuron NSynapses="14">
          1.2311528462323100e+00 -7.8716826832117570e-01 -1.9281705298272904e+00 -3.5581300169558960e-01 -1.3400745321803147e+00 -1.6965741825449714e+00 1.5435585607330964e+00 -9.0740178946120451e-02 -6.7389935666870571e-01 2.4700967072996280e+00 9.9655770352406925e-01 3.2682865294165614e-01 -7.1008000177458130e-01 -3.5210313255485887e-01 
        </Neuron>
        <Neuron NSynapses="14">
          1.0408767900196227e+00 -8.4851640881598467e-01 3.6530804409344780e-01 9.8437826149428742e-01 9.1445181372110995e-01 -1.2226675842245402e+00 1.9275319870690368e+00 -1.6561378087221086e+00 2.6742272190030052e+00 1.4933432266478255e+00 8.5149987955999384e-01 -5.5595449264370478e-01 7.2094442105364087e-01 -1.0525861666658742e+00 
        </Neuron>
      </Layer>
      <Layer Index="2" NNeurons="15">
        <Neuron NSynapses="1">
          1.7258939696916836e-01 
        </Neuron>
        <Neuron NSynapses="1">
          -9.6542171656789355e-02 
        </Neuron>
        <Neuron NSynapses="1">
          -9.0501909538394087e-01 
        </Neuron>
        <Neuron NSynapses="1">
          2.3542456020289890e-01 
        </Neuron>
        <Neuron NSynapses="1">
          3.2439869969370605e-01 
        </Neuron>
        <Neuron NSynapses="1">
          1.6784569286820699e+00 
        </Neuron>
        <Neuron NSynapses="1">
          5.1004356483712809e-01 
        </Neuron>
        <Neuron NSynapses="1">
          -5.9339152153739794e-01 
        </Neuron>
        <Neuron NSynapses="1">
          -2.3325735700465478e+00 
        </Neuron>
        <Neuron NSynapses="1">
          4.4222719636151631e+00 
        </Neuron>
        <Neuron NSynapses="1">
          9.4778282815229387e-01 
        </Neuron>
        <Neuron NSynapses="1">
          -7.3976639319120463e-01 
        </Neuron>
        <Neuron NSynapses="1">
          -1.0272358592892572e+00 
        </Neuron>
        <Neuron NSynapses="1">
          1.5740756270954115e+00 
        </Neuron>
        <Neuron NSynapses="1">
          2.2496564077625622e-01 
        </Neuron>
      </Layer>
      <Layer Index="3" NNeurons="1">
        <Neuron NSynapses="0"/>
      </Layer>
    </Layout>
  </Weights>
</MethodSetup>
