<?xml version="1.0"?>
<MethodSetup Method="MLP::MLP">
  <GeneralInfo>
    <Info name="TMVA Release" value="4.1.4 [262404]"/>
    <Info name="ROOT Release" value="5.34/04 [336388]"/>
    <Info name="Creator" value="obondu"/>
    <Info name="Date" value="Tue Jun 18 09:41:03 2013"/>
    <Info name="Host" value="Darwin proof.cern.ch 12.2.0 Darwin Kernel Version 12.2.0: Sat Aug 25 00:48:52 PDT 2012; root:xnu-2050.18.24~1/RELEASE_X86_64 x86_64"/>
    <Info name="Dir" value="/Users/obondu/Documents/CMS/Projects/BJetRegression"/>
    <Info name="Training events" value="8204"/>
    <Info name="TrainingTime" value="4.99052890e+02"/>
    <Info name="AnalysisType" value="Regression"/>
  </GeneralInfo>
  <Options>
    <Option name="NCycles" modified="Yes">700</Option>
    <Option name="HiddenLayers" modified="Yes">N,N-1</Option>
    <Option name="NeuronType" modified="No">sigmoid</Option>
    <Option name="RandomSeed" modified="No">1</Option>
    <Option name="EstimatorType" modified="No">MSE</Option>
    <Option name="NeuronInputType" modified="No">sum</Option>
    <Option name="V" modified="No">False</Option>
    <Option name="VerbosityLevel" modified="No">Default</Option>
    <Option name="VarTransform" modified="Yes">Norm</Option>
    <Option name="H" modified="No">False</Option>
    <Option name="CreateMVAPdfs" modified="No">False</Option>
    <Option name="IgnoreNegWeightsInTraining" modified="No">False</Option>
    <Option name="TrainingMethod" modified="Yes">BFGS</Option>
    <Option name="LearningRate" modified="No">2.000000e-02</Option>
    <Option name="DecayRate" modified="No">1.000000e-02</Option>
    <Option name="TestRate" modified="Yes">5</Option>
    <Option name="EpochMonitoring" modified="No">False</Option>
    <Option name="Sampling" modified="No">1.000000e+00</Option>
    <Option name="SamplingEpoch" modified="No">1.000000e+00</Option>
    <Option name="SamplingImportance" modified="No">1.000000e+00</Option>
    <Option name="SamplingTraining" modified="No">True</Option>
    <Option name="SamplingTesting" modified="No">False</Option>
    <Option name="ResetStep" modified="No">50</Option>
    <Option name="Tau" modified="No">3.000000e+00</Option>
    <Option name="BPMode" modified="No">sequential</Option>
    <Option name="BatchSize" modified="No">-1</Option>
    <Option name="ConvergenceImprove" modified="No">1.000000e-30</Option>
    <Option name="ConvergenceTests" modified="No">-1</Option>
    <Option name="UseRegulator" modified="No">False</Option>
    <Option name="UpdateLimit" modified="No">10000</Option>
    <Option name="CalculateErrors" modified="No">False</Option>
    <Option name="WeightRange" modified="No">1.000000e+00</Option>
  </Options>
  <Variables NVar="9">
    <Variable VarIndex="0" Expression="jet_csvBtag" Label="jet_csvBtag" Title="jet_csvBtag" Unit="" Internal="jet_csvBtag" Type="F" Min="1.23532675e-03" Max="1.00000000e+00"/>
    <Variable VarIndex="1" Expression="jet_pt" Label="jet_pt" Title="jet_pt" Unit="" Internal="jet_pt" Type="F" Min="2.50291405e+01" Max="3.37647278e+02"/>
    <Variable VarIndex="2" Expression="jet_eta" Label="jet_eta" Title="jet_eta" Unit="" Internal="jet_eta" Type="F" Min="-2.49213910e+00" Max="2.49357224e+00"/>
    <Variable VarIndex="3" Expression="jet_dPhiMet" Label="jet_dPhiMet" Title="jet_dPhiMet" Unit="" Internal="jet_dPhiMet" Type="F" Min="-3.14125919e+00" Max="3.14101672e+00"/>
    <Variable VarIndex="4" Expression="jet_secVtxPt" Label="jet_secVtxPt" Title="jet_secVtxPt" Unit="" Internal="jet_secVtxPt" Type="F" Min="-1.00000000e+00" Max="2.91737843e+00"/>
    <Variable VarIndex="5" Expression="jet_secVtx3dL" Label="jet_secVtx3dL" Title="jet_secVtx3dL" Unit="" Internal="jet_secVtx3dL" Type="F" Min="-1.00000000e+00" Max="8.74457169e+00"/>
    <Variable VarIndex="6" Expression="jet_secVtx3deL" Label="jet_secVtx3deL" Title="jet_secVtx3deL" Unit="" Internal="jet_secVtx3deL" Type="F" Min="-1.00000000e+00" Max="1.64628685e+00"/>
    <Variable VarIndex="7" Expression="ev_met_corrMet" Label="ev_met_corrMet" Title="ev_met_corrMet" Unit="" Internal="ev_met_corrMet" Type="F" Min="6.93565726e-01" Max="1.47479385e+02"/>
    <Variable VarIndex="8" Expression="ev_rho" Label="ev_rho" Title="ev_rho" Unit="" Internal="ev_rho" Type="F" Min="2.98924148e-01" Max="5.29539337e+01"/>
  </Variables>
  <Spectators NSpec="0"/>
  <Classes NClass="1">
    <Class Name="Regression" Index="0"/>
  </Classes>
  <Targets NTrgt="1">
    <Target TargetIndex="0" Expression="jet_genPt" Label="jet_genPt" Title="jet_genPt" Unit="" Internal="jet_genPt" Type="F" Min="3.32112885e+00" Max="3.60509338e+02"/>
  </Targets>
  <Transformations NTransformations="1">
    <Transform Name="Normalize">
      <Selection>
        <Input NInputs="10">
          <Input Type="Variable" Label="jet_csvBtag" Expression="jet_csvBtag"/>
          <Input Type="Variable" Label="jet_pt" Expression="jet_pt"/>
          <Input Type="Variable" Label="jet_eta" Expression="jet_eta"/>
          <Input Type="Variable" Label="jet_dPhiMet" Expression="jet_dPhiMet"/>
          <Input Type="Variable" Label="jet_secVtxPt" Expression="jet_secVtxPt"/>
          <Input Type="Variable" Label="jet_secVtx3dL" Expression="jet_secVtx3dL"/>
          <Input Type="Variable" Label="jet_secVtx3deL" Expression="jet_secVtx3deL"/>
          <Input Type="Variable" Label="ev_met_corrMet" Expression="ev_met_corrMet"/>
          <Input Type="Variable" Label="ev_rho" Expression="ev_rho"/>
          <Input Type="Target" Label="jet_genPt" Expression="jet_genPt"/>
        </Input>
        <Output NOutputs="10">
          <Output Type="Variable" Label="jet_csvBtag" Expression="jet_csvBtag"/>
          <Output Type="Variable" Label="jet_pt" Expression="jet_pt"/>
          <Output Type="Variable" Label="jet_eta" Expression="jet_eta"/>
          <Output Type="Variable" Label="jet_dPhiMet" Expression="jet_dPhiMet"/>
          <Output Type="Variable" Label="jet_secVtxPt" Expression="jet_secVtxPt"/>
          <Output Type="Variable" Label="jet_secVtx3dL" Expression="jet_secVtx3dL"/>
          <Output Type="Variable" Label="jet_secVtx3deL" Expression="jet_secVtx3deL"/>
          <Output Type="Variable" Label="ev_met_corrMet" Expression="ev_met_corrMet"/>
          <Output Type="Variable" Label="ev_rho" Expression="ev_rho"/>
          <Output Type="Target" Label="jet_genPt" Expression="jet_genPt"/>
        </Output>
      </Selection>
      <Class ClassIndex="0">
        <Ranges>
          <Range Index="0" Min="1.2353267520666122e-03" Max="1.0000000000000000e+00"/>
          <Range Index="1" Min="2.5029140472412109e+01" Max="3.3764727783203125e+02"/>
          <Range Index="2" Min="-2.4921391010284424e+00" Max="2.4935722351074219e+00"/>
          <Range Index="3" Min="-3.1412591934204102e+00" Max="3.1410167217254639e+00"/>
          <Range Index="4" Min="-1.0000000000000000e+00" Max="2.9173784255981445e+00"/>
          <Range Index="5" Min="-1.0000000000000000e+00" Max="8.7445716857910156e+00"/>
          <Range Index="6" Min="-1.0000000000000000e+00" Max="1.6462868452072144e+00"/>
          <Range Index="7" Min="6.9356572628021240e-01" Max="1.4747938537597656e+02"/>
          <Range Index="8" Min="2.9892414808273315e-01" Max="5.2953933715820312e+01"/>
          <Range Index="9" Min="3.3211288452148438e+00" Max="3.6050933837890625e+02"/>
        </Ranges>
      </Class>
    </Transform>
  </Transformations>
  <MVAPdfs/>
  <Weights>
    <Layout NLayers="4">
      <Layer Index="0" NNeurons="10">
        <Neuron NSynapses="9">
          -1.0970950554067440e+00 1.2838001015299778e+00 -3.1627171731556700e-02 1.9073530727873884e-02 1.0202717742201779e-01 9.7786043742902340e-02 8.2633542378329081e-02 1.0675798309053135e+00 -4.2295055758343902e-01 
        </Neuron>
        <Neuron NSynapses="9">
          -1.4467043747568074e+00 -1.8861783610065228e+00 -1.2412910254923855e+00 -1.4432567614242631e+00 -3.5361469091570152e-01 -2.3015465538938251e+00 -5.9504177907971934e-01 2.8797329426806673e-01 2.7419033330105567e+00 
        </Neuron>
        <Neuron NSynapses="9">
          5.4151612761710544e-01 7.6461450359213889e-01 9.2830365358857053e-02 -8.2532875360636060e-01 -1.8185788322447011e-01 -1.4036065273069363e-02 -4.4660914853024175e-01 1.2295595474318834e+00 1.8130398055390531e+00 
        </Neuron>
        <Neuron NSynapses="9">
          -9.8628822648700831e-01 -7.6912984096834303e-01 -1.5135243802596718e-01 9.9693682921849081e-01 5.0510537587138868e+00 2.2664072792756104e-01 -4.2591660272703802e+00 -1.2541685015334791e-01 5.9838046106127618e-01 
        </Neuron>
        <Neuron NSynapses="9">
          1.4784658788536401e-01 4.7271375883572109e-01 -6.5648640032578920e-02 3.3394481883986721e-01 1.0565471149642824e-01 1.6164152943920367e-02 3.2188884138163643e-01 1.1086274679149519e+00 -6.7213998195568225e-01 
        </Neuron>
        <Neuron NSynapses="9">
          -1.4186458046247381e+00 5.5384697470450195e-01 -1.7592276910102872e-01 1.8934282446223671e-01 -5.2745767189508108e-01 1.0112937073643287e-01 3.8212515092282726e-02 -8.3102088485176373e-01 1.8243629059593318e+00 
        </Neuron>
        <Neuron NSynapses="9">
          -5.4423068717093903e-01 -7.4860273509613506e-01 3.1104038829496805e-02 -8.6002703279894482e-02 9.7845305049889308e-02 1.1946315969442757e-01 -8.6362683759665493e-02 -4.2504943290548314e-01 -3.9670999088279685e-01 
        </Neuron>
        <Neuron NSynapses="9">
          1.6962538288592871e-01 1.9436724922162973e+00 -5.4642750779664864e-02 3.7584103407891067e-01 -6.1576852892410283e-01 7.3603365270843213e-01 -1.2389940304341538e+00 -1.3840580742570452e+00 -5.5811573645420209e-01 
        </Neuron>
        <Neuron NSynapses="9">
          1.0902595952841418e+00 9.6839063566146577e-01 6.6840768394303123e-03 -6.6996243900998220e-01 2.0130500699489234e-01 1.0262886961897907e-01 7.2084275328048875e-01 2.8455279861115074e-01 1.8542375112907017e+00 
        </Neuron>
        <Neuron NSynapses="9">
          6.7210176937527555e-01 1.5059401499569280e+00 -2.4527123193097342e+00 -1.0479309445480514e+00 -1.6613086518004618e+00 5.7988446429015306e-01 -1.1077000665662704e+00 -1.3055446476458294e+00 -2.0398023158328407e+00 
        </Neuron>
      </Layer>
      <Layer Index="1" NNeurons="10">
        <Neuron NSynapses="8">
          -4.7188404527216621e-02 3.1411561909579366e-01 1.3139971464597855e+00 -1.0910952809098795e+00 7.5613434234376298e-01 1.1781602517330774e+00 -7.4759505531142201e-01 -1.2595540752951937e+00 
        </Neuron>
        <Neuron NSynapses="8">
          -5.2109979243856985e-01 1.5194962203984641e+00 -1.9266463592551397e+00 3.2330406705522741e-01 1.0348013618765546e+00 2.1580041869099187e-01 -1.7205534659320547e+00 1.0263165901249818e+00 
        </Neuron>
        <Neuron NSynapses="8">
          -2.5995178621646491e+00 -1.7973540764261189e+00 -3.7825431291269535e-01 -5.1270521996624330e-01 -3.4244704142425775e+00 1.1418792274336147e+00 3.7220933170102867e-02 3.6401074582552162e-01 
        </Neuron>
        <Neuron NSynapses="8">
          -9.1451260240890453e-01 8.8381707117849084e-01 3.2594724567709887e-01 -8.8511333588023844e-01 1.8339905879268381e+00 -2.0490292844066665e-01 -1.5745828675233242e+00 1.0719579130751759e-01 
        </Neuron>
        <Neuron NSynapses="8">
          -1.2645968699007482e-01 1.6076181221540411e+00 6.8739174256261026e-01 6.4517145274745380e-01 -2.0884682457684387e+00 2.9305789362672530e-01 -2.0337021154655144e+00 8.3351174242436032e-01 
        </Neuron>
        <Neuron NSynapses="8">
          1.2813050288975442e-01 -1.7688274835130717e+00 6.0207891077386277e-01 -1.6296433519502451e+00 -1.3427434350990206e+00 2.3711075199643719e+00 1.3358462034322354e+00 -2.1305621666048267e+00 
        </Neuron>
        <Neuron NSynapses="8">
          5.3277188559240525e-02 1.4543451747603489e+00 2.0322322762118610e+00 1.5249831564659524e-01 -2.2502098567914723e+00 -4.2843668997550682e-02 -2.0566764075514001e+00 1.9133277750549231e+00 
        </Neuron>
        <Neuron NSynapses="8">
          2.7954961570391285e-01 -1.4536903029671520e+00 -2.1347301698520096e-01 -1.3777021164725473e-01 2.1910520323257660e-01 4.6104261290268722e-01 1.6298506004909390e+00 -5.4741164055091995e-01 
        </Neuron>
        <Neuron NSynapses="8">
          -1.1136428903118769e+00 9.8886694114777032e-02 8.4336500915579771e-01 8.8963467325043866e-01 5.6551927934994317e-01 -2.1882342721232275e+00 1.4121350327792441e+00 5.8788831822734633e-01 
        </Neuron>
        <Neuron NSynapses="8">
          1.8040546709736578e+00 6.9823870055358384e-01 9.4069245964461312e-01 3.0243057828172459e-01 -1.0827171854481952e+00 1.3352567946401916e+00 -8.9190684409340759e-01 -8.5930543533864379e-01 
        </Neuron>
      </Layer>
      <Layer Index="2" NNeurons="9">
        <Neuron NSynapses="1">
          2.6927601666084469e+00 
        </Neuron>
        <Neuron NSynapses="1">
          6.1463905750017589e-01 
        </Neuron>
        <Neuron NSynapses="1">
          6.9204179201837401e-01 
        </Neuron>
        <Neuron NSynapses="1">
          1.9003913159057835e+00 
        </Neuron>
        <Neuron NSynapses="1">
          3.3551341216577595e+00 
        </Neuron>
        <Neuron NSynapses="1">
          -3.1121410874576672e+00 
        </Neuron>
        <Neuron NSynapses="1">
          -1.6940475229330443e+00 
        </Neuron>
        <Neuron NSynapses="1">
          -4.9004557544529537e-01 
        </Neuron>
        <Neuron NSynapses="1">
          -7.8445962620046328e-01 
        </Neuron>
      </Layer>
      <Layer Index="3" NNeurons="1">
        <Neuron NSynapses="0"/>
      </Layer>
    </Layout>
  </Weights>
</MethodSetup>
