<?xml version="1.0"?>
<MethodSetup Method="MLP::MLP">
  <GeneralInfo>
    <Info name="TMVA Release" value="4.1.2 [262402]"/>
    <Info name="ROOT Release" value="5.32/00 [335872]"/>
    <Info name="Creator" value="obondu"/>
    <Info name="Date" value="Thu May 30 18:05:05 2013"/>
    <Info name="Host" value="Linux lxbuild168.cern.ch 2.6.18-308.16.1.el5 #1 SMP Thu Oct 4 14:02:28 CEST 2012 x86_64 x86_64 x86_64 GNU/Linux"/>
    <Info name="Dir" value="/afs/cern.ch/work/o/obondu/Higgs/CMSSW_5_3_9_patch1_radion/src/BJetRegression"/>
    <Info name="Training events" value="8550"/>
    <Info name="TrainingTime" value="1.00742123e+03"/>
    <Info name="AnalysisType" value="Regression"/>
  </GeneralInfo>
  <Options>
    <Option name="NCycles" modified="Yes">700</Option>
    <Option name="HiddenLayers" modified="Yes">N,N-1</Option>
    <Option name="NeuronType" modified="No">sigmoid</Option>
    <Option name="RandomSeed" modified="No">1</Option>
    <Option name="EstimatorType" modified="No">MSE</Option>
    <Option name="NeuronInputType" modified="No">sum</Option>
    <Option name="V" modified="No">False</Option>
    <Option name="VerbosityLevel" modified="No">Default</Option>
    <Option name="VarTransform" modified="Yes">Norm</Option>
    <Option name="H" modified="No">False</Option>
    <Option name="CreateMVAPdfs" modified="No">False</Option>
    <Option name="IgnoreNegWeightsInTraining" modified="No">False</Option>
    <Option name="TrainingMethod" modified="Yes">BFGS</Option>
    <Option name="LearningRate" modified="No">2.000000e-02</Option>
    <Option name="DecayRate" modified="No">1.000000e-02</Option>
    <Option name="TestRate" modified="Yes">5</Option>
    <Option name="EpochMonitoring" modified="No">False</Option>
    <Option name="Sampling" modified="No">1.000000e+00</Option>
    <Option name="SamplingEpoch" modified="No">1.000000e+00</Option>
    <Option name="SamplingImportance" modified="No">1.000000e+00</Option>
    <Option name="SamplingTraining" modified="No">True</Option>
    <Option name="SamplingTesting" modified="No">False</Option>
    <Option name="ResetStep" modified="No">50</Option>
    <Option name="Tau" modified="No">3.000000e+00</Option>
    <Option name="BPMode" modified="No">sequential</Option>
    <Option name="BatchSize" modified="No">-1</Option>
    <Option name="ConvergenceImprove" modified="No">1.000000e-30</Option>
    <Option name="ConvergenceTests" modified="No">-1</Option>
    <Option name="UseRegulator" modified="No">False</Option>
    <Option name="UpdateLimit" modified="No">10000</Option>
    <Option name="CalculateErrors" modified="No">False</Option>
    <Option name="WeightRange" modified="No">1.000000e+00</Option>
  </Options>
  <Variables NVar="15">
    <Variable VarIndex="0" Expression="jet_csvBtag" Label="jet_csvBtag" Title="jet_csvBtag" Unit="" Internal="jet_csvBtag" Type="F" Min="-1.00000000e+00" Max="1.00000000e+00"/>
    <Variable VarIndex="1" Expression="jet_pt" Label="jet_pt" Title="jet_pt" Unit="" Internal="jet_pt" Type="F" Min="2.50004196e+01" Max="2.65372528e+02"/>
    <Variable VarIndex="2" Expression="jet_eta" Label="jet_eta" Title="jet_eta" Unit="" Internal="jet_eta" Type="F" Min="-2.49692631e+00" Max="2.49538016e+00"/>
    <Variable VarIndex="3" Expression="jet_dPhiMet" Label="jet_dPhiMet" Title="jet_dPhiMet" Unit="" Internal="jet_dPhiMet" Type="F" Min="-3.14101911e+00" Max="3.14144349e+00"/>
    <Variable VarIndex="4" Expression="jet_Chadfrac" Label="jet_Chadfrac" Title="jet_Chadfrac" Unit="" Internal="jet_Chadfrac" Type="F" Min="1.74483266e-02" Max="1.59406567e+00"/>
    <Variable VarIndex="5" Expression="jet_Phofrac" Label="jet_Phofrac" Title="jet_Phofrac" Unit="" Internal="jet_Phofrac" Type="F" Min="0.00000000e+00" Max="1.02896833e+00"/>
    <Variable VarIndex="6" Expression="jet_Nhadfrac" Label="jet_Nhadfrac" Title="jet_Nhadfrac" Unit="" Internal="jet_Nhadfrac" Type="F" Min="0.00000000e+00" Max="6.82914972e-01"/>
    <Variable VarIndex="7" Expression="jet_Elefrac" Label="jet_Elefrac" Title="jet_Elefrac" Unit="" Internal="jet_Elefrac" Type="F" Min="0.00000000e+00" Max="8.50914419e-01"/>
    <Variable VarIndex="8" Expression="jet_Mufrac" Label="jet_Mufrac" Title="jet_Mufrac" Unit="" Internal="jet_Mufrac" Type="F" Min="0.00000000e+00" Max="8.13646734e-01"/>
    <Variable VarIndex="9" Expression="jet_ptD" Label="jet_ptD" Title="jet_ptD" Unit="" Internal="jet_ptD" Type="F" Min="1.38248578e-01" Max="7.55030632e-01"/>
    <Variable VarIndex="10" Expression="jet_secVtxPt" Label="jet_secVtxPt" Title="jet_secVtxPt" Unit="" Internal="jet_secVtxPt" Type="F" Min="-1.00000000e+00" Max="2.93746376e+00"/>
    <Variable VarIndex="11" Expression="jet_secVtx3dL" Label="jet_secVtx3dL" Title="jet_secVtx3dL" Unit="" Internal="jet_secVtx3dL" Type="F" Min="-1.00000000e+00" Max="8.61884880e+00"/>
    <Variable VarIndex="12" Expression="jet_secVtx3deL" Label="jet_secVtx3deL" Title="jet_secVtx3deL" Unit="" Internal="jet_secVtx3deL" Type="F" Min="-1.00000000e+00" Max="9.64655399e-01"/>
    <Variable VarIndex="13" Expression="ev_met_corrMet" Label="ev_met_corrMet" Title="ev_met_corrMet" Unit="" Internal="ev_met_corrMet" Type="F" Min="2.48905405e-01" Max="1.47479385e+02"/>
    <Variable VarIndex="14" Expression="ev_rho" Label="ev_rho" Title="ev_rho" Unit="" Internal="ev_rho" Type="F" Min="4.34042722e-01" Max="5.29539337e+01"/>
  </Variables>
  <Spectators NSpec="0"/>
  <Classes NClass="1">
    <Class Name="Regression" Index="0"/>
  </Classes>
  <Targets NTrgt="1">
    <Target TargetIndex="0" Expression="jet_genPt" Label="jet_genPt" Title="jet_genPt" Unit="" Internal="jet_genPt" Type="F" Min="1.11238165e+01" Max="2.43943008e+02"/>
  </Targets>
  <Transformations NTransformations="1">
    <Transform Name="Normalize">
      <Selection>
        <Input NInputs="16">
          <Input Type="Variable" Label="jet_csvBtag" Expression="jet_csvBtag"/>
          <Input Type="Variable" Label="jet_pt" Expression="jet_pt"/>
          <Input Type="Variable" Label="jet_eta" Expression="jet_eta"/>
          <Input Type="Variable" Label="jet_dPhiMet" Expression="jet_dPhiMet"/>
          <Input Type="Variable" Label="jet_Chadfrac" Expression="jet_Chadfrac"/>
          <Input Type="Variable" Label="jet_Phofrac" Expression="jet_Phofrac"/>
          <Input Type="Variable" Label="jet_Nhadfrac" Expression="jet_Nhadfrac"/>
          <Input Type="Variable" Label="jet_Elefrac" Expression="jet_Elefrac"/>
          <Input Type="Variable" Label="jet_Mufrac" Expression="jet_Mufrac"/>
          <Input Type="Variable" Label="jet_ptD" Expression="jet_ptD"/>
          <Input Type="Variable" Label="jet_secVtxPt" Expression="jet_secVtxPt"/>
          <Input Type="Variable" Label="jet_secVtx3dL" Expression="jet_secVtx3dL"/>
          <Input Type="Variable" Label="jet_secVtx3deL" Expression="jet_secVtx3deL"/>
          <Input Type="Variable" Label="ev_met_corrMet" Expression="ev_met_corrMet"/>
          <Input Type="Variable" Label="ev_rho" Expression="ev_rho"/>
          <Input Type="Target" Label="jet_genPt" Expression="jet_genPt"/>
        </Input>
        <Output NOutputs="16">
          <Output Type="Variable" Label="jet_csvBtag" Expression="jet_csvBtag"/>
          <Output Type="Variable" Label="jet_pt" Expression="jet_pt"/>
          <Output Type="Variable" Label="jet_eta" Expression="jet_eta"/>
          <Output Type="Variable" Label="jet_dPhiMet" Expression="jet_dPhiMet"/>
          <Output Type="Variable" Label="jet_Chadfrac" Expression="jet_Chadfrac"/>
          <Output Type="Variable" Label="jet_Phofrac" Expression="jet_Phofrac"/>
          <Output Type="Variable" Label="jet_Nhadfrac" Expression="jet_Nhadfrac"/>
          <Output Type="Variable" Label="jet_Elefrac" Expression="jet_Elefrac"/>
          <Output Type="Variable" Label="jet_Mufrac" Expression="jet_Mufrac"/>
          <Output Type="Variable" Label="jet_ptD" Expression="jet_ptD"/>
          <Output Type="Variable" Label="jet_secVtxPt" Expression="jet_secVtxPt"/>
          <Output Type="Variable" Label="jet_secVtx3dL" Expression="jet_secVtx3dL"/>
          <Output Type="Variable" Label="jet_secVtx3deL" Expression="jet_secVtx3deL"/>
          <Output Type="Variable" Label="ev_met_corrMet" Expression="ev_met_corrMet"/>
          <Output Type="Variable" Label="ev_rho" Expression="ev_rho"/>
          <Output Type="Target" Label="jet_genPt" Expression="jet_genPt"/>
        </Output>
      </Selection>
      <Class ClassIndex="0">
        <Ranges>
          <Range Index="0" Min="-1.0000000000000000e+00" Max="1.0000000000000000e+00"/>
          <Range Index="1" Min="2.5000419616699219e+01" Max="2.6537252807617188e+02"/>
          <Range Index="2" Min="-2.4969263076782227e+00" Max="2.4953801631927490e+00"/>
          <Range Index="3" Min="-3.1410191059112549e+00" Max="3.1414434909820557e+00"/>
          <Range Index="4" Min="1.7448326572775841e-02" Max="1.5940656661987305e+00"/>
          <Range Index="5" Min="0.0000000000000000e+00" Max="1.0289683341979980e+00"/>
          <Range Index="6" Min="0.0000000000000000e+00" Max="6.8291497230529785e-01"/>
          <Range Index="7" Min="0.0000000000000000e+00" Max="8.5091441869735718e-01"/>
          <Range Index="8" Min="0.0000000000000000e+00" Max="8.1364673376083374e-01"/>
          <Range Index="9" Min="1.3824857771396637e-01" Max="7.5503063201904297e-01"/>
          <Range Index="10" Min="-1.0000000000000000e+00" Max="2.9374637603759766e+00"/>
          <Range Index="11" Min="-1.0000000000000000e+00" Max="8.6188488006591797e+00"/>
          <Range Index="12" Min="-1.0000000000000000e+00" Max="9.6465539932250977e-01"/>
          <Range Index="13" Min="2.4890540540218353e-01" Max="1.4747938537597656e+02"/>
          <Range Index="14" Min="4.3404272198677063e-01" Max="5.2953933715820312e+01"/>
          <Range Index="15" Min="1.1123816490173340e+01" Max="2.4394300842285156e+02"/>
        </Ranges>
      </Class>
    </Transform>
  </Transformations>
  <MVAPdfs/>
  <Weights>
    <Layout NLayers="4">
      <Layer Index="0" NNeurons="16">
        <Neuron NSynapses="15">
          -1.3859649323223069e-01 9.0005627040243497e-01 -1.4323285513404510e-01 1.6085837804348935e+00 -9.1910121197067018e-01 -1.0576989793970455e+00 -5.5457336970619697e-01 1.6926499123639163e+00 -1.8752304274925319e-01 2.2762686856277699e-02 -1.0648945857870449e+00 -8.5181948248076150e-02 2.2595653880631747e-01 5.6865439315123639e-02 -1.2488896287604841e-01 
        </Neuron>
        <Neuron NSynapses="15">
          2.0402900605868743e+00 -3.8335149685689290e-01 1.0415458263228574e+00 -9.3332225013711789e-01 2.4414204267657982e+00 3.1930659368158076e-01 -2.9501518089356455e+00 1.1351510309199877e+00 -1.5975169476105705e-01 -2.8803340316322052e+00 -5.9940743911149874e-01 1.6718410163150370e+00 -9.5636298042135459e-01 -1.9669171072179823e+00 5.9898308148066279e-02 
        </Neuron>
        <Neuron NSynapses="15">
          -5.2483999216318999e-01 1.6012640437218204e+00 9.2151761545409638e-01 6.6750649040524315e-03 4.8322951095391342e-01 3.0836945896532808e-01 2.8821888917320149e-01 1.0467880679704293e+00 1.8522167037663143e-01 7.9772671040162821e-02 2.0104248865522356e+00 1.5586586720913073e-01 2.3444126885197019e+00 1.9866481986716068e-02 1.3938892376508438e-01 
        </Neuron>
        <Neuron NSynapses="15">
          -1.7304943383997620e+00 5.4044761148730402e-01 1.8750101558557861e+00 1.6483384345126211e+00 1.6530999670529409e+00 2.9640371637567031e+00 -4.1750751447593115e-01 -1.1087639032564507e+00 6.4099622612832778e+00 -3.9967465577960321e-01 -1.3464458593591941e+00 -5.5083229896663233e-01 -2.4162415123634404e+00 -4.8612669026479677e-02 6.2465811121220236e+00 
        </Neuron>
        <Neuron NSynapses="15">
          -5.3712189111894482e-01 -4.0052958361826890e-01 -5.4732758319281294e-01 1.2314929892386348e+00 1.3003035855001024e+00 -2.2254613212031300e+00 2.9323874549838796e-01 -9.7914904278092707e-01 -5.8649891109719210e-01 -1.7681148621183975e+00 -2.2097570768629479e-01 1.1636046950120377e-02 6.3544080702376415e-01 -3.9075223629771026e-02 -1.9715440965582129e-01 
        </Neuron>
        <Neuron NSynapses="15">
          -8.9352525812971295e-01 -1.1328597429392031e+00 -1.5512819594128293e+00 -9.5507179549952670e-01 2.8311168100127859e-01 5.3965644724763684e-01 -3.9285666073653380e-01 2.6325166816947898e-01 -7.5246642715659739e-01 -1.8093116785352856e-01 3.0340432687625968e-01 6.9985703788150722e-01 -2.4028400375268663e-01 -5.1980725078819283e-02 -5.6258650476463345e-01 
        </Neuron>
        <Neuron NSynapses="15">
          7.4507338566612424e-01 -2.6276206508696687e-01 8.0340422766616060e-01 -1.7346896699092624e+00 -1.5613762565036501e-01 1.4329081453737513e+00 2.5075088850309424e-01 -1.9894963125720360e+00 -4.4076021540962612e-01 1.3651992580765100e+00 -7.4718044785551507e-01 1.1627196593531125e-01 1.0758176394224289e-01 5.7120994466785299e-02 -9.2037717676262010e-02 
        </Neuron>
        <Neuron NSynapses="15">
          4.4071876684243705e-01 -6.4607570221426502e-01 -1.9301751136916612e-01 1.2008953921307586e+00 1.3041670139528136e+00 -9.0424064793552206e-01 -7.1558796532155289e-01 5.1117754522550751e-01 -6.7958079523926351e-02 -4.2253938317997886e-01 7.3908096925547895e-01 -3.7913656828491771e-01 -1.8393382170838330e+00 -1.6939775916594393e-01 1.7787012460495394e-01 
        </Neuron>
        <Neuron NSynapses="15">
          -2.2742558733936211e+00 2.6210404147657146e-01 -9.6501622717289626e-02 -1.0202934950411950e-01 9.1655476332159502e-01 -5.4553592034914522e-01 -1.1631398075919330e+00 -5.4256389811100103e-01 -5.1444620062623792e-01 -1.4891156782844520e-01 1.4215807043166213e+00 -2.2576709778056681e+00 -5.5012980120342792e-01 -7.0359130417393889e-01 -8.6124210701504791e-02 
        </Neuron>
        <Neuron NSynapses="15">
          1.1680563428220145e+00 2.7044403459308350e+00 -7.4810450141634388e-01 3.2324564119215549e-01 6.3341500804235951e-01 9.3733583474627569e-01 4.3751415895806922e-01 -2.0510669805157344e+00 -4.7326518284790209e-01 -6.9816246416471073e-01 1.4370958328940753e+00 1.1690967001433932e+00 -9.0812543467525486e-01 6.0784188929677151e-02 -2.5680853858298003e-01 
        </Neuron>
        <Neuron NSynapses="15">
          -1.5522450433543822e+00 9.8767829815381070e-02 1.1620012291542352e+00 -3.4630480411295406e-01 -3.2480102896302498e-01 1.1802964796164715e-01 6.4429772453863621e-01 1.0769145484112366e-01 -7.9981956173902757e-01 -8.2101717432038646e-01 1.9630633470127443e+00 1.1774265008224465e-01 7.8921069783964459e-01 -4.2642364259099452e-02 -6.7399096361108235e-01 
        </Neuron>
        <Neuron NSynapses="15">
          -3.4424015198310015e-01 -1.2905592786015481e+00 1.1697992237201789e+00 -3.1635734595918735e-01 -2.7750088621489377e-01 8.3706147744987769e-01 -4.3527361801501491e-01 -7.1875032867483490e-01 -2.9409945720426894e-01 4.9288477583994522e-01 -1.1025746398173744e+00 2.7849011305721174e-02 -7.0870153211429321e-01 -1.7521007628834778e-02 -2.8714368032950982e-01 
        </Neuron>
        <Neuron NSynapses="15">
          -1.8667669005308769e+00 6.3404951748834912e-02 1.3174622756959153e+00 -2.2959595149423898e-01 4.3354413233975701e-02 1.4600688396034020e-01 4.6705078117744936e-02 1.0968506519475241e+00 6.3183044880898942e-01 -5.1933818659721839e-02 -7.3949344851188337e-01 1.9312710068702682e-01 8.4509434362567037e-01 6.5520012529170051e-03 5.3890431583106946e-01 
        </Neuron>
        <Neuron NSynapses="15">
          -3.8467222556222741e-01 -2.1125169968947968e+00 1.7884424713587048e+00 3.0721754906077853e-01 -9.9370985825430469e-01 -5.1878832206313374e-01 -1.1531667238097461e+00 5.6824957172310753e-01 -2.6154245649552460e-01 2.2212276411578999e+00 5.2698796770517708e-01 -5.3078825350397901e-03 -1.0782861838602320e+00 1.2288775093312942e-01 1.0002222951492832e+00 
        </Neuron>
        <Neuron NSynapses="15">
          7.7722943282773960e-01 -1.0237639321104497e+00 -1.5533578326676774e+00 -4.2952262104217565e-01 1.9736681116376793e+00 5.5108538442414634e-01 6.0545977510127846e-01 -4.1750495809563370e-03 9.3081976302947800e-01 -7.5093709507623219e-01 -1.2113742027086638e+00 6.4553946328020889e-02 -1.7773128032737551e-01 -8.5007486747858019e-02 4.7262475246970170e-01 
        </Neuron>
        <Neuron NSynapses="15">
          -1.5455540611123955e+00 1.0059020265076770e+00 3.8466823617116702e-01 -1.6681622355781907e+00 -1.2979164771176017e+00 2.2510155532364946e+00 -5.6211731014594302e-01 1.3794199929621664e+00 -1.7864282647936915e+00 1.1595325301888046e+00 -2.6645482271047478e+00 1.6383019028735657e+00 7.6188010549022889e-01 -2.9942253435056032e+00 4.0384090840544495e-01 
        </Neuron>
      </Layer>
      <Layer Index="1" NNeurons="16">
        <Neuron NSynapses="14">
          -1.3115694692831645e+00 -5.0099814069891335e-01 -2.3985840406139367e+00 -1.6739537657076839e+00 -2.0211492171711676e+00 1.9987972377058161e-01 -8.5106242478228877e-01 -2.1241347067104113e+00 9.0328001322054596e-01 -3.2470958061231076e-01 -2.0762469960989782e-01 -9.5408147728890114e-01 -4.6439984266017864e-01 1.9616647106717693e+00 
        </Neuron>
        <Neuron NSynapses="14">
          1.1730892182663852e+00 -3.8512527276438413e-01 -1.8409838978892006e+00 -1.7485149389014647e+00 -1.2878608531487568e+00 -1.5228996210432673e+00 -4.7869241577980381e-01 9.6976935523035979e-01 2.1528622907722088e+00 8.9294944810665167e-01 -2.4284873842142679e-01 -5.3197059990699047e-01 -1.3179486874345414e+00 1.4573645833809730e+00 
        </Neuron>
        <Neuron NSynapses="14">
          1.2009995644164464e+00 -6.7486048296580148e-01 -9.8407860094427158e-01 6.3842520939214137e-02 1.3346969610862429e+00 5.1646321821666474e-01 5.0687396166503113e-02 3.3759401220059626e-01 1.1996449603482031e+00 1.4832686801173173e-01 -8.4990829088897060e-02 -4.6488347920252848e-01 -2.6374585592245370e-01 -3.4698241864216062e-01 
        </Neuron>
        <Neuron NSynapses="14">
          -1.1981448428892081e+00 -1.4744091946576143e+00 -1.5406568828410609e+00 -2.1821758287589734e+00 -1.5137804162005233e+00 1.7129517575980453e+00 -2.0888143795366720e+00 7.7448887774535358e-01 -1.5821705006579625e+00 1.0622861066281140e+00 -8.5337909776463761e-01 -5.9550636646229935e-02 1.3045778123078441e-01 -1.4350081504872219e+00 
        </Neuron>
        <Neuron NSynapses="14">
          5.9054764305302536e-02 4.3187743611900586e-01 -1.9511846652226468e+00 -1.4935013623626625e+00 -1.6900539436888489e+00 -8.5780433804809730e-01 1.6997363304002533e+00 -4.8683496919764213e-01 3.0398012685349002e-01 -1.3006875970212841e+00 -1.5865551893660079e+00 -1.1014918948229426e+00 -7.2769877899516211e-01 -1.1907816979499393e+00 
        </Neuron>
        <Neuron NSynapses="14">
          5.6224749204724889e-01 -1.4790630072981159e+00 -1.3295588866714367e+00 1.5098414452156204e+00 2.7388361681006018e-01 -6.8888855738501364e-01 1.6212323268211171e+00 -1.1064217178746485e+00 1.5441401469573381e+00 1.1018960206357682e+00 -1.3757917832885997e+00 -8.3975543147419207e-01 6.2201744199993203e-01 -7.9748456265870737e-01 
        </Neuron>
        <Neuron NSynapses="14">
          1.3551563335723179e-04 2.0978838130098012e+00 9.6107720319643275e-01 1.1695652970210511e+00 -1.5879871138899162e+00 8.8546874511022788e-01 -2.8470170534659913e+00 1.2147015007638591e+00 -1.0384428100505672e+00 -1.3137512059485976e+00 2.7147112621371444e-01 2.3144723497771111e+00 1.1975299478947721e+00 1.3554809665522731e+00 
        </Neuron>
        <Neuron NSynapses="14">
          3.5442948287530390e-01 -1.9272942011909672e-01 -9.8479877415227335e-01 -6.2877360373146574e-01 1.6712626979421854e+00 -1.3866699686337669e+00 1.7241015931831491e-01 -6.4030559916529495e-01 -2.5779672194762543e-01 -1.4306130399634406e-01 1.1440081000439389e-02 -3.5536348642432647e-01 3.9693279085101973e-01 1.7913110390970588e+00 
        </Neuron>
        <Neuron NSynapses="14">
          9.9482237977137533e-01 9.8044204637968213e-01 -1.0375905626305699e+00 -1.9433248345841267e+00 -1.7963940878387876e+00 1.0465498272355442e+00 1.2103642433003270e-01 -1.8937954043488929e+00 1.1417938022103469e+00 -8.2711040793295987e-01 -2.0025808969053451e+00 -4.6254506878077617e-01 7.6139856252341309e-01 -6.8888388034658454e-01 
        </Neuron>
        <Neuron NSynapses="14">
          -2.0107523013676509e+00 -9.0739559828475513e-01 -1.1850383957712776e+00 -1.6281958168744926e+00 9.7943972134850088e-01 -1.5045713976498816e+00 -1.7379408039856219e+00 1.1411675520332616e+00 5.8415334721179490e-01 2.0344271298033523e-01 6.2228034432060453e-01 1.5298334624717451e+00 1.9129425901605004e+00 4.2316387647074116e-01 
        </Neuron>
        <Neuron NSynapses="14">
          -9.2869894992767621e-01 -5.1956749696694515e-01 -1.7340010725946629e+00 7.1689557932442027e-01 1.2030373146170219e+00 7.7695617816021342e-02 7.6495232478498620e-01 1.5971159679389464e+00 1.5135983746821766e+00 -3.5786177005385506e-01 7.5347591883525286e-02 4.1528343603470452e-01 -1.3466715872071990e+00 -2.7712090205605244e-01 
        </Neuron>
        <Neuron NSynapses="14">
          -6.0209339891306424e-01 1.2630600620252754e+00 5.9024292804597978e-02 1.2612943672515256e-01 1.2133122679800605e+00 -2.4179674324692621e-01 1.7518415091562904e+00 1.1403364037362034e+00 4.2970570821424409e-01 -5.7368864636968497e-01 1.1920856667301112e+00 -1.4063805181511424e+00 1.6649560722160886e-01 1.8063621190384438e+00 
        </Neuron>
        <Neuron NSynapses="14">
          -6.8711003528074699e-01 -8.3333985150195633e-01 -4.5400337431347731e-01 -9.8255016111554461e-01 -2.4505047098020427e-03 -1.9490069191465473e+00 -7.5624132440903724e-01 1.3040872334894087e+00 2.0097284198818834e+00 -4.8872027114639149e-01 1.2271324880935497e+00 -3.8734689609672257e-01 5.5060751136950703e-01 5.9062764423308289e-01 
        </Neuron>
        <Neuron NSynapses="14">
          1.6539207445530424e+00 -2.1833235776418176e+00 -1.3285395679942695e+00 -5.0286929254966939e-01 -1.6085154284884535e+00 -1.6984933716333463e+00 -2.2527430621390807e+00 1.9818582121493986e+00 2.9952890737832738e-01 -3.4348945694568598e+00 -1.3712797444263340e+00 -8.4564549306974113e-01 2.3193912425195107e+00 1.7788995300568979e+00 
        </Neuron>
        <Neuron NSynapses="14">
          1.8955507317128992e+00 -1.5575597543787765e+00 -1.6559501466513127e+00 -3.7712567891127308e-01 -1.2398421246167550e+00 -1.5112926152196291e+00 -3.2133903097650912e-01 -5.0212501677898858e-01 -1.5688124359493414e+00 6.5462080348537033e-01 1.5259860757228216e+00 -8.4203448588025764e-01 -2.4851279600537231e+00 -4.0883809258340142e-01 
        </Neuron>
        <Neuron NSynapses="14">
          1.9014443081465202e+00 -6.4553281807964147e-01 -4.1096447222344484e-02 9.7171041760492549e-01 1.1749241321313457e+00 -1.0299012549649438e+00 7.0916975361184231e-01 -1.7544215121725879e+00 1.9576733971058051e+00 1.7546441644178894e+00 -2.3991944430240369e-01 -3.0537726657093917e-01 4.0526923686255811e-01 -2.7139788707548301e-01 
        </Neuron>
      </Layer>
      <Layer Index="2" NNeurons="15">
        <Neuron NSynapses="1">
          -1.3339724691765051e-01 
        </Neuron>
        <Neuron NSynapses="1">
          7.3082404654945432e-01 
        </Neuron>
        <Neuron NSynapses="1">
          -3.3684087985137756e-01 
        </Neuron>
        <Neuron NSynapses="1">
          2.8137586524700492e-01 
        </Neuron>
        <Neuron NSynapses="1">
          7.8358689155833411e-02 
        </Neuron>
        <Neuron NSynapses="1">
          1.7864165220655523e+00 
        </Neuron>
        <Neuron NSynapses="1">
          5.6598747925306758e-01 
        </Neuron>
        <Neuron NSynapses="1">
          -2.9502516119567995e-01 
        </Neuron>
        <Neuron NSynapses="1">
          -1.8780899908400572e+00 
        </Neuron>
        <Neuron NSynapses="1">
          1.3734116700206405e+00 
        </Neuron>
        <Neuron NSynapses="1">
          1.4962868539425016e+00 
        </Neuron>
        <Neuron NSynapses="1">
          -8.1489594256546949e-01 
        </Neuron>
        <Neuron NSynapses="1">
          -1.1726791078419876e+00 
        </Neuron>
        <Neuron NSynapses="1">
          6.1729679246751420e-02 
        </Neuron>
        <Neuron NSynapses="1">
          1.0783602185715819e+00 
        </Neuron>
      </Layer>
      <Layer Index="3" NNeurons="1">
        <Neuron NSynapses="0"/>
      </Layer>
    </Layout>
  </Weights>
</MethodSetup>
