<?xml version="1.0"?>
<MethodSetup Method="MLP::MLP">
  <GeneralInfo>
    <Info name="TMVA Release" value="4.1.2 [262402]"/>
    <Info name="ROOT Release" value="5.32/00 [335872]"/>
    <Info name="Creator" value="obondu"/>
    <Info name="Date" value="Thu May 30 09:59:45 2013"/>
    <Info name="Host" value="Linux lxbuild168.cern.ch 2.6.18-308.16.1.el5 #1 SMP Thu Oct 4 14:02:28 CEST 2012 x86_64 x86_64 x86_64 GNU/Linux"/>
    <Info name="Dir" value="/afs/cern.ch/work/o/obondu/Higgs/CMSSW_5_3_9_patch1_radion/src/BJetRegression"/>
    <Info name="Training events" value="7742"/>
    <Info name="TrainingTime" value="8.95789802e+02"/>
    <Info name="AnalysisType" value="Regression"/>
  </GeneralInfo>
  <Options>
    <Option name="NCycles" modified="Yes">700</Option>
    <Option name="HiddenLayers" modified="Yes">N,N-1</Option>
    <Option name="NeuronType" modified="No">sigmoid</Option>
    <Option name="RandomSeed" modified="No">1</Option>
    <Option name="EstimatorType" modified="No">MSE</Option>
    <Option name="NeuronInputType" modified="No">sum</Option>
    <Option name="V" modified="No">False</Option>
    <Option name="VerbosityLevel" modified="No">Default</Option>
    <Option name="VarTransform" modified="Yes">Norm</Option>
    <Option name="H" modified="No">False</Option>
    <Option name="CreateMVAPdfs" modified="No">False</Option>
    <Option name="IgnoreNegWeightsInTraining" modified="No">False</Option>
    <Option name="TrainingMethod" modified="Yes">BFGS</Option>
    <Option name="LearningRate" modified="No">2.000000e-02</Option>
    <Option name="DecayRate" modified="No">1.000000e-02</Option>
    <Option name="TestRate" modified="Yes">5</Option>
    <Option name="EpochMonitoring" modified="No">False</Option>
    <Option name="Sampling" modified="No">1.000000e+00</Option>
    <Option name="SamplingEpoch" modified="No">1.000000e+00</Option>
    <Option name="SamplingImportance" modified="No">1.000000e+00</Option>
    <Option name="SamplingTraining" modified="No">True</Option>
    <Option name="SamplingTesting" modified="No">False</Option>
    <Option name="ResetStep" modified="No">50</Option>
    <Option name="Tau" modified="No">3.000000e+00</Option>
    <Option name="BPMode" modified="No">sequential</Option>
    <Option name="BatchSize" modified="No">-1</Option>
    <Option name="ConvergenceImprove" modified="No">1.000000e-30</Option>
    <Option name="ConvergenceTests" modified="No">-1</Option>
    <Option name="UseRegulator" modified="No">False</Option>
    <Option name="UpdateLimit" modified="No">10000</Option>
    <Option name="CalculateErrors" modified="No">False</Option>
    <Option name="WeightRange" modified="No">1.000000e+00</Option>
  </Options>
  <Variables NVar="15">
    <Variable VarIndex="0" Expression="jet_csvBtag" Label="jet_csvBtag" Title="jet_csvBtag" Unit="" Internal="jet_csvBtag" Type="F" Min="-1.00000000e+00" Max="1.00000000e+00"/>
    <Variable VarIndex="1" Expression="jet_pt" Label="jet_pt" Title="jet_pt" Unit="" Internal="jet_pt" Type="F" Min="2.50196285e+01" Max="3.37647278e+02"/>
    <Variable VarIndex="2" Expression="jet_eta" Label="jet_eta" Title="jet_eta" Unit="" Internal="jet_eta" Type="F" Min="-2.49434423e+00" Max="2.49357224e+00"/>
    <Variable VarIndex="3" Expression="jet_dPhiMet" Label="jet_dPhiMet" Title="jet_dPhiMet" Unit="" Internal="jet_dPhiMet" Type="F" Min="-3.14064693e+00" Max="3.14158082e+00"/>
    <Variable VarIndex="4" Expression="jet_Chadfrac" Label="jet_Chadfrac" Title="jet_Chadfrac" Unit="" Internal="jet_Chadfrac" Type="F" Min="1.74483266e-02" Max="1.40028059e+00"/>
    <Variable VarIndex="5" Expression="jet_Phofrac" Label="jet_Phofrac" Title="jet_Phofrac" Unit="" Internal="jet_Phofrac" Type="F" Min="0.00000000e+00" Max="1.02896833e+00"/>
    <Variable VarIndex="6" Expression="jet_Nhadfrac" Label="jet_Nhadfrac" Title="jet_Nhadfrac" Unit="" Internal="jet_Nhadfrac" Type="F" Min="0.00000000e+00" Max="8.25315952e-01"/>
    <Variable VarIndex="7" Expression="jet_Elefrac" Label="jet_Elefrac" Title="jet_Elefrac" Unit="" Internal="jet_Elefrac" Type="F" Min="0.00000000e+00" Max="8.88325572e-01"/>
    <Variable VarIndex="8" Expression="jet_Mufrac" Label="jet_Mufrac" Title="jet_Mufrac" Unit="" Internal="jet_Mufrac" Type="F" Min="0.00000000e+00" Max="9.14918363e-01"/>
    <Variable VarIndex="9" Expression="jet_ptD" Label="jet_ptD" Title="jet_ptD" Unit="" Internal="jet_ptD" Type="F" Min="1.40754536e-01" Max="8.10778022e-01"/>
    <Variable VarIndex="10" Expression="jet_secVtxPt" Label="jet_secVtxPt" Title="jet_secVtxPt" Unit="" Internal="jet_secVtxPt" Type="F" Min="-1.00000000e+00" Max="2.91737843e+00"/>
    <Variable VarIndex="11" Expression="jet_secVtx3dL" Label="jet_secVtx3dL" Title="jet_secVtx3dL" Unit="" Internal="jet_secVtx3dL" Type="F" Min="-1.00000000e+00" Max="9.60261726e+00"/>
    <Variable VarIndex="12" Expression="jet_secVtx3deL" Label="jet_secVtx3deL" Title="jet_secVtx3deL" Unit="" Internal="jet_secVtx3deL" Type="F" Min="-1.00000000e+00" Max="1.64628685e+00"/>
    <Variable VarIndex="13" Expression="ev_met_corrMet" Label="ev_met_corrMet" Title="ev_met_corrMet" Unit="" Internal="ev_met_corrMet" Type="F" Min="2.90479511e-01" Max="1.40669067e+02"/>
    <Variable VarIndex="14" Expression="ev_rho" Label="ev_rho" Title="ev_rho" Unit="" Internal="ev_rho" Type="F" Min="1.17973208e+00" Max="5.29539337e+01"/>
  </Variables>
  <Spectators NSpec="0"/>
  <Classes NClass="1">
    <Class Name="Regression" Index="0"/>
  </Classes>
  <Targets NTrgt="1">
    <Target TargetIndex="0" Expression="jet_prtPt" Label="jet_prtPt" Title="jet_prtPt" Unit="" Internal="jet_prtPt" Type="F" Min="7.98057652e+00" Max="2.26427719e+02"/>
  </Targets>
  <Transformations NTransformations="1">
    <Transform Name="Normalize">
      <Selection>
        <Input NInputs="16">
          <Input Type="Variable" Label="jet_csvBtag" Expression="jet_csvBtag"/>
          <Input Type="Variable" Label="jet_pt" Expression="jet_pt"/>
          <Input Type="Variable" Label="jet_eta" Expression="jet_eta"/>
          <Input Type="Variable" Label="jet_dPhiMet" Expression="jet_dPhiMet"/>
          <Input Type="Variable" Label="jet_Chadfrac" Expression="jet_Chadfrac"/>
          <Input Type="Variable" Label="jet_Phofrac" Expression="jet_Phofrac"/>
          <Input Type="Variable" Label="jet_Nhadfrac" Expression="jet_Nhadfrac"/>
          <Input Type="Variable" Label="jet_Elefrac" Expression="jet_Elefrac"/>
          <Input Type="Variable" Label="jet_Mufrac" Expression="jet_Mufrac"/>
          <Input Type="Variable" Label="jet_ptD" Expression="jet_ptD"/>
          <Input Type="Variable" Label="jet_secVtxPt" Expression="jet_secVtxPt"/>
          <Input Type="Variable" Label="jet_secVtx3dL" Expression="jet_secVtx3dL"/>
          <Input Type="Variable" Label="jet_secVtx3deL" Expression="jet_secVtx3deL"/>
          <Input Type="Variable" Label="ev_met_corrMet" Expression="ev_met_corrMet"/>
          <Input Type="Variable" Label="ev_rho" Expression="ev_rho"/>
          <Input Type="Target" Label="jet_prtPt" Expression="jet_prtPt"/>
        </Input>
        <Output NOutputs="16">
          <Output Type="Variable" Label="jet_csvBtag" Expression="jet_csvBtag"/>
          <Output Type="Variable" Label="jet_pt" Expression="jet_pt"/>
          <Output Type="Variable" Label="jet_eta" Expression="jet_eta"/>
          <Output Type="Variable" Label="jet_dPhiMet" Expression="jet_dPhiMet"/>
          <Output Type="Variable" Label="jet_Chadfrac" Expression="jet_Chadfrac"/>
          <Output Type="Variable" Label="jet_Phofrac" Expression="jet_Phofrac"/>
          <Output Type="Variable" Label="jet_Nhadfrac" Expression="jet_Nhadfrac"/>
          <Output Type="Variable" Label="jet_Elefrac" Expression="jet_Elefrac"/>
          <Output Type="Variable" Label="jet_Mufrac" Expression="jet_Mufrac"/>
          <Output Type="Variable" Label="jet_ptD" Expression="jet_ptD"/>
          <Output Type="Variable" Label="jet_secVtxPt" Expression="jet_secVtxPt"/>
          <Output Type="Variable" Label="jet_secVtx3dL" Expression="jet_secVtx3dL"/>
          <Output Type="Variable" Label="jet_secVtx3deL" Expression="jet_secVtx3deL"/>
          <Output Type="Variable" Label="ev_met_corrMet" Expression="ev_met_corrMet"/>
          <Output Type="Variable" Label="ev_rho" Expression="ev_rho"/>
          <Output Type="Target" Label="jet_prtPt" Expression="jet_prtPt"/>
        </Output>
      </Selection>
      <Class ClassIndex="0">
        <Ranges>
          <Range Index="0" Min="-1.0000000000000000e+00" Max="1.0000000000000000e+00"/>
          <Range Index="1" Min="2.5019628524780273e+01" Max="3.3764727783203125e+02"/>
          <Range Index="2" Min="-2.4943442344665527e+00" Max="2.4935722351074219e+00"/>
          <Range Index="3" Min="-3.1406469345092773e+00" Max="3.1415808200836182e+00"/>
          <Range Index="4" Min="1.7448326572775841e-02" Max="1.4002805948257446e+00"/>
          <Range Index="5" Min="0.0000000000000000e+00" Max="1.0289683341979980e+00"/>
          <Range Index="6" Min="0.0000000000000000e+00" Max="8.2531595230102539e-01"/>
          <Range Index="7" Min="0.0000000000000000e+00" Max="8.8832557201385498e-01"/>
          <Range Index="8" Min="0.0000000000000000e+00" Max="9.1491836309432983e-01"/>
          <Range Index="9" Min="1.4075453579425812e-01" Max="8.1077802181243896e-01"/>
          <Range Index="10" Min="-1.0000000000000000e+00" Max="2.9173784255981445e+00"/>
          <Range Index="11" Min="-1.0000000000000000e+00" Max="9.6026172637939453e+00"/>
          <Range Index="12" Min="-1.0000000000000000e+00" Max="1.6462868452072144e+00"/>
          <Range Index="13" Min="2.9047951102256775e-01" Max="1.4066906738281250e+02"/>
          <Range Index="14" Min="1.1797320842742920e+00" Max="5.2953933715820312e+01"/>
          <Range Index="15" Min="7.9805765151977539e+00" Max="2.2642771911621094e+02"/>
        </Ranges>
      </Class>
    </Transform>
  </Transformations>
  <MVAPdfs/>
  <Weights>
    <Layout NLayers="4">
      <Layer Index="0" NNeurons="16">
        <Neuron NSynapses="15">
          -8.4997199668134682e-02 5.5408929299883647e-01 -4.0372055229784959e-03 2.4096330043459218e+00 -5.8770571635491076e-01 6.6450568220846939e-01 -3.6149696816251231e-01 1.7558753818098856e+00 -9.3035332653015068e-01 -2.8538235152258085e-01 -7.5266590033737507e-02 -3.8222460677956815e-01 -2.7025461311547322e-01 6.6204377777347237e-03 -6.0060214849616739e-02 
        </Neuron>
        <Neuron NSynapses="15">
          1.0674963482841970e+00 -7.3405177321846526e-01 3.1416526889707779e+00 -1.0160386422032839e+00 5.1614729523059486e+00 -3.3720515769929932e-01 -5.7925641966336372e-01 5.1206923103391100e-01 4.8261480792715439e-01 -3.4829715219041164e+00 7.7705798689669026e-01 3.2249400945630229e+00 -2.4327467772827185e+00 -2.8565182889925915e+00 1.1415015113704696e+00 
        </Neuron>
        <Neuron NSynapses="15">
          -1.1472232960862920e+00 2.1677784135584997e+00 7.8488665195394580e-01 1.1920649915397996e+00 1.2012134219943131e+00 8.7676784911770489e-01 3.0393686528810310e-01 5.3519824164623586e-01 1.1707625933864828e-01 -6.4951646589139289e-01 1.0504097687008471e+00 1.2218904167541905e-01 2.3694979446308322e+00 4.4818325614149834e-02 -4.3590814521797701e-02 
        </Neuron>
        <Neuron NSynapses="15">
          -2.3420911565774429e+00 1.4087058223111359e+00 7.4216754160746479e-01 -3.4571749571519750e-01 1.4902120597835511e+00 6.8077701690754280e+00 -2.3469696420504485e-01 -1.4327554404626770e+00 2.1407068649217829e+00 -1.9961368148187053e-01 5.4996179395130230e-03 -4.0461003481135621e-01 -2.7871834629239522e+00 -2.6814784606187719e-01 7.1090970885071263e+00 
        </Neuron>
        <Neuron NSynapses="15">
          -1.4657589074417183e+00 -1.0731227648258815e-01 -2.6273452492398791e-01 -4.2341233592621291e-02 1.1139284190525496e+00 3.5266931885432271e-03 1.2806737815754679e+00 -1.0090610018002024e+00 7.0341061463987581e-02 -5.0605570161331892e-01 -7.0341326926609282e-01 -2.4914186483576656e-01 1.2325422598077289e+00 -6.9157001162499787e-01 -1.4080746291260611e+00 
        </Neuron>
        <Neuron NSynapses="15">
          -3.6437275524798346e-01 -2.0064537162997502e+00 -6.8984801399244811e-01 9.9399014225455973e-01 -4.4135648022892812e-02 1.3051231547964761e+00 -5.1901137893944238e-01 3.7825787186157513e-02 -1.4211018801778110e+00 -3.5275329311286396e-01 1.5381218704093280e+00 -4.6069559897568724e-01 -9.9789610401349949e-01 -4.1884797349163372e-01 -1.0857739672811189e+00 
        </Neuron>
        <Neuron NSynapses="15">
          6.7019109792272130e-02 -9.0743771407921114e-02 9.6414081491439407e-01 -8.6974549576089744e-01 1.0599492770132595e+00 7.3079959109756631e-01 -3.4585874122159588e-01 -1.8315099915388779e+00 -5.2657720389887441e-01 1.4903788135004143e+00 -7.2087090376971841e-01 -4.1625237905766138e-01 2.6174200210838705e-01 -1.2590778488381121e-01 7.2660380316495221e-01 
        </Neuron>
        <Neuron NSynapses="15">
          3.0309540687840830e-01 -7.2904546088641431e-01 -5.6978881605643439e-01 -1.8796981859542150e-01 5.3168887146026822e-01 -1.5157107228437147e-02 -1.0003288562850219e+00 2.6764750628215012e-01 -4.2023370682546607e-02 -7.2619180217385360e-01 1.2678186580323298e+00 -5.2958905990576322e-01 -2.3603905882293135e+00 -3.6819347106739136e-01 1.0301656042500358e-01 
        </Neuron>
        <Neuron NSynapses="15">
          -1.2087490639628458e+00 2.4300054254680303e-02 4.2228881392927042e-01 1.2663907444392575e+00 7.1233063885919612e-01 9.1760547585719576e-01 -3.4583723687111778e-01 -3.7363758964696725e-01 -1.3042670108283492e+00 4.9247228212705507e-01 -8.7325381982615524e-01 -6.9017043960951296e-01 3.7820509106528988e-01 -4.8906196182628947e-01 -6.5218237815058255e-01 
        </Neuron>
        <Neuron NSynapses="15">
          -1.8095000480170581e-01 1.0467165887040786e+00 -1.5612751551233912e+00 1.0204731942120835e+00 -3.7155698310283447e-01 8.6016395830635431e-02 7.1817225171651522e-01 -2.1608041727047245e+00 -1.7659148779347320e+00 -1.2915326488062688e+00 3.3632623264756059e+00 5.7703519022383765e-01 -9.1463975615569448e-01 -2.2279356006199899e-01 -1.1182108448878458e+00 
        </Neuron>
        <Neuron NSynapses="15">
          -1.7395872671216157e+00 -1.1689063384320164e-01 1.9693480795349190e+00 -6.4572387748006321e-01 -9.7482885028487154e-01 -7.9457656116759501e-01 -3.9369107060935188e-03 1.7067432390807513e-01 7.7435311142611829e-01 -2.6096737860479515e+00 1.6874265825853167e+00 4.9958181196407103e-01 4.0116609430913192e-01 2.9842105544079894e-01 1.3290366537265574e-01 
        </Neuron>
        <Neuron NSynapses="15">
          -1.0718866000218055e+00 -1.0640557624843672e+00 9.2391775391473419e-01 -1.3718036426918554e+00 -5.6560763537904313e-01 3.0540324838950994e-01 -9.4808312796556482e-01 -6.6713162478597787e-01 5.5047798952253713e-01 1.1042021117715535e+00 -1.0925704945192403e+00 -2.1573835101550765e-01 -2.1996046672955424e-01 7.6208676729135505e-02 -2.3787296026033111e-01 
        </Neuron>
        <Neuron NSynapses="15">
          -1.6460074120968520e+00 2.9520361736148792e-01 2.6061183994650370e+00 -2.2555282921619018e+00 -9.2067001283949224e-01 -5.6564563519215738e-02 6.6293290841769537e-01 1.3477141554453000e+00 1.3704569467594476e+00 -2.8516262758704453e-01 -1.3664392472689291e+00 -8.6976954032429152e-02 1.5958731594556275e+00 -2.5308543738285427e-01 -6.8297664240032119e-01 
        </Neuron>
        <Neuron NSynapses="15">
          -7.8424406483872067e-01 -1.8844420214258728e+00 5.0607072386009144e-01 -5.3220168780527743e-01 -7.0937525921087130e-01 -7.3838817465690088e-01 -9.8773934890920692e-02 7.5685927073202652e-02 -4.2604595317335292e+00 1.1995066429212167e+00 2.6177433702553446e-02 -1.7436174803086554e-02 1.5902564160330887e-01 2.5612028480787197e-01 2.9122985546393219e+00 
        </Neuron>
        <Neuron NSynapses="15">
          1.0066498678650120e+00 2.9302250261782148e-01 -1.9286822562783295e+00 -1.7198598827813596e+00 1.5410062678152028e+00 4.3475155493377482e-01 -1.7053223848708540e-01 -2.8496752497600408e-01 1.1710910436505748e+00 -2.1686320084811039e+00 -2.1816482967669368e+00 4.3512536179615730e-01 -9.6109745684034587e-01 2.4155146347704978e-01 -7.9670976434983679e-02 
        </Neuron>
        <Neuron NSynapses="15">
          -1.0959586634125158e+00 1.2766129412986571e+00 -8.8340720650320503e-01 -1.3673747461261061e+00 -1.3942179725578563e+00 3.6737973920550129e-03 -1.2917840408859027e+00 1.4210581552549018e+00 -1.3080674800369843e+00 1.5653516116722817e+00 -2.6263170477653421e+00 3.9987234821594635e+00 5.8327312440771073e-01 -2.8768580487971929e+00 6.0000092046352371e-01 
        </Neuron>
      </Layer>
      <Layer Index="1" NNeurons="16">
        <Neuron NSynapses="14">
          5.5582993584873908e-01 6.4685707581494195e-02 -2.1732911605865346e+00 -1.8946636290223282e+00 -2.8542731120938072e+00 2.9661153674350477e-01 -1.6185111534721335e+00 -8.7528420623387104e-01 1.3589750945291830e+00 -1.2905715530496327e+00 1.9011444954458917e-01 -7.6268197984179875e-01 2.8921471711046304e-01 2.0900050928461673e+00 
        </Neuron>
        <Neuron NSynapses="14">
          -6.1839755972654187e-01 -9.8235693013458802e-01 -1.3641232273050179e+00 -1.6995681438605639e+00 -6.6745664677326955e-01 -8.0275278693393204e-01 1.0740385946517468e-01 8.3337257682870008e-02 2.3797900499359406e+00 4.1635747647634547e-01 5.3609797765694089e-01 -1.7657641185002468e-01 -1.9175654633301031e+00 1.4313311052092648e+00 
        </Neuron>
        <Neuron NSynapses="14">
          5.2450000613406311e-01 -7.5927034457742493e-01 -1.0194295440116894e+00 2.1836798939463686e-01 1.3784547912552745e+00 1.5460271689255325e+00 -9.4392790813313282e-02 -1.1309648332766364e+00 1.3350760065953811e+00 7.0401466469593621e-01 6.6279276301523926e-01 7.0443707294653590e-01 -8.1909363285506548e-02 -5.7521983014617373e-01 
        </Neuron>
        <Neuron NSynapses="14">
          -6.6190571735515547e-01 -5.0533707754337920e-01 -1.8107240791206050e+00 -1.9369114562796992e+00 -1.2142182112946744e+00 1.8394816819129323e+00 -1.5451143441127184e+00 1.5702167227937809e+00 -1.0047219007694292e+00 9.4788077664439208e-01 -1.1979158781554848e+00 -5.3936898892328600e-01 5.4610822378097845e-01 -1.7184361670266382e+00 
        </Neuron>
        <Neuron NSynapses="14">
          1.1078025706551707e-01 5.0520575031311910e-01 -1.9467571756035695e+00 -1.4627069971557001e+00 -1.9950622060615035e+00 -1.4498305713979396e+00 1.7709258881353100e+00 2.0574568268745541e-02 3.4669581981010228e-01 -1.1065478942444775e+00 -1.9865675442860744e+00 -3.1021916366586773e+00 -9.4775907046973851e-01 -5.5202609680498083e-01 
        </Neuron>
        <Neuron NSynapses="14">
          6.6990578625536390e-01 -1.0349165101870503e+00 -1.2085041972608785e+00 1.5582761659418716e+00 3.0211394467153396e-01 1.1879050192914260e-01 1.6794778948938951e+00 -1.9086189094567223e+00 1.5828256799858587e+00 2.4478821663069699e+00 -1.4409914399528432e+00 -1.6523974630858380e+00 1.3700262016558634e-01 -7.5507414937722250e-01 
        </Neuron>
        <Neuron NSynapses="14">
          7.3325694113316198e-01 1.7706171454551585e+00 1.1978712746386979e+00 1.1935438791690429e+00 -6.1826280967846414e-01 1.0130303339469702e+00 -1.5572111217444411e+00 8.9670174786994916e-01 -1.0710604291966126e+00 -3.3333065869924489e-01 3.9317801983283096e-01 1.6055303847938163e+00 2.6201477015839880e-01 1.2908585354911797e+00 
        </Neuron>
        <Neuron NSynapses="14">
          8.6107365307989747e-01 -1.5913914830327713e-01 -7.5383767503848642e-01 -4.9619788280272503e-01 1.5834177605014677e+00 -5.3505621093029654e-01 2.8809103500225886e-01 -1.1595572817457314e+00 -5.8206936706996490e-02 -6.3926486751821199e-01 -4.3240427897992512e-01 -9.9034646913036739e-01 9.9470244128683882e-01 1.7926541254685981e+00 
        </Neuron>
        <Neuron NSynapses="14">
          1.5985924227172026e+00 -2.0170334668824852e-01 -9.8821283703827112e-01 -1.8665492518489417e+00 -1.6646803875916907e+00 6.0979227482253084e-01 -3.0566270497719050e-01 -1.5404332808450263e+00 1.1743728091460623e+00 -1.8090380121401159e+00 -4.6860079219604811e-01 -1.3924802991407352e+00 9.5037290664287710e-01 -7.3995266454862685e-01 
        </Neuron>
        <Neuron NSynapses="14">
          -1.4093555889270679e+00 -1.0643618056134465e+00 -1.0662584604177481e+00 -1.9173392924245847e+00 1.0732767316000675e+00 -2.0070090461357712e+00 -1.8070272613458074e+00 1.4227771621218563e+00 9.0883409848949548e-01 1.5287373858605905e-02 2.2228865808627335e-01 1.3626743012510358e+00 2.0003047273107146e+00 5.3777010981752138e-01 
        </Neuron>
        <Neuron NSynapses="14">
          -1.2821874309988983e+00 -4.6798368082817515e-01 -1.7237282540268406e+00 6.8361460447668665e-01 5.5796672126343094e-01 3.5668186338812480e-01 7.0741756467145833e-01 5.3560314908721895e-01 1.5308181997565491e+00 -9.0034480913464476e-01 1.6191049230214609e+00 2.0036933126039838e+00 -1.8358888045249240e+00 -3.9746014589441359e-01 
        </Neuron>
        <Neuron NSynapses="14">
          -4.8713496119706695e-01 1.1688846604114909e+00 2.9957946645114886e-01 2.3402342319348965e-01 1.7208893108018672e+00 7.1276877872213185e-01 1.7543427835758703e+00 1.2257275082942207e+00 2.1873021443370072e-01 -1.6297496459139540e+00 1.7557797034436213e+00 -3.1786917291039535e-01 4.0485393701369810e-01 1.7216191567928234e+00 
        </Neuron>
        <Neuron NSynapses="14">
          -7.4019067698390129e-01 -1.1081299334218309e+00 -1.8476448903804035e-01 -1.1729520292491595e+00 2.2389545885209533e-01 -2.4502946689195237e+00 -2.5025452927071712e-01 2.5721160278187555e-01 2.1815093733640456e+00 9.0735906215185147e-01 9.5756069253509057e-01 7.7319497373983703e-01 -7.3327803571793970e-02 7.3595419495473458e-01 
        </Neuron>
        <Neuron NSynapses="14">
          9.0173288622481451e-01 -2.1460226113757153e+00 -1.3268019094854120e+00 -6.5965077651885307e-01 -8.6606869851817725e-01 -2.9160254594934516e+00 -1.6192440418323897e+00 1.9714620451047804e+00 4.7705796980557169e-01 -1.0086895468612440e+00 -2.9571029470180208e+00 -3.9702136640318081e-01 1.9634977334836883e+00 2.1571863465875740e+00 
        </Neuron>
        <Neuron NSynapses="14">
          3.2472022057876710e+00 -9.8112813349659678e-01 -1.8901338085706103e+00 -2.8697176340083302e-01 -1.8585952917176372e+00 -7.2551702866442647e-01 -8.3286457603077513e-01 2.9989654462826948e-01 -1.1270157717908267e+00 1.1949739841939739e+00 1.0136590310091893e+00 9.1837254863725892e-01 -6.6855469916164212e-01 -3.7151265228215158e-01 
        </Neuron>
        <Neuron NSynapses="14">
          2.1609003307208758e+00 -6.0135298277767490e-01 2.0509865334524391e-01 9.2074540805972038e-01 1.5849360337263863e+00 -6.0732450861694087e-01 1.1396193955477416e+00 -2.4256314331313682e+00 2.2388596712435271e+00 1.4590793906032200e+00 -5.2567614114454242e-01 6.6877057161046871e-01 2.4017097350616864e-01 -1.6543725642013879e-01 
        </Neuron>
      </Layer>
      <Layer Index="2" NNeurons="15">
        <Neuron NSynapses="1">
          9.0067201254256857e-01 
        </Neuron>
        <Neuron NSynapses="1">
          6.8284159398131994e-01 
        </Neuron>
        <Neuron NSynapses="1">
          -7.2753034666903404e-01 
        </Neuron>
        <Neuron NSynapses="1">
          -3.2856288002799394e-01 
        </Neuron>
        <Neuron NSynapses="1">
          6.2663211874592151e-01 
        </Neuron>
        <Neuron NSynapses="1">
          2.2845934230172316e+00 
        </Neuron>
        <Neuron NSynapses="1">
          -6.1503611859008034e-01 
        </Neuron>
        <Neuron NSynapses="1">
          1.3090434954843952e+00 
        </Neuron>
        <Neuron NSynapses="1">
          -2.3526280934482857e+00 
        </Neuron>
        <Neuron NSynapses="1">
          5.1138929510356401e-01 
        </Neuron>
        <Neuron NSynapses="1">
          2.6203698680848291e+00 
        </Neuron>
        <Neuron NSynapses="1">
          -2.5230203094513812e+00 
        </Neuron>
        <Neuron NSynapses="1">
          4.1605825099357763e-01 
        </Neuron>
        <Neuron NSynapses="1">
          -7.6735639154515112e-01 
        </Neuron>
        <Neuron NSynapses="1">
          4.5353756987469174e-01 
        </Neuron>
      </Layer>
      <Layer Index="3" NNeurons="1">
        <Neuron NSynapses="0"/>
      </Layer>
    </Layout>
  </Weights>
</MethodSetup>
