<?xml version="1.0"?>
<MethodSetup Method="MLP::MLP">
  <GeneralInfo>
    <Info name="TMVA Release" value="4.1.2 [262402]"/>
    <Info name="ROOT Release" value="5.32/00 [335872]"/>
    <Info name="Creator" value="obondu"/>
    <Info name="Date" value="Mon Jun  3 11:01:34 2013"/>
    <Info name="Host" value="Linux lxbuild168.cern.ch 2.6.18-308.16.1.el5 #1 SMP Thu Oct 4 14:02:28 CEST 2012 x86_64 x86_64 x86_64 GNU/Linux"/>
    <Info name="Dir" value="/afs/cern.ch/work/o/obondu/Higgs/CMSSW_5_3_9_patch1_radion/src/BJetRegression"/>
    <Info name="Training events" value="8204"/>
    <Info name="TrainingTime" value="9.72460136e+02"/>
    <Info name="AnalysisType" value="Regression"/>
  </GeneralInfo>
  <Options>
    <Option name="NCycles" modified="Yes">700</Option>
    <Option name="HiddenLayers" modified="Yes">N,N-1</Option>
    <Option name="NeuronType" modified="No">sigmoid</Option>
    <Option name="RandomSeed" modified="No">1</Option>
    <Option name="EstimatorType" modified="No">MSE</Option>
    <Option name="NeuronInputType" modified="No">sum</Option>
    <Option name="V" modified="No">False</Option>
    <Option name="VerbosityLevel" modified="No">Default</Option>
    <Option name="VarTransform" modified="Yes">Norm</Option>
    <Option name="H" modified="No">False</Option>
    <Option name="CreateMVAPdfs" modified="No">False</Option>
    <Option name="IgnoreNegWeightsInTraining" modified="No">False</Option>
    <Option name="TrainingMethod" modified="Yes">BFGS</Option>
    <Option name="LearningRate" modified="No">2.000000e-02</Option>
    <Option name="DecayRate" modified="No">1.000000e-02</Option>
    <Option name="TestRate" modified="Yes">5</Option>
    <Option name="EpochMonitoring" modified="No">False</Option>
    <Option name="Sampling" modified="No">1.000000e+00</Option>
    <Option name="SamplingEpoch" modified="No">1.000000e+00</Option>
    <Option name="SamplingImportance" modified="No">1.000000e+00</Option>
    <Option name="SamplingTraining" modified="No">True</Option>
    <Option name="SamplingTesting" modified="No">False</Option>
    <Option name="ResetStep" modified="No">50</Option>
    <Option name="Tau" modified="No">3.000000e+00</Option>
    <Option name="BPMode" modified="No">sequential</Option>
    <Option name="BatchSize" modified="No">-1</Option>
    <Option name="ConvergenceImprove" modified="No">1.000000e-30</Option>
    <Option name="ConvergenceTests" modified="No">-1</Option>
    <Option name="UseRegulator" modified="No">False</Option>
    <Option name="UpdateLimit" modified="No">10000</Option>
    <Option name="CalculateErrors" modified="No">False</Option>
    <Option name="WeightRange" modified="No">1.000000e+00</Option>
  </Options>
  <Variables NVar="15">
    <Variable VarIndex="0" Expression="jet_csvBtag" Label="jet_csvBtag" Title="jet_csvBtag" Unit="" Internal="jet_csvBtag" Type="F" Min="1.23532675e-03" Max="1.00000000e+00"/>
    <Variable VarIndex="1" Expression="jet_pt" Label="jet_pt" Title="jet_pt" Unit="" Internal="jet_pt" Type="F" Min="2.50291405e+01" Max="3.37647278e+02"/>
    <Variable VarIndex="2" Expression="jet_eta" Label="jet_eta" Title="jet_eta" Unit="" Internal="jet_eta" Type="F" Min="-2.49213910e+00" Max="2.49357224e+00"/>
    <Variable VarIndex="3" Expression="jet_dPhiMet" Label="jet_dPhiMet" Title="jet_dPhiMet" Unit="" Internal="jet_dPhiMet" Type="F" Min="-3.14125919e+00" Max="3.14101672e+00"/>
    <Variable VarIndex="4" Expression="jet_Chadfrac" Label="jet_Chadfrac" Title="jet_Chadfrac" Unit="" Internal="jet_Chadfrac" Type="F" Min="6.49917722e-02" Max="1.78381979e+00"/>
    <Variable VarIndex="5" Expression="jet_Phofrac" Label="jet_Phofrac" Title="jet_Phofrac" Unit="" Internal="jet_Phofrac" Type="F" Min="0.00000000e+00" Max="8.97057831e-01"/>
    <Variable VarIndex="6" Expression="jet_Nhadfrac" Label="jet_Nhadfrac" Title="jet_Nhadfrac" Unit="" Internal="jet_Nhadfrac" Type="F" Min="0.00000000e+00" Max="6.82914972e-01"/>
    <Variable VarIndex="7" Expression="jet_Elefrac" Label="jet_Elefrac" Title="jet_Elefrac" Unit="" Internal="jet_Elefrac" Type="F" Min="0.00000000e+00" Max="8.88325572e-01"/>
    <Variable VarIndex="8" Expression="jet_Mufrac" Label="jet_Mufrac" Title="jet_Mufrac" Unit="" Internal="jet_Mufrac" Type="F" Min="0.00000000e+00" Max="7.33251214e-01"/>
    <Variable VarIndex="9" Expression="jet_ptD" Label="jet_ptD" Title="jet_ptD" Unit="" Internal="jet_ptD" Type="F" Min="1.38248578e-01" Max="7.87326455e-01"/>
    <Variable VarIndex="10" Expression="jet_secVtxPt" Label="jet_secVtxPt" Title="jet_secVtxPt" Unit="" Internal="jet_secVtxPt" Type="F" Min="-1.00000000e+00" Max="2.91737843e+00"/>
    <Variable VarIndex="11" Expression="jet_secVtx3dL" Label="jet_secVtx3dL" Title="jet_secVtx3dL" Unit="" Internal="jet_secVtx3dL" Type="F" Min="-1.00000000e+00" Max="8.74457169e+00"/>
    <Variable VarIndex="12" Expression="jet_secVtx3deL" Label="jet_secVtx3deL" Title="jet_secVtx3deL" Unit="" Internal="jet_secVtx3deL" Type="F" Min="-1.00000000e+00" Max="1.64628685e+00"/>
    <Variable VarIndex="13" Expression="ev_met_corrMet" Label="ev_met_corrMet" Title="ev_met_corrMet" Unit="" Internal="ev_met_corrMet" Type="F" Min="6.93565726e-01" Max="1.47479385e+02"/>
    <Variable VarIndex="14" Expression="ev_rho" Label="ev_rho" Title="ev_rho" Unit="" Internal="ev_rho" Type="F" Min="2.98924148e-01" Max="5.29539337e+01"/>
  </Variables>
  <Spectators NSpec="0"/>
  <Classes NClass="1">
    <Class Name="Regression" Index="0"/>
  </Classes>
  <Targets NTrgt="1">
    <Target TargetIndex="0" Expression="jet_genPt" Label="jet_genPt" Title="jet_genPt" Unit="" Internal="jet_genPt" Type="F" Min="3.32112885e+00" Max="3.60509338e+02"/>
  </Targets>
  <Transformations NTransformations="1">
    <Transform Name="Normalize">
      <Selection>
        <Input NInputs="16">
          <Input Type="Variable" Label="jet_csvBtag" Expression="jet_csvBtag"/>
          <Input Type="Variable" Label="jet_pt" Expression="jet_pt"/>
          <Input Type="Variable" Label="jet_eta" Expression="jet_eta"/>
          <Input Type="Variable" Label="jet_dPhiMet" Expression="jet_dPhiMet"/>
          <Input Type="Variable" Label="jet_Chadfrac" Expression="jet_Chadfrac"/>
          <Input Type="Variable" Label="jet_Phofrac" Expression="jet_Phofrac"/>
          <Input Type="Variable" Label="jet_Nhadfrac" Expression="jet_Nhadfrac"/>
          <Input Type="Variable" Label="jet_Elefrac" Expression="jet_Elefrac"/>
          <Input Type="Variable" Label="jet_Mufrac" Expression="jet_Mufrac"/>
          <Input Type="Variable" Label="jet_ptD" Expression="jet_ptD"/>
          <Input Type="Variable" Label="jet_secVtxPt" Expression="jet_secVtxPt"/>
          <Input Type="Variable" Label="jet_secVtx3dL" Expression="jet_secVtx3dL"/>
          <Input Type="Variable" Label="jet_secVtx3deL" Expression="jet_secVtx3deL"/>
          <Input Type="Variable" Label="ev_met_corrMet" Expression="ev_met_corrMet"/>
          <Input Type="Variable" Label="ev_rho" Expression="ev_rho"/>
          <Input Type="Target" Label="jet_genPt" Expression="jet_genPt"/>
        </Input>
        <Output NOutputs="16">
          <Output Type="Variable" Label="jet_csvBtag" Expression="jet_csvBtag"/>
          <Output Type="Variable" Label="jet_pt" Expression="jet_pt"/>
          <Output Type="Variable" Label="jet_eta" Expression="jet_eta"/>
          <Output Type="Variable" Label="jet_dPhiMet" Expression="jet_dPhiMet"/>
          <Output Type="Variable" Label="jet_Chadfrac" Expression="jet_Chadfrac"/>
          <Output Type="Variable" Label="jet_Phofrac" Expression="jet_Phofrac"/>
          <Output Type="Variable" Label="jet_Nhadfrac" Expression="jet_Nhadfrac"/>
          <Output Type="Variable" Label="jet_Elefrac" Expression="jet_Elefrac"/>
          <Output Type="Variable" Label="jet_Mufrac" Expression="jet_Mufrac"/>
          <Output Type="Variable" Label="jet_ptD" Expression="jet_ptD"/>
          <Output Type="Variable" Label="jet_secVtxPt" Expression="jet_secVtxPt"/>
          <Output Type="Variable" Label="jet_secVtx3dL" Expression="jet_secVtx3dL"/>
          <Output Type="Variable" Label="jet_secVtx3deL" Expression="jet_secVtx3deL"/>
          <Output Type="Variable" Label="ev_met_corrMet" Expression="ev_met_corrMet"/>
          <Output Type="Variable" Label="ev_rho" Expression="ev_rho"/>
          <Output Type="Target" Label="jet_genPt" Expression="jet_genPt"/>
        </Output>
      </Selection>
      <Class ClassIndex="0">
        <Ranges>
          <Range Index="0" Min="1.2353267520666122e-03" Max="1.0000000000000000e+00"/>
          <Range Index="1" Min="2.5029140472412109e+01" Max="3.3764727783203125e+02"/>
          <Range Index="2" Min="-2.4921391010284424e+00" Max="2.4935722351074219e+00"/>
          <Range Index="3" Min="-3.1412591934204102e+00" Max="3.1410167217254639e+00"/>
          <Range Index="4" Min="6.4991772174835205e-02" Max="1.7838197946548462e+00"/>
          <Range Index="5" Min="0.0000000000000000e+00" Max="8.9705783128738403e-01"/>
          <Range Index="6" Min="0.0000000000000000e+00" Max="6.8291497230529785e-01"/>
          <Range Index="7" Min="0.0000000000000000e+00" Max="8.8832557201385498e-01"/>
          <Range Index="8" Min="0.0000000000000000e+00" Max="7.3325121402740479e-01"/>
          <Range Index="9" Min="1.3824857771396637e-01" Max="7.8732645511627197e-01"/>
          <Range Index="10" Min="-1.0000000000000000e+00" Max="2.9173784255981445e+00"/>
          <Range Index="11" Min="-1.0000000000000000e+00" Max="8.7445716857910156e+00"/>
          <Range Index="12" Min="-1.0000000000000000e+00" Max="1.6462868452072144e+00"/>
          <Range Index="13" Min="6.9356572628021240e-01" Max="1.4747938537597656e+02"/>
          <Range Index="14" Min="2.9892414808273315e-01" Max="5.2953933715820312e+01"/>
          <Range Index="15" Min="3.3211288452148438e+00" Max="3.6050933837890625e+02"/>
        </Ranges>
      </Class>
    </Transform>
  </Transformations>
  <MVAPdfs/>
  <Weights>
    <Layout NLayers="4">
      <Layer Index="0" NNeurons="16">
        <Neuron NSynapses="15">
          7.0074592616966835e-01 5.8615678974650964e-01 3.3018928698959227e-02 1.3270707885114907e-01 -1.0776106612171215e+00 1.6050571283054992e-02 -6.5778579033980999e-01 1.3788514986268658e+00 6.7658409134405934e-02 4.3204686128855523e-02 -1.0521203417958327e+00 2.6395379643118597e-02 -8.4982922243434189e-01 -1.2080870551660904e-01 3.0540012248138387e-01 
        </Neuron>
        <Neuron NSynapses="15">
          -6.7631366724105468e-01 -6.4422689983226411e-01 2.7471291869980767e+00 -1.8979286076059168e+00 3.6300252058984679e+00 -3.7064844163708927e-01 -6.8531645271568953e-01 -2.3905805065878724e-01 -2.4019375782746011e-01 -3.0368399611261419e+00 1.0484665360683871e+00 1.6118129853902663e+00 -1.6945935644721142e+00 -2.0379543777054678e+00 1.2613237682638008e+00 
        </Neuron>
        <Neuron NSynapses="15">
          5.3261283349034971e-01 5.6955798762387366e-01 4.4432239351045971e-01 -2.2417856394432107e-03 4.4914602315303787e-01 -4.5702929417562908e-04 -1.0584897268684650e+00 1.4877616509944851e+00 -1.0357242763989609e-02 -1.9374667689261046e-01 5.6407648120227438e-01 -8.3959050351464851e-03 2.5617295386232684e+00 9.2598204577992199e-02 1.4821560282626145e-01 
        </Neuron>
        <Neuron NSynapses="15">
          -5.3251290112164695e-01 9.1884634025175971e-01 1.6145643408143222e+00 -6.9363193210728025e-01 1.6818110278205027e+00 6.2771931855329086e+00 6.6870263845326516e-01 -1.5989139572439977e+00 4.5866873613598269e+00 -1.0352189011172097e+00 -7.7356107340551405e-01 -3.7598418645765508e-01 -1.3230919291640959e+00 6.3280600181402591e-01 6.6889058844694045e+00 
        </Neuron>
        <Neuron NSynapses="15">
          -1.5432280763555681e+00 -1.0572567061507780e+00 -5.0929468537884681e-01 -1.7893266343103539e-01 1.0138448669336060e+00 -7.3441400221223452e-01 7.9127493860321163e-01 -1.3061824462841545e+00 -7.1728171011565658e-02 -1.2653948869093341e+00 4.5105393771753721e-01 -2.3207000281672330e-01 3.4133302845373098e-01 -3.3491495180864667e-01 -3.3382967551066295e-01 
        </Neuron>
        <Neuron NSynapses="15">
          -5.9776371371294390e-01 -1.2477725841980416e+00 -1.1179005190564903e+00 -2.8503740009048023e-01 5.6322116203052264e-01 -1.0204787417382913e-02 1.1496345962026897e-01 7.2316936055743530e-01 -9.6838849113027681e-01 7.2547479304554633e-03 4.8684617614441716e-01 -9.1548529639831788e-02 -1.3123798218230616e+00 -8.3157095095421726e-02 -7.4947088754255531e-01 
        </Neuron>
        <Neuron NSynapses="15">
          -1.4455251647480314e+00 -5.9885620684537588e-01 1.1523520589577063e+00 -2.5570740263559089e-01 8.7637885435693674e-01 3.0567340358603923e-01 -5.0763812452361345e-01 -1.4391931035899685e+00 -1.2751012829844206e+00 1.3657483468629550e+00 -6.7795043685604506e-01 -1.0199968039336228e-01 -7.3812372164539147e-02 6.2678336029409781e-02 -4.7912401359531270e-01 
        </Neuron>
        <Neuron NSynapses="15">
          1.8016821254316845e-01 -1.3460284367834521e+00 -3.0995534692695481e-01 1.6996947731241996e-01 1.0705180465391781e+00 7.5767885374596078e-01 7.2781503659217783e-01 -1.8407815538971242e-01 -1.5276110303279009e-01 -8.1062839134159703e-01 1.6413355540339736e+00 3.0181472213479149e-01 -8.8709388564999858e-01 -3.3398087920464875e-01 6.7455563233826299e-01 
        </Neuron>
        <Neuron NSynapses="15">
          -2.7459770362423366e+00 -5.1469935058056304e-01 3.8509479344031883e-01 -2.3766076848249118e-01 9.5106387937367132e-01 -1.0251166642907483e-01 6.2442408449116138e-01 -7.5794242908225462e-01 -7.2482518405043805e-01 5.6919152998340961e-01 1.0186596811257076e+00 -6.0368873405425505e-01 -6.5564565002038966e-01 -1.5787045019732353e+00 -6.4390806255634658e-01 
        </Neuron>
        <Neuron NSynapses="15">
          -7.7032010696082509e-02 2.7205789846220036e+00 -1.5768312228317556e+00 1.5695058730189521e-01 7.6535568006580512e-01 -4.9690710720903319e-01 4.5594209039677480e-01 -9.9992542610045354e-01 -9.7852151275806043e-02 -5.5771811192089560e-01 8.1011809363670972e-01 3.9111111222614575e-01 5.2021782810968309e-02 1.6797253192778880e-01 -5.6338126621891908e-03 
        </Neuron>
        <Neuron NSynapses="15">
          -1.2048423734297220e+00 2.8367090035116932e-01 6.2770896720849134e-01 5.8102318460239677e-01 -6.9471120454482241e-02 9.9096097795931981e-02 1.1760521375741597e+00 -4.5581929834826662e-01 -5.7403735471043205e-01 -8.8232934048617395e-01 2.6042211285678802e+00 5.7351653206190678e-01 -1.3514248381490995e-01 -1.3831328684210509e-01 -3.1164469696080627e-01 
        </Neuron>
        <Neuron NSynapses="15">
          -1.3111576509270966e+00 -1.6959054596453227e+00 7.6152699521880940e-01 -9.5345105394415625e-02 -2.9944119595100498e-02 3.6216589450067893e-01 1.5044075093876053e+00 -1.2039058627993107e+00 -4.8599335725090076e-01 9.8337067532846101e-01 -8.4316763352809776e-01 -3.4724486242653302e-01 -1.1307990345150958e+00 -6.8486004463640637e-01 -1.2214375961802788e-01 
        </Neuron>
        <Neuron NSynapses="15">
          -2.1911485994909756e+00 5.6527772647144625e-01 1.1275217963873092e+00 -4.9459655498152172e-01 3.5922418468180040e-01 1.6526728506285526e-01 8.2453171886767818e-01 7.6240159977453859e-01 3.8613991102854650e-01 3.3964434903151358e-01 -1.7410349755695353e-01 -2.3445979083646970e-01 -1.8331267762156803e-01 5.6854528964305762e-01 -1.0528599612933977e-01 
        </Neuron>
        <Neuron NSynapses="15">
          -1.5933612763695395e+00 -1.9146239073179654e+00 1.6002465282216576e+00 -1.6742896538819479e-02 -1.1109344847390050e+00 2.6791580977997698e-01 5.2273308728936474e-01 -1.1038235689898537e+00 -3.2684663220877122e+00 1.6544426707074775e+00 2.4365116368160495e+00 -3.5812994785975501e-02 -7.9384108365213024e-01 1.0685026990074924e-01 2.1140954908683369e+00 
        </Neuron>
        <Neuron NSynapses="15">
          2.0365644771360686e-01 -1.9380917551364314e+00 -1.8132663723789533e+00 -9.2702057556293127e-02 1.4629665080660859e+00 8.4160022228543768e-02 8.2974038695860031e-01 2.7156502158281803e-02 1.9331195657078379e+00 -7.9455804069765901e-01 -2.6396473738288695e-01 1.1834649066524741e-02 -9.7410264713249828e-01 1.8594895940428918e-01 1.2667137262658459e-01 
        </Neuron>
        <Neuron NSynapses="15">
          2.3225801006173724e-01 1.7893049175743172e+00 -5.9702021084313073e-01 -2.1650886354317578e+00 -1.6266535258409247e+00 6.8283558217774598e-01 -7.9659845292301956e-01 1.7909705562364846e+00 -1.9130064858368054e+00 1.5502236697100500e+00 -3.1478794046252387e+00 1.7940469052719299e+00 1.2775919486746237e+00 -3.7798460918362355e+00 4.4728375566438572e-01 
        </Neuron>
      </Layer>
      <Layer Index="1" NNeurons="16">
        <Neuron NSynapses="14">
          -1.7767084221249674e+00 -4.9846151819111340e-01 -1.8069571202582824e+00 -2.1301929555052261e+00 -1.8917352263142233e+00 -4.5048827076508935e-01 -1.6386259162487913e+00 -1.5070187493131040e+00 1.5323147841760574e+00 -9.7433205364792205e-02 -7.3882390674532705e-01 -6.6504158310441530e-01 3.0373170790315807e-01 1.3361454804045798e+00 
        </Neuron>
        <Neuron NSynapses="14">
          9.9384798336940494e-01 -9.6642549770307629e-01 -1.4249921056391273e+00 -1.6361588990482014e+00 -1.0212785678120651e+00 -1.8602844305667463e+00 -7.0983293642772360e-01 1.2047384703036287e-01 2.5821373909111993e+00 2.3538243721097851e-01 1.5919569883930287e+00 6.1117097789586398e-02 -8.0256870446313366e-01 9.6915734617108296e-01 
        </Neuron>
        <Neuron NSynapses="14">
          1.1655652683649340e+00 -5.1833910488554691e-01 -1.0704045264624853e+00 3.8940625648472127e-01 1.3186026947108929e+00 6.5050765254060239e-01 5.3163673742186568e-01 3.3018786790703601e-02 1.4675769161946048e+00 1.2682378179982292e+00 1.8351114890519696e-01 -9.2183850045936300e-01 5.8700940540916169e-01 -6.2301488722601517e-01 
        </Neuron>
        <Neuron NSynapses="14">
          -1.1135751866238925e+00 -6.9880124687909617e-01 -1.7470468223574365e+00 -1.8626057076903655e+00 -1.6091978294694211e+00 9.4771440564035225e-01 -2.3036078827204505e+00 1.7485300855306978e+00 -8.3442943456663432e-01 1.3064457053020149e+00 -1.3622406823234787e+00 5.8694656069936957e-01 9.1499078221514785e-01 -1.2963660278565012e+00 
        </Neuron>
        <Neuron NSynapses="14">
          2.5350762243924518e-01 6.4871922194202247e-01 -1.9464310091085104e+00 -1.4945509694557459e+00 -1.6603812979815631e+00 -1.0741142430097352e+00 1.9810865021979034e+00 -4.8191185867670211e-01 3.7492115565191125e-01 -8.4038801924819750e-01 -1.1254495840652801e+00 -1.5467643392441832e+00 -1.2382906837722021e+00 -1.0125402213472223e+00 
        </Neuron>
        <Neuron NSynapses="14">
          6.7031445522896560e-01 -1.4392216095163020e+00 -1.2081872411343131e+00 1.3796600156527876e+00 6.7011584517433986e-01 -1.2559947768378557e+00 7.2549293032940798e-01 -2.0073556508985777e+00 1.7496461861243595e+00 8.8700683966928451e-01 -2.5528429141565023e-01 -8.5047667600359211e-01 1.2418704195118437e+00 -9.9077708543175658e-01 
        </Neuron>
        <Neuron NSynapses="14">
          2.8708694017676556e-01 1.8012608745046894e+00 1.3167009032163941e+00 1.1357222303862551e+00 -1.4233249921850308e+00 5.6580807423820534e-01 -2.0629391255638172e+00 3.5676996066487443e-01 -1.2106528322039003e+00 -1.5521931163362608e+00 5.5838134441519105e-01 1.1722200418165929e+00 5.2724410148100143e-01 1.2556586428353391e+00 
        </Neuron>
        <Neuron NSynapses="14">
          2.3650690004443042e-01 -2.7300594718641530e-01 -6.0988446032247590e-01 -5.0939656381234288e-01 1.4735286421904890e+00 -1.6429769347135899e+00 1.8256282549410249e-01 -2.6561382519876470e-02 7.5637210756895945e-02 1.1699484935094752e-01 1.4640578362924264e-01 -8.1098152464064388e-01 -3.5172452218293004e-01 1.5635296768900182e+00 
        </Neuron>
        <Neuron NSynapses="14">
          6.3641226722699240e-01 -2.8825698084971124e-01 -9.4212042031334031e-01 -1.8752733159919239e+00 -1.8889403476586988e+00 1.9038905826024446e-01 -3.5471560250715956e-01 -2.7654161326971338e+00 1.3621734661240528e+00 -1.0843129350427994e+00 -1.0314750979322138e+00 -6.4409336615504920e-01 1.8955428640558818e+00 -2.5935041916997187e-01 
        </Neuron>
        <Neuron NSynapses="14">
          -2.3565257091278284e+00 -6.9031273361032219e-01 -9.5340566486062039e-01 -2.0705198036663459e+00 1.2189428607446524e+00 -1.9069450318685039e+00 -2.1003956211642688e-01 1.4655300174482513e+00 9.2675621467544078e-01 7.3860434064385239e-01 7.9278674681514325e-02 1.5814455466540849e+00 5.0780236478123286e-01 8.6548444943829086e-04 
        </Neuron>
        <Neuron NSynapses="14">
          -8.0866576789295097e-01 -7.2696624411122135e-01 -1.7242797924693869e+00 4.6446059227069264e-01 1.1196273357294915e+00 6.3457325726931677e-02 6.3511015409558325e-01 9.1051278985859574e-01 1.5962578093394746e+00 -1.2681209097641510e+00 7.7102651883768891e-01 7.1672176053347803e-01 -1.4172892344682599e+00 -3.6420430292110845e-01 
        </Neuron>
        <Neuron NSynapses="14">
          -5.6626821989904441e-01 9.0682914663089409e-01 5.1890871724727494e-01 -5.1914622696176554e-03 1.5974666510102411e+00 -7.1956645337802805e-01 2.3707186915622964e+00 1.3160322237870055e+00 5.3645929342287391e-01 5.6061691025218185e-01 1.1106191728990817e+00 -2.5161595062803741e+00 -3.5255321791595218e-01 1.5198094195300067e+00 
        </Neuron>
        <Neuron NSynapses="14">
          -9.6546795408895181e-01 -1.1315764392523482e+00 5.7648431727976047e-02 -1.2735081699807187e+00 2.8724987346601205e-01 -2.0917562975419579e+00 -1.4463449243741848e+00 5.9498969251450573e-01 1.9870626939744898e+00 1.0225105711124967e+00 9.5446906883508553e-01 1.6906705337878924e-01 6.6166719441173283e-01 1.6615562121620828e-01 
        </Neuron>
        <Neuron NSynapses="14">
          2.0429017751477532e+00 -1.9327313472024701e+00 -1.2978071334831638e+00 -6.4414284522950449e-01 -1.7024748439738855e+00 -1.7532188174545229e+00 -2.5777971573424576e+00 1.4520863188473931e+00 2.8475666089183682e-01 -2.1513303870371159e+00 -1.0356095385741049e+00 -4.4292132522681149e-01 2.5073289345529539e+00 2.3930573335364258e+00 
        </Neuron>
        <Neuron NSynapses="14">
          7.0633829602031017e-01 -6.1870101134930944e-01 -1.9447383229241519e+00 -1.0566051513185930e-01 -1.3080897287471709e+00 -1.8156386712963615e+00 -1.6856537415718303e-01 -1.5829530094424655e+00 -9.8543261123326531e-01 5.6758926996170767e-01 2.0500160885907470e-01 -3.9435439412715462e-01 -2.5984076296577800e+00 -1.5896652852468187e+00 
        </Neuron>
        <Neuron NSynapses="14">
          1.4455932966821821e+00 -7.8715840096310374e-01 4.2925452013504201e-01 8.1669068114344967e-01 1.4467306784791463e+00 -1.8164375861300253e+00 2.7542272842473586e-01 -1.9041184418141683e+00 2.4606455548677779e+00 2.5475589709024908e+00 -1.8358246131153724e-01 7.5790798380684907e-02 7.6073577025722650e-01 -7.9098430394243346e-01 
        </Neuron>
      </Layer>
      <Layer Index="2" NNeurons="15">
        <Neuron NSynapses="1">
          -1.5631775576801332e-01 
        </Neuron>
        <Neuron NSynapses="1">
          1.5272664370445646e-01 
        </Neuron>
        <Neuron NSynapses="1">
          -9.7556378432350810e-01 
        </Neuron>
        <Neuron NSynapses="1">
          7.5611825617445561e-02 
        </Neuron>
        <Neuron NSynapses="1">
          -2.9613586557880156e-01 
        </Neuron>
        <Neuron NSynapses="1">
          1.2379275314427634e+00 
        </Neuron>
        <Neuron NSynapses="1">
          2.2920206118069903e+00 
        </Neuron>
        <Neuron NSynapses="1">
          -2.8252242329506466e-01 
        </Neuron>
        <Neuron NSynapses="1">
          -2.2872859153914717e+00 
        </Neuron>
        <Neuron NSynapses="1">
          -9.2018951212643224e-02 
        </Neuron>
        <Neuron NSynapses="1">
          1.8368754942016468e+00 
        </Neuron>
        <Neuron NSynapses="1">
          -1.3585723427730934e+00 
        </Neuron>
        <Neuron NSynapses="1">
          -8.4317807447109272e-01 
        </Neuron>
        <Neuron NSynapses="1">
          1.2099778327915578e+00 
        </Neuron>
        <Neuron NSynapses="1">
          4.0424831715711035e-01 
        </Neuron>
      </Layer>
      <Layer Index="3" NNeurons="1">
        <Neuron NSynapses="0"/>
      </Layer>
    </Layout>
  </Weights>
</MethodSetup>
