<?xml version="1.0"?>
<MethodSetup Method="BDT::BDTG">
  <GeneralInfo>
    <Info name="TMVA Release" value="4.1.3 [262403]"/>
    <Info name="ROOT Release" value="5.34/03 [336387]"/>
    <Info name="Creator" value="hebda"/>
    <Info name="Date" value="Tue Jul 22 17:47:23 2014"/>
    <Info name="Host" value="Linux lxbuild167.cern.ch 2.6.18-308.16.1.el5 #1 SMP Thu Oct 4 14:02:28 CEST 2012 x86_64 x86_64 x86_64 GNU/Linux"/>
    <Info name="Dir" value="/afs/cern.ch/work/h/hebda/HggHbb/CMSSW_6_1_1/src/RegressionTrainingForBJetEnergy"/>
    <Info name="Training events" value="404424"/>
    <Info name="TrainingTime" value="1.23457641e+03"/>
    <Info name="AnalysisType" value="Regression"/>
  </GeneralInfo>
  <Options>
    <Option name="V" modified="Yes">False</Option>
    <Option name="VerbosityLevel" modified="No">Default</Option>
    <Option name="VarTransform" modified="No">None</Option>
    <Option name="H" modified="Yes">False</Option>
    <Option name="CreateMVAPdfs" modified="No">False</Option>
    <Option name="IgnoreNegWeightsInTraining" modified="No">False</Option>
    <Option name="NTrees" modified="Yes">1200</Option>
    <Option name="RenormByClass" modified="No">False</Option>
    <Option name="BoostType" modified="Yes">Grad</Option>
    <Option name="AdaBoostR2Loss" modified="No">quadratic</Option>
    <Option name="UseBaggedGrad" modified="Yes">True</Option>
    <Option name="GradBaggingFraction" modified="Yes">7.000000e-01</Option>
    <Option name="Shrinkage" modified="Yes">1.000000e-01</Option>
    <Option name="AdaBoostBeta" modified="No">1.000000e+00</Option>
    <Option name="UseRandomisedTrees" modified="No">False</Option>
    <Option name="UseNvars" modified="No">4</Option>
    <Option name="UsePoissonNvars" modified="No">True</Option>
    <Option name="UseNTrainEvents" modified="No">404424</Option>
    <Option name="UseWeightedTrees" modified="No">True</Option>
    <Option name="UseYesNoLeaf" modified="No">False</Option>
    <Option name="NodePurityLimit" modified="No">5.000000e-01</Option>
    <Option name="SeparationType" modified="No">regressionvariance</Option>
    <Option name="nEventsMin" modified="No">10</Option>
    <Option name="nCuts" modified="Yes">200</Option>
    <Option name="UseFisherCuts" modified="No">False</Option>
    <Option name="MinLinCorrForFisher" modified="No">8.000000e-01</Option>
    <Option name="UseExclusiveVars" modified="No">False</Option>
    <Option name="PruneStrength" modified="No">0.000000e+00</Option>
    <Option name="PruneMethod" modified="No">nopruning</Option>
    <Option name="PruneBeforeBoost" modified="No">False</Option>
    <Option name="PruningValFraction" modified="No">5.000000e-01</Option>
    <Option name="NNodesMax" modified="No">100000</Option>
    <Option name="MaxDepth" modified="Yes">3</Option>
    <Option name="DoBoostMonitor" modified="No">False</Option>
    <Option name="NegWeightTreatment" modified="Yes">ignorenegweights</Option>
  </Options>
  <Variables NVar="14">
    <Variable VarIndex="0" Expression="bjet_pt" Label="bjet_pt" Title="bjet_pt" Unit="units" Internal="bjet_pt" Type="F" Min="2.00000439e+01" Max="8.70548218e+02"/>
    <Variable VarIndex="1" Expression="bjet_eta" Label="bjet_eta" Title="bjet_eta" Unit="units" Internal="bjet_eta" Type="F" Min="-2.49981141e+00" Max="2.49985099e+00"/>
    <Variable VarIndex="2" Expression="bjet_mt" Label="bjet_mt" Title="bjet_mt" Unit="units" Internal="bjet_mt" Type="F" Min="1.18775778e-01" Max="1.28203711e+03"/>
    <Variable VarIndex="3" Expression="bjet_phofrac" Label="bjet_phofrac" Title="bjet_phofrac" Unit="units" Internal="bjet_phofrac" Type="F" Min="0.00000000e+00" Max="1.28956604e+00"/>
    <Variable VarIndex="4" Expression="bjet_nhadfrac" Label="bjet_nhadfrac" Title="bjet_nhadfrac" Unit="units" Internal="bjet_nhadfrac" Type="F" Min="0.00000000e+00" Max="1.09688258e+00"/>
    <Variable VarIndex="5" Expression="(bjet_softLeptIdLooseMu==1||bjet_softLeptIdEle95==1)?(bjet_softLeptPt):(-99)" Label="bjet_softLeptPt" Title="bjet_softLeptPt" Unit="units" Internal="bjet_softLeptPt" Type="F" Min="-9.90000000e+01" Max="2.51295135e+02"/>
    <Variable VarIndex="6" Expression="(bjet_softLeptIdLooseMu==1||bjet_softLeptIdEle95==1)?(bjet_softLeptPtRel):(-99)" Label="bjet_softLeptPtRel" Title="bjet_softLeptPtRel" Unit="units" Internal="bjet_softLeptPtRel" Type="F" Min="-9.90000000e+01" Max="2.97017914e+02"/>
    <Variable VarIndex="7" Expression="bjet_secVtxM" Label="bjet_secVtxM" Title="bjet_secVtxM" Unit="units" Internal="bjet_secVtxM" Type="F" Min="-9.90000000e+01" Max="7.06413555e+00"/>
    <Variable VarIndex="8" Expression="bjet_secVtx3deL" Label="bjet_secVtx3deL" Title="bjet_secVtx3deL" Unit="units" Internal="bjet_secVtx3deL" Type="F" Min="-9.90000000e+01" Max="3.21917176e+00"/>
    <Variable VarIndex="9" Expression="MET" Label="MET" Title="MET" Unit="units" Internal="MET" Type="F" Min="1.05757244e-01" Max="3.48896393e+02"/>
    <Variable VarIndex="10" Expression="(abs(bjet_phi-METphi)&gt;3.14159265)?(2*3.14159265-abs(bjet_phi-METphi)):(abs(bjet_phi-METphi))" Label="dPhiMETJet" Title="dPhiMETJet" Unit="units" Internal="dPhiMETJet" Type="F" Min="4.52995300e-06" Max="3.14159203e+00"/>
    <Variable VarIndex="11" Expression="bjet_leadTrackPt" Label="bjet_leadTrackPt" Title="bjet_leadTrackPt" Unit="units" Internal="bjet_leadTrackPt" Type="F" Min="-9.90000000e+01" Max="1.65089844e+04"/>
    <Variable VarIndex="12" Expression="bjet_nCharged+bjet_nNeutrals" Label="bjet_ntot" Title="bjet_ntot" Unit="units" Internal="bjet_ntot" Type="F" Min="3.00000000e+00" Max="1.17000000e+02"/>
    <Variable VarIndex="13" Expression="rho" Label="rho" Title="rho" Unit="units" Internal="rho" Type="F" Min="3.66693705e-01" Max="4.17945137e+01"/>
  </Variables>
  <Spectators NSpec="7">
    <Spectator SpecIndex="0" Expression="bjet_mufrac" Label="bjet_mufrac" Title="bjet_mufrac" Unit="units" Internal="bjet_mufrac" Type="F" Min="0.00000000e+00" Max="9.88740087e-01"/>
    <Spectator SpecIndex="1" Expression="bjet_elefrac" Label="bjet_elefrac" Title="bjet_elefrac" Unit="units" Internal="bjet_elefrac" Type="F" Min="0.00000000e+00" Max="9.71571267e-01"/>
    <Spectator SpecIndex="2" Expression="bjet_chadfrac" Label="bjet_chadfrac" Title="bjet_chadfrac" Unit="units" Internal="bjet_chadfrac" Type="F" Min="0.00000000e+00" Max="1.74442077e+00"/>
    <Spectator SpecIndex="3" Expression="(bjet_softLeptIdLooseMu==1||bjet_softLeptIdEle95==1)?(bjet_softLeptDR):(-99)" Label="bjet_softLeptDR" Title="bjet_softLeptDR" Unit="units" Internal="bjet_softLeptDR" Type="F" Min="-9.90000000e+01" Max="4.99915957e-01"/>
    <Spectator SpecIndex="4" Expression="bjet_secVtxPt" Label="bjet_secVtxPt" Title="bjet_secVtxPt" Unit="units" Internal="bjet_secVtxPt" Type="F" Min="-9.90000000e+01" Max="6.19644470e+02"/>
    <Spectator SpecIndex="5" Expression="bjet_secVtx3dL" Label="bjet_secVtx3dL" Title="bjet_secVtx3dL" Unit="units" Internal="bjet_secVtx3dL" Type="F" Min="-9.90000000e+01" Max="1.43788805e+01"/>
    <Spectator SpecIndex="6" Expression="bjet_JECUnc" Label="bjet_JECUnc" Title="bjet_JECUnc" Unit="units" Internal="bjet_JECUnc" Type="F" Min="9.60067939e-03" Max="4.61887084e-02"/>
  </Spectators>
  <Classes NClass="1">
    <Class Name="Regression" Index="0"/>
  </Classes>
  <Targets NTrgt="1">
    <Target TargetIndex="0" Expression="bjet_genPt" Label="bjet_genPt" Title="bjet_genPt" Unit="" Internal="bjet_genPt" Type="F" Min="3.03516436e+00" Max="7.61923645e+02"/>
  </Targets>
  <Transformations NTransformations="0"/>
  <MVAPdfs/>
  <Weights NTrees="1200" AnalysisType="1">
    <BinaryTree type="DecisionTree" boostWeight="5.8864948272705078e+01" itree="0">
      <Node pos="s" depth="0" NCoef="0" IVar="0" Cut="5.8084289550781250e+01" cType="0" res="1.3533973693847656e+00" rms="2.0540546417236328e+01" purity="1.0000000000000000e+00" nType="0">
        <Node pos="l" depth="1" NCoef="0" IVar="0" Cut="7.8294921875000000e+01" cType="0" res="1.8993446350097656e+01" rms="1.1650806427001953e+01" purity="1.0000000000000000e+00" nType="0">
          <Node pos="l" depth="2" NCoef="0" IVar="0" Cut="9.0120086669921875e+01" cType="0" res="2.6371238708496094e+01" rms="5.5359940528869629e+00" purity="1.0000000000000000e+00" nType="0">
            <Node pos="l" depth="3" NCoef="0" IVar="-1" Cut="0.0000000000000000e+00" cType="1" res="5.4563565254211426e+00" rms="3.0574944019317627e+00" purity="1.0000000000000000e+00" nType="-99"/>
            <Node pos="r" depth="3" NCoef="0" IVar="-1" Cut="0.0000000000000000e+00" cType="1" res="2.5957555770874023e+00" rms="7.4629726409912109e+00" purity="1.0000000000000000e+00" nType="-99"/>
          </Node>
          <Node pos="r" depth="2" NCoef="0" IVar="0" Cut="6.7736991882324219e+01" cType="0" res="9.9156389236450195e+00" rms="1.0755032539367676e+01" purity="1.0000000000000000e+00" nType="0">
            <Node pos="l" depth="3" NCoef="0" IVar="-1" Cut="0.0000000000000000e+00" cType="1" res="1.5429919958114624e+00" rms="9.4874143600463867e+00" purity="1.0000000000000000e+00" nType="-99"/>
            <Node pos="r" depth="3" NCoef="0" IVar="-1" Cut="0.0000000000000000e+00" cType="1" res="6.1536312103271484e-01" rms="1.0220713615417480e+01" purity="1.0000000000000000e+00" nType="-99"/>
          </Node>
        </Node>
        <Node pos="r" depth="1" NCoef="0" IVar="0" Cut="4.0273502349853516e+01" cType="0" res="-1.4195845603942871e+01" rms="1.2573761940002441e+01" purity="1.0000000000000000e+00" nType="0">
          <Node pos="l" depth="2" NCoef="0" IVar="0" Cut="4.8779933929443359e+01" cType="0" res="-6.3536014556884766e+00" rms="1.1046779632568359e+01" purity="1.0000000000000000e+00" nType="0">
            <Node pos="l" depth="3" NCoef="0" IVar="-1" Cut="0.0000000000000000e+00" cType="1" res="-2.4489109218120575e-01" rms="1.0369646072387695e+01" purity="1.0000000000000000e+00" nType="-99"/>
            <Node pos="r" depth="3" NCoef="0" IVar="-1" Cut="0.0000000000000000e+00" cType="1" res="-1.0523411035537720e+00" rms="1.0247812271118164e+01" purity="1.0000000000000000e+00" nType="-99"/>
          </Node>
          <Node pos="r" depth="2" NCoef="0" IVar="0" Cut="3.1599199295043945e+01" cType="0" res="-2.1423389434814453e+01" rms="9.0787057876586914e+00" purity="1.0000000000000000e+00" nType="0">
            <Node pos="l" depth="3" NCoef="0" IVar="-1" Cut="0.0000000000000000e+00" cType="1" res="-1.8321017026901245e+00" rms="9.5605812072753906e+00" purity="1.0000000000000000e+00" nType="-99"/>
            <Node pos="r" depth="3" NCoef="0" IVar="-1" Cut="0.0000000000000000e+00" cType="1" res="-2.7589206695556641e+00" rms="7.2803421020507812e+00" purity="1.0000000000000000e+00" nType="-99"/>
          </Node>
        </Node>
      </Node>
    </BinaryTree>
    <BinaryTree type="DecisionTree" boostWeight="1.0000000000000000e+00" itree="1">
      <Node pos="s" depth="0" NCoef="0" IVar="0" Cut="5.9203750610351562e+01" cType="0" res="1.2021321058273315e+00" rms="1.8717245101928711e+01" purity="1.0000000000000000e+00" nType="0">
        <Node pos="l" depth="1" NCoef="0" IVar="0" Cut="7.6048706054687500e+01" cType="0" res="1.7426122665405273e+01" rms="1.0654772758483887e+01" purity="1.0000000000000000e+00" nType="0">
          <Node pos="l" depth="2" NCoef="0" IVar="0" Cut="8.5904663085937500e+01" cType="0" res="2.3114690780639648e+01" rms="6.1543655395507812e+00" purity="1.0000000000000000e+00" nType="0">
            <Node pos="l" depth="3" NCoef="0" IVar="-1" Cut="0.0000000000000000e+00" cType="1" res="4.5391721725463867e+00" rms="4.1222023963928223e+00" purity="1.0000000000000000e+00" nType="-99"/>
            <Node pos="r" depth="3" NCoef="0" IVar="-1" Cut="0.0000000000000000e+00" cType="1" res="2.0624637603759766e+00" rms="7.9658870697021484e+00" purity="1.0000000000000000e+00" nType="-99"/>
          </Node>
          <Node pos="r" depth="2" NCoef="0" IVar="10" Cut="1.3754042387008667e+00" cType="0" res="8.5691528320312500e+00" rms="1.0123090744018555e+01" purity="1.0000000000000000e+00" nType="0">
            <Node pos="l" depth="3" NCoef="0" IVar="-1" Cut="0.0000000000000000e+00" cType="1" res="5.2806609869003296e-01" rms="9.0182828903198242e+00" purity="1.0000000000000000e+00" nType="-99"/>
            <Node pos="r" depth="3" NCoef="0" IVar="-1" Cut="0.0000000000000000e+00" cType="1" res="1.3272138833999634e+00" rms="1.0018134117126465e+01" purity="1.0000000000000000e+00" nType="-99"/>
          </Node>
        </Node>
        <Node pos="r" depth="1" NCoef="0" IVar="0" Cut="4.2429790496826172e+01" cType="0" res="-1.2305614471435547e+01" rms="1.2078506469726562e+01" purity="1.0000000000000000e+00" nType="0">
          <Node pos="l" depth="2" NCoef="0" IVar="0" Cut="5.1692840576171875e+01" cType="0" res="-4.3557901382446289e+00" rms="1.0670562744140625e+01" purity="1.0000000000000000e+00" nType="0">
            <Node pos="l" depth="3" NCoef="0" IVar="-1" Cut="0.0000000000000000e+00" cType="1" res="-4.8601806163787842e-02" rms="1.0109903335571289e+01" purity="1.0000000000000000e+00" nType="-99"/>
            <Node pos="r" depth="3" NCoef="0" IVar="-1" Cut="0.0000000000000000e+00" cType="1" res="-7.4572634696960449e-01" rms="1.0142866134643555e+01" purity="1.0000000000000000e+00" nType="-99"/>
          </Node>
          <Node pos="r" depth="2" NCoef="0" IVar="0" Cut="3.3502147674560547e+01" cType="0" res="-1.8379148483276367e+01" rms="9.2297849655151367e+00" purity="1.0000000000000000e+00" nType="0">
            <Node pos="l" depth="3" NCoef="0" IVar="-1" Cut="0.0000000000000000e+00" cType="1" res="-1.4880816936492920e+00" rms="9.6021623611450195e+00" purity="1.0000000000000000e+00" nType="-99"/>
            <Node pos="r" depth="3" NCoef="0" IVar="-1" Cut="0.0000000000000000e+00" cType="1" res="-2.4123880863189697e+00" rms="7.6326837539672852e+00" purity="1.0000000000000000e+00" nType="-99"/>
          </Node>
        </Node>
      </Node>
    </BinaryTree>
    <BinaryTree type="DecisionTree" boostWeight="1.0000000000000000e+00" itree="2">
      <Node pos="s" depth="0" NCoef="0" IVar="0" Cut="6.2315872192382812e+01" cType="0" res="1.0090619325637817e+00" rms="1.7011453628540039e+01" purity="1.0000000000000000e+00" nType="0">
        <Node pos="l" depth="1" NCoef="0" IVar="0" Cut="8.2421569824218750e+01" cType="0" res="1.6542814254760742e+01" rms="9.3033571243286133e+00" purity="1.0000000000000000e+00" nType="0">
          <Node pos="l" depth="2" NCoef="0" IVar="0" Cut="9.8106101989746094e+01" cType="0" res="2.1590602874755859e+01" rms="5.2385582923889160e+00" purity="1.0000000000000000e+00" nType="0">
            <Node pos="l" depth="3" NCoef="0" IVar="-1" Cut="0.0000000000000000e+00" cType="1" res="5.0960793495178223e+00" rms="2.9331514835357666e+00" purity="1.0000000000000000e+00" nType="-99"/>
            <Node pos="r" depth="3" NCoef="0" IVar="-1" Cut="0.0000000000000000e+00" cType="1" res="2.3460988998413086e+00" rms="6.7015194892883301e+00" purity="1.0000000000000000e+00" nType="-99"/>
          </Node>
          <Node pos="r" depth="2" NCoef="0" IVar="0" Cut="7.1318267822265625e+01" cType="0" res="1.0469704627990723e+01" rms="9.4937124252319336e+00" purity="1.0000000000000000e+00" nType="0">
            <Node pos="l" depth="3" NCoef="0" IVar="-1" Cut="0.0000000000000000e+00" cType="1" res="1.5516315698623657e+00" rms="8.4154176712036133e+00" purity="1.0000000000000000e+00" nType="-99"/>
            <Node pos="r" depth="3" NCoef="0" IVar="-1" Cut="0.0000000000000000e+00" cType="1" res="7.6408886909484863e-01" rms="9.3229446411132812e+00" purity="1.0000000000000000e+00" nType="-99"/>
          </Node>
        </Node>
        <Node pos="r" depth="1" NCoef="0" IVar="0" Cut="4.4210571289062500e+01" cType="0" res="-1.0094768524169922e+01" rms="1.1772945404052734e+01" purity="1.0000000000000000e+00" nType="0">
          <Node pos="l" depth="2" NCoef="0" IVar="10" Cut="1.0471853017807007e+00" cType="0" res="-2.3322882652282715e+00" rms="1.0337074279785156e+01" purity="1.0000000000000000e+00" nType="0">
            <Node pos="l" depth="3" NCoef="0" IVar="-1" Cut="0.0000000000000000e+00" cType="1" res="-5.1021063327789307e-01" rms="8.6892433166503906e+00" purity="1.0000000000000000e+00" nType="-99"/>
            <Node pos="r" depth="3" NCoef="0" IVar="-1" Cut="0.0000000000000000e+00" cType="1" res="1.7306707799434662e-01" rms="1.1258532524108887e+01" purity="1.0000000000000000e+00" nType="-99"/>
          </Node>
          <Node pos="r" depth="2" NCoef="0" IVar="0" Cut="3.5538009643554688e+01" cType="0" res="-1.5799809455871582e+01" rms="9.2250776290893555e+00" purity="1.0000000000000000e+00" nType="0">
            <Node pos="l" depth="3" NCoef="0" IVar="-1" Cut="0.0000000000000000e+00" cType="1" res="-1.2023980617523193e+00" rms="9.5830554962158203e+00" purity="1.0000000000000000e+00" nType="-99"/>
            <Node pos="r" depth="3" NCoef="0" IVar="-1" Cut="0.0000000000000000e+00" cType="1" res="-2.0996944904327393e+00" rms="7.8567018508911133e+00" purity="1.0000000000000000e+00" nType="-99"/>
          </Node>
        </Node>
      </Node>
    </BinaryTree>
    <BinaryTree type="DecisionTree" boostWeight="1.0000000000000000e+00" itree="3">
      <Node pos="s" depth="0" NCoef="0" IVar="0" Cut="5.8084289550781250e+01" cType="0" res="8.6072373390197754e-01" rms="1.5614811897277832e+01" purity="1.0000000000000000e+00" nType="0">
        <Node pos="l" depth="1" NCoef="0" IVar="0" Cut="7.8294921875000000e+01" cType="0" res="1.3403474807739258e+01" rms="9.8112211227416992e+00" purity="1.0000000000000000e+00" nType="0">
          <Node pos="l" depth="2" NCoef="0" IVar="0" Cut="9.4061378479003906e+01" cType="0" res="1.8704284667968750e+01" rms="6.1279878616333008e+00" purity="1.0000000000000000e+00" nType="0">
            <Node pos="l" depth="3" NCoef="0" IVar="-1" Cut="0.0000000000000000e+00" cType="1" res="4.2354187965393066e+00" rms="3.9867179393768311e+00" purity="1.0000000000000000e+00" nType="-99"/>
            <Node pos="r" depth="3" NCoef="0" IVar="-1" Cut="0.0000000000000000e+00" cType="1" res="1.8727515935897827e+00" rms="7.3819146156311035e+00" purity="1.0000000000000000e+00" nType="-99"/>
          </Node>
          <Node pos="r" depth="2" NCoef="0" IVar="0" Cut="6.6329246520996094e+01" cType="0" res="6.8674383163452148e+00" rms="9.5541744232177734e+00" purity="1.0000000000000000e+00" nType="0">
            <Node pos="l" depth="3" NCoef="0" IVar="-1" Cut="0.0000000000000000e+00" cType="1" res="1.0753134489059448e+00" rms="8.7727603912353516e+00" purity="1.0000000000000000e+00" nType="-99"/>
            <Node pos="r" depth="3" NCoef="0" IVar="-1" Cut="0.0000000000000000e+00" cType="1" res="3.6893966794013977e-01" rms="9.3201284408569336e+00" purity="1.0000000000000000e+00" nType="-99"/>
          </Node>
        </Node>
        <Node pos="r" depth="1" NCoef="0" IVar="0" Cut="3.9705085754394531e+01" cType="0" res="-1.0205708503723145e+01" rms="1.0618226051330566e+01" purity="1.0000000000000000e+00" nType="0">
          <Node pos="l" depth="2" NCoef="0" IVar="0" Cut="4.8208721160888672e+01" cType="0" res="-4.8898835182189941e+00" rms="1.0027516365051270e+01" purity="1.0000000000000000e+00" nType="0">
            <Node pos="l" depth="3" NCoef="0" IVar="-1" Cut="0.0000000000000000e+00" cType="1" res="-2.0901732146739960e-01" rms="9.6740226745605469e+00" purity="1.0000000000000000e+00" nType="-99"/>
            <Node pos="r" depth="3" NCoef="0" IVar="-1" Cut="0.0000000000000000e+00" cType="1" res="-8.4222006797790527e-01" rms="9.4340944290161133e+00" purity="1.0000000000000000e+00" nType="-99"/>
          </Node>
          <Node pos="r" depth="2" NCoef="0" IVar="0" Cut="2.9705362319946289e+01" cType="0" res="-1.5395720481872559e+01" rms="8.3742628097534180e+00" purity="1.0000000000000000e+00" nType="0">
            <Node pos="l" depth="3" NCoef="0" IVar="-1" Cut="0.0000000000000000e+00" cType="1" res="-1.4110221862792969e+00" rms="8.8171386718750000e+00" purity="1.0000000000000000e+00" nType="-99"/>
            <Node pos="r" depth="3" NCoef="0" IVar="-1" Cut="0.0000000000000000e+00" cType="1" res="-2.1487114429473877e+00" rms="6.8949313163757324e+00" purity="1.0000000000000000e+00" nType="-99"/>
          </Node>
        </Node>
      </Node>
    </BinaryTree>
    <BinaryTree type="DecisionTree" boostWeight="1.0000000000000000e+00" itree="4">
      <Node pos="s" depth="0" NCoef="0" IVar="0" Cut="5.7562286376953125e+01" cType="0" res="7.6081258058547974e-01" rms="1.4372455596923828e+01" purity="1.0000000000000000e+00" nType="0">
        <Node pos="l" depth="1" NCoef="0" IVar="0" Cut="7.5409751892089844e+01" cType="0" res="1.1793211936950684e+01" rms="9.4840860366821289e+00" purity="1.0000000000000000e+00" nType="0">
          <Node pos="l" depth="2" NCoef="0" IVar="0" Cut="9.9773735046386719e+01" cType="0" res="1.6257839202880859e+01" rms="6.6302442550659180e+00" purity="1.0000000000000000e+00" nType="0">
            <Node pos="l" depth="3" NCoef="0" IVar="-1" Cut="0.0000000000000000e+00" cType="1" res="4.2752389907836914e+00" rms="3.6868405342102051e+00" purity="1.0000000000000000e+00" nType="-99"/>
            <Node pos="r" depth="3" NCoef="0" IVar="-1" Cut="0.0000000000000000e+00" cType="1" res="1.6846305131912231e+00" rms="7.4680023193359375e+00" purity="1.0000000000000000e+00" nType="-99"/>
          </Node>
          <Node pos="r" depth="2" NCoef="0" IVar="10" Cut="1.4535351991653442e+00" cType="0" res="5.2603249549865723e+00" rms="9.2408962249755859e+00" purity="1.0000000000000000e+00" nType="0">
            <Node pos="l" depth="3" NCoef="0" IVar="-1" Cut="0.0000000000000000e+00" cType="1" res="2.5031903386116028e-01" rms="8.3835086822509766e+00" purity="1.0000000000000000e+00" nType="-99"/>
            <Node pos="r" depth="3" NCoef="0" IVar="-1" Cut="0.0000000000000000e+00" cType="1" res="9.0400844812393188e-01" rms="9.2134628295898438e+00" purity="1.0000000000000000e+00" nType="-99"/>
          </Node>
        </Node>
        <Node pos="r" depth="1" NCoef="0" IVar="0" Cut="3.8874603271484375e+01" cType="0" res="-9.2403869628906250e+00" rms="1.0095810890197754e+01" purity="1.0000000000000000e+00" nType="0">
          <Node pos="l" depth="2" NCoef="0" IVar="10" Cut="9.0651184320449829e-01" cType="0" res="-4.7347183227539062e+00" rms="9.7123661041259766e+00" purity="1.0000000000000000e+00" nType="0">
            <Node pos="l" depth="3" NCoef="0" IVar="-1" Cut="0.0000000000000000e+00" cType="1" res="-7.1035432815551758e-01" rms="8.3046817779541016e+00" purity="1.0000000000000000e+00" nType="-99"/>
            <Node pos="r" depth="3" NCoef="0" IVar="-1" Cut="0.0000000000000000e+00" cType="1" res="-1.2302354723215103e-01" rms="1.0842712402343750e+01" purity="1.0000000000000000e+00" nType="-99"/>
          </Node>
          <Node pos="r" depth="2" NCoef="0" IVar="10" Cut="9.2212015390396118e-01" cType="0" res="-1.3969987869262695e+01" rms="8.1375112533569336e+00" purity="1.0000000000000000e+00" nType="0">
            <Node pos="l" depth="3" NCoef="0" IVar="-1" Cut="0.0000000000000000e+00" cType="1" res="-1.7850143909454346e+00" rms="6.2643399238586426e+00" purity="1.0000000000000000e+00" nType="-99"/>
            <Node pos="r" depth="3" NCoef="0" IVar="-1" Cut="0.0000000000000000e+00" cType="1" res="-1.2960880994796753e+00" rms="9.9417695999145508e+00" purity="1.0000000000000000e+00" nType="-99"/>
          </Node>
        </Node>
      </Node>
    </BinaryTree>
    <BinaryTree type="DecisionTree" boostWeight="1.0000000000000000e+00" itree="5">
      <Node pos="s" depth="0" NCoef="0" IVar="0" Cut="6.2315872192382812e+01" cType="0" res="6.5219467878341675e-01" rms="1.3276614189147949e+01" purity="1.0000000000000000e+00" nType="0">
        <Node pos="l" depth="1" NCoef="0" IVar="0" Cut="8.2421569824218750e+01" cType="0" res="1.1766419410705566e+01" rms="8.4309406280517578e+00" purity="1.0000000000000000e+00" nType="0">
          <Node pos="l" depth="2" NCoef="0" IVar="0" Cut="1.0594815063476562e+02" cType="0" res="1.5566365242004395e+01" rms="5.9687428474426270e+00" purity="1.0000000000000000e+00" nType="0">
            <Node pos="l" depth="3" NCoef="0" IVar="-1" Cut="0.0000000000000000e+00" cType="1" res="4.3578372001647949e+00" rms="3.4007685184478760e+00" purity="1.0000000000000000e+00" nType="-99"/>
            <Node pos="r" depth="3" NCoef="0" IVar="-1" Cut="0.0000000000000000e+00" cType="1" res="1.7468382120132446e+00" rms="6.8940339088439941e+00" purity="1.0000000000000000e+00" nType="-99"/>
          </Node>
          <Node pos="r" depth="2" NCoef="0" IVar="10" Cut="1.0315661430358887e+00" cType="0" res="7.1708593368530273e+00" rms="8.6819906234741211e+00" purity="1.0000000000000000e+00" nType="0">
            <Node pos="l" depth="3" NCoef="0" IVar="-1" Cut="0.0000000000000000e+00" cType="1" res="5.5488556623458862e-01" rms="8.3236913681030273e+00" purity="1.0000000000000000e+00" nType="-99"/>
            <Node pos="r" depth="3" NCoef="0" IVar="-1" Cut="0.0000000000000000e+00" cType="1" res="1.2758210897445679e+00" rms="8.3165102005004883e+00" purity="1.0000000000000000e+00" nType="-99"/>
          </Node>
        </Node>
        <Node pos="r" depth="1" NCoef="0" IVar="0" Cut="4.5473731994628906e+01" cType="0" res="-7.2967047691345215e+00" rms="9.9983968734741211e+00" purity="1.0000000000000000e+00" nType="0">
          <Node pos="l" depth="2" NCoef="0" IVar="10" Cut="1.2347513437271118e+00" cType="0" res="-1.3970087766647339e+00" rms="9.2424936294555664e+00" purity="1.0000000000000000e+00" nType="0">
            <Node pos="l" depth="3" NCoef="0" IVar="-1" Cut="0.0000000000000000e+00" cType="1" res="-3.8516652584075928e-01" rms="7.9514713287353516e+00" purity="1.0000000000000000e+00" nType="-99"/>
            <Node pos="r" depth="3" NCoef="0" IVar="-1" Cut="0.0000000000000000e+00" cType="1" res="1.4009900391101837e-01" rms="9.8964691162109375e+00" purity="1.0000000000000000e+00" nType="-99"/>
          </Node>
          <Node pos="r" depth="2" NCoef="0" IVar="0" Cut="3.2800212860107422e+01" cType="0" res="-1.1102053642272949e+01" rms="8.5098772048950195e+00" purity="1.0000000000000000e+00" nType="0">
            <Node pos="l" depth="3" NCoef="0" IVar="-1" Cut="0.0000000000000000e+00" cType="1" res="-9.4694238901138306e-01" rms="8.7617273330688477e+00" purity="1.0000000000000000e+00" nType="-99"/>
            <Node pos="r" depth="3" NCoef="0" IVar="-1" Cut="0.0000000000000000e+00" cType="1" res="-1.6596871614456177e+00" rms="7.2637419700622559e+00" purity="1.0000000000000000e+00" nType="-99"/>
          </Node>
        </Node>
      </Node>
    </BinaryTree>
    <BinaryTree type="DecisionTree" boostWeight="1.0000000000000000e+00" itree="6">
      <Node pos="s" depth="0" NCoef="0" IVar="0" Cut="5.3853458404541016e+01" cType="0" res="5.7413762807846069e-01" rms="1.2304209709167480e+01" purity="1.0000000000000000e+00" nType="0">
        <Node pos="l" depth="1" NCoef="0" IVar="0" Cut="7.4169914245605469e+01" cType="0" res="8.5657434463500977e+00" rms="9.1166315078735352e+00" purity="1.0000000000000000e+00" nType="0">
          <Node pos="l" depth="2" NCoef="0" IVar="0" Cut="1.0586728668212891e+02" cType="0" res="1.2856140136718750e+01" rms="6.8313283920288086e+00" purity="1.0000000000000000e+00" nType="0">
            <Node pos="l" depth="3" NCoef="0" IVar="-1" Cut="0.0000000000000000e+00" cType="1" res="3.9070699214935303e+00" rms="4.0333571434020996e+00" purity="1.0000000000000000e+00" nType="-99"/>
            <Node pos="r" depth="3" NCoef="0" IVar="-1" Cut="0.0000000000000000e+00" cType="1" res="1.3958017826080322e+00" rms="7.3329634666442871e+00" purity="1.0000000000000000e+00" nType="-99"/>
          </Node>
          <Node pos="r" depth="2" NCoef="0" IVar="10" Cut="1.6098034381866455e+00" cType="0" res="3.0871865749359131e+00" rms="8.7253799438476562e+00" purity="1.0000000000000000e+00" nType="0">
            <Node pos="l" depth="3" NCoef="0" IVar="-1" Cut="0.0000000000000000e+00" cType="1" res="6.7579902708530426e-02" rms="7.8910689353942871e+00" purity="1.0000000000000000e+00" nType="-99"/>
            <Node pos="r" depth="3" NCoef="0" IVar="-1" Cut="0.0000000000000000e+00" cType="1" res="5.7201057672500610e-01" rms="8.8720655441284180e+00" purity="1.0000000000000000e+00" nType="-99"/>
          </Node>
        </Node>
        <Node pos="r" depth="1" NCoef="0" IVar="0" Cut="3.7011116027832031e+01" cType="0" res="-8.2243509292602539e+00" rms="8.8792324066162109e+00" purity="1.0000000000000000e+00" nType="0">
          <Node pos="l" depth="2" NCoef="0" IVar="10" Cut="1.2347451448440552e+00" cType="0" res="-5.1871228218078613e+00" rms="8.8471670150756836e+00" purity="1.0000000000000000e+00" nType="0">
            <Node pos="l" depth="3" NCoef="0" IVar="-1" Cut="0.0000000000000000e+00" cType="1" res="-7.8232371807098389e-01" rms="7.3311829566955566e+00" purity="1.0000000000000000e+00" nType="-99"/>
            <Node pos="r" depth="3" NCoef="0" IVar="-1" Cut="0.0000000000000000e+00" cType="1" res="-3.1572544574737549e-01" rms="9.7339649200439453e+00" purity="1.0000000000000000e+00" nType="-99"/>
          </Node>
          <Node pos="r" depth="2" NCoef="0" IVar="10" Cut="1.0784417390823364e+00" cType="0" res="-1.1534689903259277e+01" rms="7.6451086997985840e+00" purity="1.0000000000000000e+00" nType="0">
            <Node pos="l" depth="3" NCoef="0" IVar="-1" Cut="0.0000000000000000e+00" cType="1" res="-1.5424743890762329e+00" rms="5.8190970420837402e+00" purity="1.0000000000000000e+00" nType="-99"/>
            <Node pos="r" depth="3" NCoef="0" IVar="-1" Cut="0.0000000000000000e+00" cType="1" res="-1.1334191560745239e+00" rms="9.0955238342285156e+00" purity="1.0000000000000000e+00" nType="-99"/>
          </Node>
        </Node>
      </Node>
    </BinaryTree>
    <BinaryTree type="DecisionTree" boostWeight="1.0000000000000000e+00" itree="7">
      <Node pos="s" depth="0" NCoef="0" IVar="0" Cut="6.2315872192382812e+01" cType="0" res="4.9800947308540344e-01" rms="1.1475121498107910e+01" purity="1.0000000000000000e+00" nType="0">
        <Node pos="l" depth="1" NCoef="0" IVar="0" Cut="8.2421569824218750e+01" cType="0" res="9.3839340209960938e+00" rms="8.0256767272949219e+00" purity="1.0000000000000000e+00" nType="0">
          <Node pos="l" depth="2" NCoef="0" IVar="0" Cut="1.0986917877197266e+02" cType="0" res="1.2545093536376953e+01" rms="6.3098182678222656e+00" purity="1.0000000000000000e+00" nType="0">
            <Node pos="l" depth="3" NCoef="0" IVar="-1" Cut="0.0000000000000000e+00" cType="1" res="3.8856189250946045e+00" rms="3.9259519577026367e+00" purity="1.0000000000000000e+00" nType="-99"/>
            <Node pos="r" depth="3" NCoef="0" IVar="-1" Cut="0.0000000000000000e+00" cType="1" res="1.4418784379959106e+00" rms="6.9771003723144531e+00" purity="1.0000000000000000e+00" nType="-99"/>
          </Node>
          <Node pos="r" depth="2" NCoef="0" IVar="10" Cut="1.6723743677139282e+00" cType="0" res="5.5896239280700684e+00" rms="8.2185554504394531e+00" purity="1.0000000000000000e+00" nType="0">
            <Node pos="l" depth="3" NCoef="0" IVar="-1" Cut="0.0000000000000000e+00" cType="1" res="3.4320911765098572e-01" rms="7.8271331787109375e+00" purity="1.0000000000000000e+00" nType="-99"/>
            <Node pos="r" depth="3" NCoef="0" IVar="-1" Cut="0.0000000000000000e+00" cType="1" res="9.0699148178100586e-01" rms="8.0446805953979492e+00" purity="1.0000000000000000e+00" nType="-99"/>
          </Node>
        </Node>
        <Node pos="r" depth="1" NCoef="0" IVar="0" Cut="4.4631626129150391e+01" cType="0" res="-5.8325123786926270e+00" rms="9.1253910064697266e+00" purity="1.0000000000000000e+00" nType="0">
          <Node pos="l" depth="2" NCoef="0" IVar="10" Cut="7.6585394144058228e-01" cType="0" res="-1.3450455665588379e+00" rms="8.6878585815429688e+00" purity="1.0000000000000000e+00" nType="0">
            <Node pos="l" depth="3" NCoef="0" IVar="-1" Cut="0.0000000000000000e+00" cType="1" res="-2.9089310765266418e-01" rms="7.9115118980407715e+00" purity="1.0000000000000000e+00" nType="-99"/>
            <Node pos="r" depth="3" NCoef="0" IVar="-1" Cut="0.0000000000000000e+00" cType="1" res="1.8271322548389435e-01" rms="9.5516748428344727e+00" purity="1.0000000000000000e+00" nType="-99"/>
          </Node>
          <Node pos="r" depth="2" NCoef="0" IVar="0" Cut="2.9068357467651367e+01" cType="0" res="-8.9890756607055664e+00" rms="8.0390443801879883e+00" purity="1.0000000000000000e+00" nType="0">
            <Node pos="l" depth="3" NCoef="0" IVar="-1" Cut="0.0000000000000000e+00" cType="1" res="-8.4690856933593750e-01" rms="8.2056226730346680e+00" purity="1.0000000000000000e+00" nType="-99"/>
            <Node pos="r" depth="3" NCoef="0" IVar="-1" Cut="0.0000000000000000e+00" cType="1" res="-1.5226000547409058e+00" rms="6.6671314239501953e+00" purity="1.0000000000000000e+00" nType="-99"/>
          </Node>
        </Node>
      </Node>
    </BinaryTree>
    <BinaryTree type="DecisionTree" boostWeight="1.0000000000000000e+00" itree="8">
      <Node pos="s" depth="0" NCoef="0" IVar="0" Cut="5.3852706909179688e+01" cType="0" res="4.4700613617897034e-01" rms="1.0774933815002441e+01" purity="1.0000000000000000e+00" nType="0">
        <Node pos="l" depth="1" NCoef="0" IVar="0" Cut="7.0105628967285156e+01" cType="0" res="6.8520383834838867e+00" rms="8.5017681121826172e+00" purity="1.0000000000000000e+00" nType="0">
          <Node pos="l" depth="2" NCoef="0" IVar="0" Cut="1.1391120147705078e+02" cType="0" res="9.8595628738403320e+00" rms="7.1321721076965332e+00" purity="1.0000000000000000e+00" nType="0">
            <Node pos="l" depth="3" NCoef="0" IVar="-1" Cut="0.0000000000000000e+00" cType="1" res="3.8492040634155273e+00" rms="3.9766287803649902e+00" purity="1.0000000000000000e+00" nType="-99"/>
            <Node pos="r" depth="3" NCoef="0" IVar="-1" Cut="0.0000000000000000e+00" cType="1" res="1.1020450592041016e+00" rms="7.3628444671630859e+00" purity="1.0000000000000000e+00" nType="-99"/>
          </Node>
          <Node pos="r" depth="2" NCoef="0" IVar="10" Cut="8.7524908781051636e-01" cType="0" res="1.6788121461868286e+00" rms="8.1725244522094727e+00" purity="1.0000000000000000e+00" nType="0">
            <Node pos="l" depth="3" NCoef="0" IVar="-1" Cut="0.0000000000000000e+00" cType="1" res="4.1378524154424667e-02" rms="7.6395983695983887e+00" purity="1.0000000000000000e+00" nType="-99"/>
            <Node pos="r" depth="3" NCoef="0" IVar="-1" Cut="0.0000000000000000e+00" cType="1" res="4.9671173095703125e-01" rms="8.5937738418579102e+00" purity="1.0000000000000000e+00" nType="-99"/>
          </Node>
        </Node>
        <Node pos="r" depth="1" NCoef="0" IVar="0" Cut="3.5157909393310547e+01" cType="0" res="-6.6257891654968262e+00" rms="8.3163003921508789e+00" purity="1.0000000000000000e+00" nType="0">
          <Node pos="l" depth="2" NCoef="0" IVar="10" Cut="1.5317050218582153e+00" cType="0" res="-4.4572601318359375e+00" rms="8.3348360061645508e+00" purity="1.0000000000000000e+00" nType="0">
            <Node pos="l" depth="3" NCoef="0" IVar="-1" Cut="0.0000000000000000e+00" cType="1" res="-7.2854512929916382e-01" rms="6.8074555397033691e+00" purity="1.0000000000000000e+00" nType="-99"/>
            <Node pos="r" depth="3" NCoef="0" IVar="-1" Cut="0.0000000000000000e+00" cType="1" res="-3.2586821913719177e-01" rms="8.9886865615844727e+00" purity="1.0000000000000000e+00" nType="-99"/>
          </Node>
          <Node pos="r" depth="2" NCoef="0" IVar="5" Cut="-9.8123542785644531e+01" cType="0" res="-9.6211204528808594e+00" rms="7.2984280586242676e+00" purity="1.0000000000000000e+00" nType="0">
            <Node pos="l" depth="3" NCoef="0" IVar="-1" Cut="0.0000000000000000e+00" cType="1" res="-7.3966932296752930e-01" rms="8.8093004226684570e+00" purity="1.0000000000000000e+00" nType="-99"/>
            <Node pos="r" depth="3" NCoef="0" IVar="-1" Cut="0.0000000000000000e+00" cType="1" res="-1.2719570398330688e+00" rms="6.6459264755249023e+00" purity="1.0000000000000000e+00" nType="-99"/>
          </Node>
        </Node>
      </Node>
    </BinaryTree>
    <BinaryTree type="DecisionTree" boostWeight="1.0000000000000000e+00" itree="9">
      <Node pos="s" depth="0" NCoef="0" IVar="0" Cut="6.6547760009765625e+01" cType="0" res="3.9034801721572876e-01" rms="1.0150064468383789e+01" purity="1.0000000000000000e+00" nType="0">
        <Node pos="l" depth="1" NCoef="0" IVar="0" Cut="9.4547874450683594e+01" cType="0" res="8.2517528533935547e+00" rms="7.4287967681884766e+00" purity="1.0000000000000000e+00" nType="0">
          <Node pos="l" depth="2" NCoef="0" IVar="0" Cut="1.2157289123535156e+02" cType="0" res="1.1326675415039062e+01" rms="5.8666458129882812e+00" purity="1.0000000000000000e+00" nType="0">
            <Node pos="l" depth="3" NCoef="0" IVar="-1" Cut="0.0000000000000000e+00" cType="1" res="4.1580343246459961e+00" rms="3.4078381061553955e+00" purity="1.0000000000000000e+00" nType="-99"/>
            <Node pos="r" depth="3" NCoef="0" IVar="-1" Cut="0.0000000000000000e+00" cType="1" res="1.4466168880462646e+00" rms="6.6139111518859863e+00" purity="1.0000000000000000e+00" nType="-99"/>
          </Node>
          <Node pos="r" depth="2" NCoef="0" IVar="10" Cut="1.5160986185073853e+00" cType="0" res="6.0513157844543457e+00" rms="7.6447186470031738e+00" purity="1.0000000000000000e+00" nType="0">
            <Node pos="l" depth="3" NCoef="0" IVar="-1" Cut="0.0000000000000000e+00" cType="1" res="4.4359922409057617e-01" rms="7.5774669647216797e+00" purity="1.0000000000000000e+00" nType="-99"/>
            <Node pos="r" depth="3" NCoef="0" IVar="-1" Cut="0.0000000000000000e+00" cType="1" res="1.0852615833282471e+00" rms="7.1745862960815430e+00" purity="1.0000000000000000e+00" nType="-99"/>
          </Node>
        </Node>
        <Node pos="r" depth="1" NCoef="0" IVar="0" Cut="4.6631896972656250e+01" cType="0" res="-4.2162590026855469e+00" rms="8.5802021026611328e+00" purity="1.0000000000000000e+00" nType="0">
          <Node pos="l" depth="2" NCoef="0" IVar="6" Cut="-9.8332954406738281e+01" cType="0" res="-2.3599007725715637e-01" rms="8.1270627975463867e+00" purity="1.0000000000000000e+00" nType="0">
            <Node pos="l" depth="3" NCoef="0" IVar="-1" Cut="0.0000000000000000e+00" cType="1" res="3.0305761098861694e-01" rms="8.4569034576416016e+00" purity="1.0000000000000000e+00" nType="-99"/>
            <Node pos="r" depth="3" NCoef="0" IVar="-1" Cut="0.0000000000000000e+00" cType="1" res="-1.3993585109710693e-01" rms="7.7771568298339844e+00" purity="1.0000000000000000e+00" nType="-99"/>
          </Node>
          <Node pos="r" depth="2" NCoef="0" IVar="0" Cut="2.7950052261352539e+01" cType="0" res="-6.9784235954284668e+00" rms="7.7620854377746582e+00" purity="1.0000000000000000e+00" nType="0">
            <Node pos="l" depth="3" NCoef="0" IVar="-1" Cut="0.0000000000000000e+00" cType="1" res="-6.8332725763320923e-01" rms="7.8493518829345703e+00" purity="1.0000000000000000e+00" nType="-99"/>
            <Node pos="r" depth="3" NCoef="0" IVar="-1" Cut="0.0000000000000000e+00" cType="1" res="-1.3187209367752075e+00" rms="6.4652056694030762e+00" purity="1.0000000000000000e+00" nType="-99"/>
          </Node>
        </Node>
      </Node>
    </BinaryTree>
    <BinaryTree type="DecisionTree" boostWeight="1.0000000000000000e+00" itree="10">
      <Node pos="s" depth="0" NCoef="0" IVar="0" Cut="5.8084289550781250e+01" cType="0" res="3.3239281177520752e-01" rms="9.6263484954833984e+00" purity="1.0000000000000000e+00" nType="0">
        <Node pos="l" depth="1" NCoef="0" IVar="0" Cut="8.2337028503417969e+01" cType="0" res="6.0842757225036621e+00" rms="7.8871374130249023e+00" purity="1.0000000000000000e+00" nType="0">
          <Node pos="l" depth="2" NCoef="0" IVar="0" Cut="1.1763034057617188e+02" cType="0" res="9.2398958206176758e+00" rms="6.6333189010620117e+00" purity="1.0000000000000000e+00" nType="0">
            <Node pos="l" depth="3" NCoef="0" IVar="-1" Cut="0.0000000000000000e+00" cType="1" res="3.4010746479034424e+00" rms="4.2732315063476562e+00" purity="1.0000000000000000e+00" nType="-99"/>
            <Node pos="r" depth="3" NCoef="0" IVar="-1" Cut="0.0000000000000000e+00" cType="1" res="1.1041799783706665e+00" rms="7.0252890586853027e+00" purity="1.0000000000000000e+00" nType="-99"/>
          </Node>
          <Node pos="r" depth="2" NCoef="0" IVar="0" Cut="6.8943756103515625e+01" cType="0" res="3.0894353389739990e+00" rms="7.8144550323486328e+00" purity="1.0000000000000000e+00" nType="0">
            <Node pos="l" depth="3" NCoef="0" IVar="-1" Cut="0.0000000000000000e+00" cType="1" res="5.9475845098495483e-01" rms="7.4906768798828125e+00" purity="1.0000000000000000e+00" nType="-99"/>
            <Node pos="r" depth="3" NCoef="0" IVar="-1" Cut="0.0000000000000000e+00" cType="1" res="1.6884450614452362e-01" rms="7.7625980377197266e+00" purity="1.0000000000000000e+00" nType="-99"/>
          </Node>
        </Node>
        <Node pos="r" depth="1" NCoef="0" IVar="0" Cut="4.1031631469726562e+01" cType="0" res="-4.7557773590087891e+00" rms="8.0284156799316406e+00" purity="1.0000000000000000e+00" nType="0">
          <Node pos="l" depth="2" NCoef="0" IVar="10" Cut="1.6567456722259521e+00" cType="0" res="-2.1038508415222168e+00" rms="7.9511451721191406e+00" purity="1.0000000000000000e+00" nType="0">
            <Node pos="l" depth="3" NCoef="0" IVar="-1" Cut="0.0000000000000000e+00" cType="1" res="-4.5384353399276733e-01" rms="6.8549213409423828e+00" purity="1.0000000000000000e+00" nType="-99"/>
            <Node pos="r" depth="3" NCoef="0" IVar="-1" Cut="0.0000000000000000e+00" cType="1" res="-9.6192546188831329e-02" rms="8.3615226745605469e+00" purity="1.0000000000000000e+00" nType="-99"/>
          </Node>
          <Node pos="r" depth="2" NCoef="0" IVar="10" Cut="1.1409598588943481e+00" cType="0" res="-6.9797644615173340e+00" rms="7.3923602104187012e+00" purity="1.0000000000000000e+00" nType="0">
            <Node pos="l" depth="3" NCoef="0" IVar="-1" Cut="0.0000000000000000e+00" cType="1" res="-1.0129925012588501e+00" rms="5.9730215072631836e+00" purity="1.0000000000000000e+00" nType="-99"/>
            <Node pos="r" depth="3" NCoef="0" IVar="-1" Cut="0.0000000000000000e+00" cType="1" res="-6.6125082969665527e-01" rms="8.4551916122436523e+00" purity="1.0000000000000000e+00" nType="-99"/>
          </Node>
        </Node>
      </Node>
    </BinaryTree>
    <BinaryTree type="DecisionTree" boostWeight="1.0000000000000000e+00" itree="11">
      <Node pos="s" depth="0" NCoef="0" IVar="0" Cut="5.3852706909179688e+01" cType="0" res="2.9394832253456116e-01" rms="9.1582241058349609e+00" purity="1.0000000000000000e+00" nType="0">
        <Node pos="l" depth="1" NCoef="0" IVar="0" Cut="7.8231948852539062e+01" cType="0" res="4.9052820205688477e+00" rms="7.8824801445007324e+00" purity="1.0000000000000000e+00" nType="0">
          <Node pos="l" depth="2" NCoef="0" IVar="0" Cut="1.2553455352783203e+02" cType="0" res="7.9191474914550781e+00" rms="6.9032931327819824e+00" purity="1.0000000000000000e+00" nType="0">
            <Node pos="l" depth="3" NCoef="0" IVar="-1" Cut="0.0000000000000000e+00" cType="1" res="3.7907114028930664e+00" rms="3.8236396312713623e+00" purity="1.0000000000000000e+00" nType="-99"/>
            <Node pos="r" depth="3" NCoef="0" IVar="-1" Cut="0.0000000000000000e+00" cType="1" res="9.7925060987472534e-01" rms="7.1261487007141113e+00" purity="1.0000000000000000e+00" nType="-99"/>
          </Node>
          <Node pos="r" depth="2" NCoef="0" IVar="10" Cut="8.2836592197418213e-01" cType="0" res="1.9592909812927246e+00" rms="7.6634058952331543e+00" purity="1.0000000000000000e+00" nType="0">
            <Node pos="l" depth="3" NCoef="0" IVar="-1" Cut="0.0000000000000000e+00" cType="1" res="1.0520397871732712e-01" rms="7.3194680213928223e+00" purity="1.0000000000000000e+00" nType="-99"/>
            <Node pos="r" depth="3" NCoef="0" IVar="-1" Cut="0.0000000000000000e+00" cType="1" res="5.4020833969116211e-01" rms="7.9257497787475586e+00" purity="1.0000000000000000e+00" nType="-99"/>
          </Node>
        </Node>
        <Node pos="r" depth="1" NCoef="0" IVar="0" Cut="3.1284231185913086e+01" cType="0" res="-4.7829089164733887e+00" rms="7.6564822196960449e+00" purity="1.0000000000000000e+00" nType="0">
          <Node pos="l" depth="2" NCoef="0" IVar="5" Cut="-9.7608573913574219e+01" cType="0" res="-3.5000321865081787e+00" rms="7.6623306274414062e+00" purity="1.0000000000000000e+00" nType="0">
            <Node pos="l" depth="3" NCoef="0" IVar="-1" Cut="0.0000000000000000e+00" cType="1" res="-6.6108360886573792e-02" rms="8.2731075286865234e+00" purity="1.0000000000000000e+00" nType="-99"/>
            <Node pos="r" depth="3" NCoef="0" IVar="-1" Cut="0.0000000000000000e+00" cType="1" res="-5.2672725915908813e-01" rms="7.1888566017150879e+00" purity="1.0000000000000000e+00" nType="-99"/>
          </Node>
          <Node pos="r" depth="2" NCoef="0" IVar="10" Cut="1.0784417390823364e+00" cType="0" res="-7.7377233505249023e+00" rms="6.7744946479797363e+00" purity="1.0000000000000000e+00" nType="0">
            <Node pos="l" depth="3" NCoef="0" IVar="-1" Cut="0.0000000000000000e+00" cType="1" res="-1.1028774976730347e+00" rms="5.4946589469909668e+00" purity="1.0000000000000000e+00" nType="-99"/>
            <Node pos="r" depth="3" NCoef="0" IVar="-1" Cut="0.0000000000000000e+00" cType="1" res="-8.2328230142593384e-01" rms="7.8867187500000000e+00" purity="1.0000000000000000e+00" nType="-99"/>
          </Node>
        </Node>
      </Node>
    </BinaryTree>
    <BinaryTree type="DecisionTree" boostWeight="1.0000000000000000e+00" itree="12">
      <Node pos="s" depth="0" NCoef="0" IVar="0" Cut="6.5075035095214844e+01" cType="0" res="2.4786747992038727e-01" rms="8.7685861587524414e+00" purity="1.0000000000000000e+00" nType="0">
        <Node pos="l" depth="1" NCoef="0" IVar="0" Cut="1.0392696380615234e+02" cType="0" res="5.8041124343872070e+00" rms="7.3568491935729980e+00" purity="1.0000000000000000e+00" nType="0">
          <Node pos="l" depth="2" NCoef="0" IVar="0" Cut="1.3063870239257812e+02" cType="0" res="9.2548971176147461e+00" rms="5.9852395057678223e+00" purity="1.0000000000000000e+00" nType="0">
            <Node pos="l" depth="3" NCoef="0" IVar="-1" Cut="0.0000000000000000e+00" cType="1" res="3.9318239688873291e+00" rms="3.6619017124176025e+00" purity="1.0000000000000000e+00" nType="-99"/>
            <Node pos="r" depth="3" NCoef="0" IVar="-1" Cut="0.0000000000000000e+00" cType="1" res="1.2415167093276978e+00" rms="6.6835279464721680e+00" purity="1.0000000000000000e+00" nType="-99"/>
          </Node>
          <Node pos="r" depth="2" NCoef="0" IVar="10" Cut="1.6098669767379761e+00" cType="0" res="4.3694815635681152e+00" rms="7.3974704742431641e+00" purity="1.0000000000000000e+00" nType="0">
            <Node pos="l" depth="3" NCoef="0" IVar="-1" Cut="0.0000000000000000e+00" cType="1" res="2.7526822686195374e-01" rms="7.2845783233642578e+00" purity="1.0000000000000000e+00" nType="-99"/>
            <Node pos="r" depth="3" NCoef="0" IVar="-1" Cut="0.0000000000000000e+00" cType="1" res="8.6245745420455933e-01" rms="7.0613212585449219e+00" purity="1.0000000000000000e+00" nType="-99"/>
          </Node>
        </Node>
        <Node pos="r" depth="1" NCoef="0" IVar="0" Cut="4.6910545349121094e+01" cType="0" res="-3.2324717044830322e+00" rms="7.7264008522033691e+00" purity="1.0000000000000000e+00" nType="0">
          <Node pos="l" depth="2" NCoef="0" IVar="5" Cut="-9.8020484924316406e+01" cType="0" res="-3.0487746000289917e-01" rms="7.5072417259216309e+00" purity="1.0000000000000000e+00" nType="0">
            <Node pos="l" depth="3" NCoef="0" IVar="-1" Cut="0.0000000000000000e+00" cType="1" res="2.4343658983707428e-01" rms="7.8527173995971680e+00" purity="1.0000000000000000e+00" nType="-99"/>
            <Node pos="r" depth="3" NCoef="0" IVar="-1" Cut="0.0000000000000000e+00" cType="1" res="-1.3361987471580505e-01" rms="7.2157845497131348e+00" purity="1.0000000000000000e+00" nType="-99"/>
          </Node>
          <Node pos="r" depth="2" NCoef="0" IVar="0" Cut="2.6426631927490234e+01" cType="0" res="-5.0891270637512207e+00" rms="7.2754292488098145e+00" purity="1.0000000000000000e+00" nType="0">
            <Node pos="l" depth="3" NCoef="0" IVar="-1" Cut="0.0000000000000000e+00" cType="1" res="-5.2424377202987671e-01" rms="7.3073000907897949e+00" purity="1.0000000000000000e+00" nType="-99"/>
            <Node pos="r" depth="3" NCoef="0" IVar="-1" Cut="0.0000000000000000e+00" cType="1" res="-1.0927518606185913e+00" rms="6.1909465789794922e+00" purity="1.0000000000000000e+00" nType="-99"/>
          </Node>
        </Node>
      </Node>
    </BinaryTree>
    <BinaryTree type="DecisionTree" boostWeight="1.0000000000000000e+00" itree="13">
      <Node pos="s" depth="0" NCoef="0" IVar="0" Cut="6.6547454833984375e+01" cType="0" res="2.2001115977764130e-01" rms="8.4306049346923828e+00" purity="1.0000000000000000e+00" nType="0">
        <Node pos="l" depth="1" NCoef="0" IVar="0" Cut="1.1454768371582031e+02" cType="0" res="5.3821692466735840e+00" rms="7.2591586112976074e+00" purity="1.0000000000000000e+00" nType="0">
          <Node pos="l" depth="2" NCoef="0" IVar="0" Cut="1.3711503601074219e+02" cType="0" res="9.3349380493164062e+00" rms="5.5974149703979492e+00" purity="1.0000000000000000e+00" nType="0">
            <Node pos="l" depth="3" NCoef="0" IVar="-1" Cut="0.0000000000000000e+00" cType="1" res="4.2916350364685059e+00" rms="3.4443898200988770e+00" purity="1.0000000000000000e+00" nType="-99"/>
            <Node pos="r" depth="3" NCoef="0" IVar="-1" Cut="0.0000000000000000e+00" cType="1" res="1.3513333797454834e+00" rms="6.4723253250122070e+00" purity="1.0000000000000000e+00" nType="-99"/>
          </Node>
          <Node pos="r" depth="2" NCoef="0" IVar="10" Cut="1.3441679477691650e+00" cType="0" res="4.3055534362792969e+00" rms="7.2869524955749512e+00" purity="1.0000000000000000e+00" nType="0">
            <Node pos="l" depth="3" NCoef="0" IVar="-1" Cut="0.0000000000000000e+00" cType="1" res="3.2417571544647217e-01" rms="7.2179641723632812e+00" purity="1.0000000000000000e+00" nType="-99"/>
            <Node pos="r" depth="3" NCoef="0" IVar="-1" Cut="0.0000000000000000e+00" cType="1" res="9.4149500131607056e-01" rms="6.9043021202087402e+00" purity="1.0000000000000000e+00" nType="-99"/>
          </Node>
        </Node>
        <Node pos="r" depth="1" NCoef="0" IVar="0" Cut="4.7326164245605469e+01" cType="0" res="-2.8031973838806152e+00" rms="7.5559964179992676e+00" purity="1.0000000000000000e+00" nType="0">
          <Node pos="l" depth="2" NCoef="0" IVar="10" Cut="1.8911571502685547e+00" cType="0" res="-9.8324425518512726e-02" rms="7.3570466041564941e+00" purity="1.0000000000000000e+00" nType="0">
            <Node pos="l" depth="3" NCoef="0" IVar="-1" Cut="0.0000000000000000e+00" cType="1" res="-2.0218397676944733e-01" rms="6.6477284431457520e+00" purity="1.0000000000000000e+00" nType="-99"/>
            <Node pos="r" depth="3" NCoef="0" IVar="-1" Cut="0.0000000000000000e+00" cType="1" res="9.2324212193489075e-02" rms="7.5660052299499512e+00" purity="1.0000000000000000e+00" nType="-99"/>
          </Node>
          <Node pos="r" depth="2" NCoef="0" IVar="6" Cut="-9.8390701293945312e+01" cType="0" res="-4.5518069267272949e+00" rms="7.1570744514465332e+00" purity="1.0000000000000000e+00" nType="0">
            <Node pos="l" depth="3" NCoef="0" IVar="-1" Cut="0.0000000000000000e+00" cType="1" res="-2.1062101423740387e-01" rms="7.9334187507629395e+00" purity="1.0000000000000000e+00" nType="-99"/>
            <Node pos="r" depth="3" NCoef="0" IVar="-1" Cut="0.0000000000000000e+00" cType="1" res="-6.6521978378295898e-01" rms="6.7047848701477051e+00" purity="1.0000000000000000e+00" nType="-99"/>
          </Node>
        </Node>
      </Node>
    </BinaryTree>
    <BinaryTree type="DecisionTree" boostWeight="1.0000000000000000e+00" itree="14">
      <Node pos="s" depth="0" NCoef="0" IVar="0" Cut="6.5074729919433594e+01" cType="0" res="2.1414381265640259e-01" rms="8.1388454437255859e+00" purity="1.0000000000000000e+00" nType="0">
        <Node pos="l" depth="1" NCoef="0" IVar="0" Cut="8.9799087524414062e+01" cType="0" res="4.6914768218994141e+00" rms="7.2710576057434082e+00" purity="1.0000000000000000e+00" nType="0">
          <Node pos="l" depth="2" NCoef="0" IVar="0" Cut="1.3411564636230469e+02" cType="0" res="6.8836722373962402e+00" rms="6.6245861053466797e+00" purity="1.0000000000000000e+00" nType="0">
            <Node pos="l" depth="3" NCoef="0" IVar="-1" Cut="0.0000000000000000e+00" cType="1" res="3.5540511608123779e+00" rms="4.0974798202514648e+00" purity="1.0000000000000000e+00" nType="-99"/>
            <Node pos="r" depth="3" NCoef="0" IVar="-1" Cut="0.0000000000000000e+00" cType="1" res="9.1734534502029419e-01" rms="6.8625555038452148e+00" purity="1.0000000000000000e+00" nType="-99"/>
          </Node>
          <Node pos="r" depth="2" NCoef="0" IVar="10" Cut="8.4403073787689209e-01" cType="0" res="2.7657570838928223e+00" rms="7.2683906555175781e+00" purity="1.0000000000000000e+00" nType="0">
            <Node pos="l" depth="3" NCoef="0" IVar="-1" Cut="0.0000000000000000e+00" cType="1" res="2.1774633228778839e-01" rms="7.0720047950744629e+00" purity="1.0000000000000000e+00" nType="-99"/>
            <Node pos="r" depth="3" NCoef="0" IVar="-1" Cut="0.0000000000000000e+00" cType="1" res="7.2862118482589722e-01" rms="7.2517371177673340e+00" purity="1.0000000000000000e+00" nType="-99"/>
          </Node>
        </Node>
        <Node pos="r" depth="1" NCoef="0" IVar="0" Cut="4.2873638153076172e+01" cType="0" res="-2.5969500541687012e+00" rms="7.3585519790649414e+00" purity="1.0000000000000000e+00" nType="0">
          <Node pos="l" depth="2" NCoef="0" IVar="10" Cut="6.5648150444030762e-01" cType="0" res="-6.0639292001724243e-01" rms="7.2430024147033691e+00" purity="1.0000000000000000e+00" nType="0">
            <Node pos="l" depth="3" NCoef="0" IVar="-1" Cut="0.0000000000000000e+00" cType="1" res="-1.6480480134487152e-01" rms="6.8527464866638184e+00" purity="1.0000000000000000e+00" nType="-99"/>
            <Node pos="r" depth="3" NCoef="0" IVar="-1" Cut="0.0000000000000000e+00" cType="1" res="1.7983649671077728e-01" rms="7.8542966842651367e+00" purity="1.0000000000000000e+00" nType="-99"/>
          </Node>
          <Node pos="r" depth="2" NCoef="0" IVar="10" Cut="8.1273984909057617e-01" cType="0" res="-4.4804296493530273e+00" rms="6.9604640007019043e+00" purity="1.0000000000000000e+00" nType="0">
            <Node pos="l" depth="3" NCoef="0" IVar="-1" Cut="0.0000000000000000e+00" cType="1" res="-6.7284131050109863e-01" rms="6.1544227600097656e+00" purity="1.0000000000000000e+00" nType="-99"/>
            <Node pos="r" depth="3" NCoef="0" IVar="-1" Cut="0.0000000000000000e+00" cType="1" res="-3.5418587923049927e-01" rms="7.9379048347473145e+00" purity="1.0000000000000000e+00" nType="-99"/>
          </Node>
        </Node>
      </Node>
    </BinaryTree>
    <BinaryTree type="DecisionTree" boostWeight="1.0000000000000000e+00" itree="15">
      <Node pos="s" depth="0" NCoef="0" IVar="0" Cut="7.0779037475585938e+01" cType="0" res="1.8641926348209381e-01" rms="7.8837990760803223e+00" purity="1.0000000000000000e+00" nType="0">
        <Node pos="l" depth="1" NCoef="0" IVar="0" Cut="1.2250621032714844e+02" cType="0" res="4.8096241950988770e+00" rms="7.0763812065124512e+00" purity="1.0000000000000000e+00" nType="0">
          <Node pos="l" depth="2" NCoef="0" IVar="0" Cut="1.4483876037597656e+02" cType="0" res="8.6858701705932617e+00" rms="5.4460635185241699e+00" purity="1.0000000000000000e+00" nType="0">
            <Node pos="l" depth="3" NCoef="0" IVar="-1" Cut="0.0000000000000000e+00" cType="1" res="4.4303517341613770e+00" rms="3.4106750488281250e+00" purity="1.0000000000000000e+00" nType="-99"/>
            <Node pos="r" depth="3" NCoef="0" IVar="-1" Cut="0.0000000000000000e+00" cType="1" res="1.3186732530593872e+00" rms="6.3207764625549316e+00" purity="1.0000000000000000e+00" nType="-99"/>
          </Node>
          <Node pos="r" depth="2" NCoef="0" IVar="10" Cut="1.7818090915679932e+00" cType="0" res="3.9419696331024170e+00" rms="7.1083683967590332e+00" purity="1.0000000000000000e+00" nType="0">
            <Node pos="l" depth="3" NCoef="0" IVar="-1" Cut="0.0000000000000000e+00" cType="1" res="2.3013466596603394e-01" rms="7.1373696327209473e+00" purity="1.0000000000000000e+00" nType="-99"/>
            <Node pos="r" depth="3" NCoef="0" IVar="-1" Cut="0.0000000000000000e+00" cType="1" res="8.2608932256698608e-01" rms="6.7074012756347656e+00" purity="1.0000000000000000e+00" nType="-99"/>
          </Node>
        </Node>
        <Node pos="r" depth="1" NCoef="0" IVar="0" Cut="5.0063198089599609e+01" cType="0" res="-2.0333187580108643e+00" rms="7.2639031410217285e+00" purity="1.0000000000000000e+00" nType="0">
          <Node pos="l" depth="2" NCoef="0" IVar="5" Cut="5.0327262878417969e+00" cType="0" res="4.0473908185958862e-01" rms="7.0917005538940430e+00" purity="1.0000000000000000e+00" nType="0">
            <Node pos="l" depth="3" NCoef="0" IVar="-1" Cut="0.0000000000000000e+00" cType="1" res="2.9975712299346924e-01" rms="7.3525362014770508e+00" purity="1.0000000000000000e+00" nType="-99"/>
            <Node pos="r" depth="3" NCoef="0" IVar="-1" Cut="0.0000000000000000e+00" cType="1" res="-3.4614112228155136e-02" rms="6.8827047348022461e+00" purity="1.0000000000000000e+00" nType="-99"/>
          </Node>
          <Node pos="r" depth="2" NCoef="0" IVar="0" Cut="2.7328865051269531e+01" cType="0" res="-3.4879910945892334e+00" rms="6.9696922302246094e+00" purity="1.0000000000000000e+00" nType="0">
            <Node pos="l" depth="3" NCoef="0" IVar="-1" Cut="0.0000000000000000e+00" cType="1" res="-3.4979912638664246e-01" rms="6.9579963684082031e+00" purity="1.0000000000000000e+00" nType="-99"/>
            <Node pos="r" depth="3" NCoef="0" IVar="-1" Cut="0.0000000000000000e+00" cType="1" res="-8.3836483955383301e-01" rms="6.2575259208679199e+00" purity="1.0000000000000000e+00" nType="-99"/>
          </Node>
        </Node>
      </Node>
    </BinaryTree>
    <BinaryTree type="DecisionTree" boostWeight="1.0000000000000000e+00" itree="16">
      <Node pos="s" depth="0" NCoef="0" IVar="0" Cut="6.1318508148193359e+01" cType="0" res="1.7633479833602905e-01" rms="7.6474261283874512e+00" purity="1.0000000000000000e+00" nType="0">
        <Node pos="l" depth="1" NCoef="0" IVar="0" Cut="8.9724060058593750e+01" cType="0" res="3.5140359401702881e+00" rms="7.1756458282470703e+00" purity="1.0000000000000000e+00" nType="0">
          <Node pos="l" depth="2" NCoef="0" IVar="0" Cut="1.4086428833007812e+02" cType="0" res="5.7301502227783203e+00" rms="6.7174878120422363e+00" purity="1.0000000000000000e+00" nType="0">
            <Node pos="l" depth="3" NCoef="0" IVar="-1" Cut="0.0000000000000000e+00" cType="1" res="3.5248026847839355e+00" rms="4.2213015556335449e+00" purity="1.0000000000000000e+00" nType="-99"/>
            <Node pos="r" depth="3" NCoef="0" IVar="-1" Cut="0.0000000000000000e+00" cType="1" res="7.8196579217910767e-01" rms="6.8636107444763184e+00" purity="1.0000000000000000e+00" nType="-99"/>
          </Node>
          <Node pos="r" depth="2" NCoef="0" IVar="10" Cut="7.0334225893020630e-01" cType="0" res="1.9002974033355713e+00" rms="7.0671482086181641e+00" purity="1.0000000000000000e+00" nType="0">
            <Node pos="l" depth="3" NCoef="0" IVar="-1" Cut="0.0000000000000000e+00" cType="1" res="1.4774295687675476e-01" rms="6.8733301162719727e+00" purity="1.0000000000000000e+00" nType="-99"/>
            <Node pos="r" depth="3" NCoef="0" IVar="-1" Cut="0.0000000000000000e+00" cType="1" res="5.6862950325012207e-01" rms="7.2356986999511719e+00" purity="1.0000000000000000e+00" nType="-99"/>
          </Node>
        </Node>
        <Node pos="r" depth="1" NCoef="0" IVar="0" Cut="3.6650474548339844e+01" cType="0" res="-2.3216938972473145e+00" rms="7.0099387168884277e+00" purity="1.0000000000000000e+00" nType="0">
          <Node pos="l" depth="2" NCoef="0" IVar="10" Cut="1.5160808563232422e+00" cType="0" res="-1.0978806018829346e+00" rms="6.9677238464355469e+00" purity="1.0000000000000000e+00" nType="0">
            <Node pos="l" depth="3" NCoef="0" IVar="-1" Cut="0.0000000000000000e+00" cType="1" res="-2.8527387976646423e-01" rms="6.2772116661071777e+00" purity="1.0000000000000000e+00" nType="-99"/>
            <Node pos="r" depth="3" NCoef="0" IVar="-1" Cut="0.0000000000000000e+00" cType="1" res="-1.8864493817090988e-02" rms="7.3183121681213379e+00" purity="1.0000000000000000e+00" nType="-99"/>
          </Node>
          <Node pos="r" depth="2" NCoef="0" IVar="0" Cut="2.4804540634155273e+01" cType="0" res="-4.2431001663208008e+00" rms="6.6349382400512695e+00" purity="1.0000000000000000e+00" nType="0">
            <Node pos="l" depth="3" NCoef="0" IVar="-1" Cut="0.0000000000000000e+00" cType="1" res="-4.4472000002861023e-01" rms="6.6808886528015137e+00" purity="1.0000000000000000e+00" nType="-99"/>
            <Node pos="r" depth="3" NCoef="0" IVar="-1" Cut="0.0000000000000000e+00" cType="1" res="-8.7366455793380737e-01" rms="5.9593491554260254e+00" purity="1.0000000000000000e+00" nType="-99"/>
          </Node>
        </Node>
      </Node>
    </BinaryTree>
    <BinaryTree type="DecisionTree" boostWeight="1.0000000000000000e+00" itree="17">
      <Node pos="s" depth="0" NCoef="0" IVar="0" Cut="7.0779342651367188e+01" cType="0" res="1.4782033860683441e-01" rms="7.4731712341308594e+00" purity="1.0000000000000000e+00" nType="0">
        <Node pos="l" depth="1" NCoef="0" IVar="0" Cut="1.2250608062744141e+02" cType="0" res="3.9287292957305908e+00" rms="7.0439519882202148e+00" purity="1.0000000000000000e+00" nType="0">
          <Node pos="l" depth="2" NCoef="0" IVar="0" Cut="1.4856033325195312e+02" cType="0" res="7.4888558387756348e+00" rms="5.8803167343139648e+00" purity="1.0000000000000000e+00" nType="0">
            <Node pos="l" depth="3" NCoef="0" IVar="-1" Cut="0.0000000000000000e+00" cType="1" res="4.1794505119323730e+00" rms="3.7928237915039062e+00" purity="1.0000000000000000e+00" nType="-99"/>
            <Node pos="r" depth="3" NCoef="0" IVar="-1" Cut="0.0000000000000000e+00" cType="1" res="1.1113121509552002e+00" rms="6.5575418472290039e+00" purity="1.0000000000000000e+00" nType="-99"/>
          </Node>
          <Node pos="r" depth="2" NCoef="0" IVar="10" Cut="1.2504006624221802e+00" cType="0" res="3.1336896419525146e+00" rms="7.0365643501281738e+00" purity="1.0000000000000000e+00" nType="0">
            <Node pos="l" depth="3" NCoef="0" IVar="-1" Cut="0.0000000000000000e+00" cType="1" res="2.2540226578712463e-01" rms="6.9570479393005371e+00" purity="1.0000000000000000e+00" nType="-99"/>
            <Node pos="r" depth="3" NCoef="0" IVar="-1" Cut="0.0000000000000000e+00" cType="1" res="8.0440151691436768e-01" rms="6.7285385131835938e+00" purity="1.0000000000000000e+00" nType="-99"/>
          </Node>
        </Node>
        <Node pos="r" depth="1" NCoef="0" IVar="0" Cut="4.9558067321777344e+01" cType="0" res="-1.6739863157272339e+00" rms="6.9744968414306641e+00" purity="1.0000000000000000e+00" nType="0">
          <Node pos="l" depth="2" NCoef="0" IVar="12" Cut="3.6432834625244141e+01" cType="0" res="2.9012855887413025e-01" rms="6.8828778266906738e+00" purity="1.0000000000000000e+00" nType="0">
            <Node pos="l" depth="3" NCoef="0" IVar="-1" Cut="0.0000000000000000e+00" cType="1" res="-1.2991754710674286e-01" rms="6.9976210594177246e+00" purity="1.0000000000000000e+00" nType="-99"/>
            <Node pos="r" depth="3" NCoef="0" IVar="-1" Cut="0.0000000000000000e+00" cType="1" res="1.3449993729591370e-01" rms="6.6731090545654297e+00" purity="1.0000000000000000e+00" nType="-99"/>
          </Node>
          <Node pos="r" depth="2" NCoef="0" IVar="5" Cut="-9.7608573913574219e+01" cType="0" res="-2.8947217464447021e+00" rms="6.7486906051635742e+00" purity="1.0000000000000000e+00" nType="0">
            <Node pos="l" depth="3" NCoef="0" IVar="-1" Cut="0.0000000000000000e+00" cType="1" res="-6.9574058055877686e-02" rms="7.3198390007019043e+00" purity="1.0000000000000000e+00" nType="-99"/>
            <Node pos="r" depth="3" NCoef="0" IVar="-1" Cut="0.0000000000000000e+00" cType="1" res="-4.5450645685195923e-01" rms="6.4187221527099609e+00" purity="1.0000000000000000e+00" nType="-99"/>
          </Node>
        </Node>
      </Node>
    </BinaryTree>
    <BinaryTree type="DecisionTree" boostWeight="1.0000000000000000e+00" itree="18">
      <Node pos="s" depth="0" NCoef="0" IVar="0" Cut="7.0779037475585938e+01" cType="0" res="1.3484528660774231e-01" rms="7.2907018661499023e+00" purity="1.0000000000000000e+00" nType="0">
        <Node pos="l" depth="1" NCoef="0" IVar="0" Cut="1.2648471832275391e+02" cType="0" res="3.5282309055328369e+00" rms="7.0082292556762695e+00" purity="1.0000000000000000e+00" nType="0">
          <Node pos="l" depth="2" NCoef="0" IVar="0" Cut="1.5610211181640625e+02" cType="0" res="7.1479725837707520e+00" rms="5.9129633903503418e+00" purity="1.0000000000000000e+00" nType="0">
            <Node pos="l" depth="3" NCoef="0" IVar="-1" Cut="0.0000000000000000e+00" cType="1" res="4.6682128906250000e+00" rms="3.4746057987213135e+00" purity="1.0000000000000000e+00" nType="-99"/>
            <Node pos="r" depth="3" NCoef="0" IVar="-1" Cut="0.0000000000000000e+00" cType="1" res="1.0966277122497559e+00" rms="6.5528941154479980e+00" purity="1.0000000000000000e+00" nType="-99"/>
          </Node>
          <Node pos="r" depth="2" NCoef="0" IVar="10" Cut="9.3780004978179932e-01" cType="0" res="2.8455619812011719e+00" rms="6.9890766143798828e+00" purity="1.0000000000000000e+00" nType="0">
            <Node pos="l" depth="3" NCoef="0" IVar="-1" Cut="0.0000000000000000e+00" cType="1" res="2.3836596310138702e-01" rms="6.9015240669250488e+00" purity="1.0000000000000000e+00" nType="-99"/>
            <Node pos="r" depth="3" NCoef="0" IVar="-1" Cut="0.0000000000000000e+00" cType="1" res="8.2995194196701050e-01" rms="6.7145543098449707e+00" purity="1.0000000000000000e+00" nType="-99"/>
          </Node>
        </Node>
        <Node pos="r" depth="1" NCoef="0" IVar="0" Cut="3.7431621551513672e+01" cType="0" res="-1.4997397661209106e+00" rms="6.8469915390014648e+00" purity="1.0000000000000000e+00" nType="0">
          <Node pos="l" depth="2" NCoef="0" IVar="6" Cut="-9.8332954406738281e+01" cType="0" res="-4.5612427592277527e-01" rms="6.7958087921142578e+00" purity="1.0000000000000000e+00" nType="0">
            <Node pos="l" depth="3" NCoef="0" IVar="-1" Cut="0.0000000000000000e+00" cType="1" res="1.6674970090389252e-01" rms="7.1196699142456055e+00" purity="1.0000000000000000e+00" nType="-99"/>
            <Node pos="r" depth="3" NCoef="0" IVar="-1" Cut="0.0000000000000000e+00" cType="1" res="-1.3688372075557709e-01" rms="6.5808153152465820e+00" purity="1.0000000000000000e+00" nType="-99"/>
          </Node>
          <Node pos="r" depth="2" NCoef="0" IVar="10" Cut="1.4691379070281982e+00" cType="0" res="-3.4624300003051758e+00" rms="6.5033893585205078e+00" purity="1.0000000000000000e+00" nType="0">
            <Node pos="l" depth="3" NCoef="0" IVar="-1" Cut="0.0000000000000000e+00" cType="1" res="-5.8609944581985474e-01" rms="5.5310559272766113e+00" purity="1.0000000000000000e+00" nType="-99"/>
            <Node pos="r" depth="3" NCoef="0" IVar="-1" Cut="0.0000000000000000e+00" cType="1" res="-3.3547571301460266e-01" rms="7.0113344192504883e+00" purity="1.0000000000000000e+00" nType="-99"/>
          </Node>
        </Node>
      </Node>
    </BinaryTree>
    <BinaryTree type="DecisionTree" boostWeight="1.0000000000000000e+00" itree="19">
      <Node pos="s" depth="0" NCoef="0" IVar="0" Cut="5.3852706909179688e+01" cType="0" res="1.2480032444000244e-01" rms="7.1746816635131836e+00" purity="1.0000000000000000e+00" nType="0">
        <Node pos="l" depth="1" NCoef="0" IVar="0" Cut="9.4484588623046875e+01" cType="0" res="2.1892561912536621e+00" rms="7.0283131599426270e+00" purity="1.0000000000000000e+00" nType="0">
          <Node pos="l" depth="2" NCoef="0" IVar="10" Cut="1.4535812139511108e+00" cType="0" res="4.6910085678100586e+00" rms="6.7826337814331055e+00" purity="1.0000000000000000e+00" nType="0">
            <Node pos="l" depth="3" NCoef="0" IVar="-1" Cut="0.0000000000000000e+00" cType="1" res="4.8788753151893616e-01" rms="7.1716570854187012e+00" purity="1.0000000000000000e+00" nType="-99"/>
            <Node pos="r" depth="3" NCoef="0" IVar="-1" Cut="0.0000000000000000e+00" cType="1" res="1.2839154005050659e+00" rms="5.8430676460266113e+00" purity="1.0000000000000000e+00" nType="-99"/>
          </Node>
          <Node pos="r" depth="2" NCoef="0" IVar="6" Cut="-9.8247642517089844e+01" cType="0" res="1.1438789367675781e+00" rms="6.8634481430053711e+00" purity="1.0000000000000000e+00" nType="0">
            <Node pos="l" depth="3" NCoef="0" IVar="-1" Cut="0.0000000000000000e+00" cType="1" res="4.1587513685226440e-01" rms="6.9492335319519043e+00" purity="1.0000000000000000e+00" nType="-99"/>
            <Node pos="r" depth="3" NCoef="0" IVar="-1" Cut="0.0000000000000000e+00" cType="1" res="6.9605760276317596e-02" rms="6.7394385337829590e+00" purity="1.0000000000000000e+00" nType="-99"/>
          </Node>
        </Node>
        <Node pos="r" depth="1" NCoef="0" IVar="0" Cut="2.5894769668579102e+01" cType="0" res="-2.1435260772705078e+00" rms="6.6281266212463379e+00" purity="1.0000000000000000e+00" nType="0">
          <Node pos="l" depth="2" NCoef="0" IVar="10" Cut="7.3460203409194946e-01" cType="0" res="-1.6587489843368530e+00" rms="6.5997290611267090e+00" purity="1.0000000000000000e+00" nType="0">
            <Node pos="l" depth="3" NCoef="0" IVar="-1" Cut="0.0000000000000000e+00" cType="1" res="-2.9517021775245667e-01" rms="6.1648311614990234e+00" purity="1.0000000000000000e+00" nType="-99"/>
            <Node pos="r" depth="3" NCoef="0" IVar="-1" Cut="0.0000000000000000e+00" cType="1" res="-2.3656634613871574e-02" rms="7.2326397895812988e+00" purity="1.0000000000000000e+00" nType="-99"/>
          </Node>
          <Node pos="r" depth="2" NCoef="0" IVar="6" Cut="1.1532686650753021e-01" cType="0" res="-4.9564275741577148e+00" rms="6.0692348480224609e+00" purity="1.0000000000000000e+00" nType="0">
            <Node pos="l" depth="3" NCoef="0" IVar="-1" Cut="0.0000000000000000e+00" cType="1" res="-3.8718846440315247e-01" rms="6.9575562477111816e+00" purity="1.0000000000000000e+00" nType="-99"/>
            <Node pos="r" depth="3" NCoef="0" IVar="-1" Cut="0.0000000000000000e+00" cType="1" res="-7.0700621604919434e-01" rms="5.7862033843994141e+00" purity="1.0000000000000000e+00" nType="-99"/>
          </Node>
        </Node>
      </Node>
    </BinaryTree>
    <BinaryTree type="DecisionTree" boostWeight="1.0000000000000000e+00" itree="20">
      <Node pos="s" depth="0" NCoef="0" IVar="0" Cut="7.5010620117187500e+01" cType="0" res="1.1116870492696762e-01" rms="7.0349617004394531e+00" purity="1.0000000000000000e+00" nType="0">
        <Node pos="l" depth="1" NCoef="0" IVar="0" Cut="1.5021069335937500e+02" cType="0" res="3.1932175159454346e+00" rms="6.9300866127014160e+00" purity="1.0000000000000000e+00" nType="0">
          <Node pos="l" depth="2" NCoef="0" IVar="0" Cut="1.6454617309570312e+02" cType="0" res="8.3744640350341797e+00" rms="4.5795574188232422e+00" purity="1.0000000000000000e+00" nType="0">
            <Node pos="l" depth="3" NCoef="0" IVar="-1" Cut="0.0000000000000000e+00" cType="1" res="5.0875549316406250e+00" rms="3.1492574214935303e+00" purity="1.0000000000000000e+00" nType="-99"/>
            <Node pos="r" depth="3" NCoef="0" IVar="-1" Cut="0.0000000000000000e+00" cType="1" res="1.4771543741226196e+00" rms="6.0504388809204102e+00" purity="1.0000000000000000e+00" nType="-99"/>
          </Node>
          <Node pos="r" depth="2" NCoef="0" IVar="10" Cut="1.8130724430084229e+00" cType="0" res="2.7552525997161865e+00" rms="6.9175071716308594e+00" purity="1.0000000000000000e+00" nType="0">
            <Node pos="l" depth="3" NCoef="0" IVar="-1" Cut="0.0000000000000000e+00" cType="1" res="1.2967388331890106e-01" rms="6.8972353935241699e+00" purity="1.0000000000000000e+00" nType="-99"/>
            <Node pos="r" depth="3" NCoef="0" IVar="-1" Cut="0.0000000000000000e+00" cType="1" res="6.5013694763183594e-01" rms="6.6527957916259766e+00" purity="1.0000000000000000e+00" nType="-99"/>
          </Node>
        </Node>
        <Node pos="r" depth="1" NCoef="0" IVar="0" Cut="5.0652606964111328e+01" cType="0" res="-1.1259425878524780e+00" rms="6.6884436607360840e+00" purity="1.0000000000000000e+00" nType="0">
          <Node pos="l" depth="2" NCoef="0" IVar="12" Cut="3.5134326934814453e+01" cType="0" res="3.9192238450050354e-01" rms="6.6774835586547852e+00" purity="1.0000000000000000e+00" nType="0">
            <Node pos="l" depth="3" NCoef="0" IVar="-1" Cut="0.0000000000000000e+00" cType="1" res="-8.8813453912734985e-02" rms="6.8002114295959473e+00" purity="1.0000000000000000e+00" nType="-99"/>
            <Node pos="r" depth="3" NCoef="0" IVar="-1" Cut="0.0000000000000000e+00" cType="1" res="1.5486299991607666e-01" rms="6.4464864730834961e+00" purity="1.0000000000000000e+00" nType="-99"/>
          </Node>
          <Node pos="r" depth="2" NCoef="0" IVar="11" Cut="6.5033912658691406e+00" cType="0" res="-2.1258583068847656e+00" rms="6.5049381256103516e+00" purity="1.0000000000000000e+00" nType="0">
            <Node pos="l" depth="3" NCoef="0" IVar="-1" Cut="0.0000000000000000e+00" cType="1" res="-1.6420486569404602e-01" rms="6.6262130737304688e+00" purity="1.0000000000000000e+00" nType="-99"/>
            <Node pos="r" depth="3" NCoef="0" IVar="-1" Cut="0.0000000000000000e+00" cType="1" res="-4.2190936207771301e-01" rms="6.1707015037536621e+00" purity="1.0000000000000000e+00" nType="-99"/>
          </Node>
        </Node>
      </Node>
    </BinaryTree>
    <BinaryTree type="DecisionTree" boostWeight="1.0000000000000000e+00" itree="21">
      <Node pos="s" depth="0" NCoef="0" IVar="0" Cut="7.2587181091308594e+01" cType="0" res="1.2363195419311523e-01" rms="6.9455347061157227e+00" purity="1.0000000000000000e+00" nType="0">
        <Node pos="l" depth="1" NCoef="0" IVar="0" Cut="1.3199539184570312e+02" cType="0" res="2.7885577678680420e+00" rms="6.9377098083496094e+00" purity="1.0000000000000000e+00" nType="0">
          <Node pos="l" depth="2" NCoef="0" IVar="0" Cut="1.6078726196289062e+02" cType="0" res="6.4088850021362305e+00" rms="6.0392870903015137e+00" purity="1.0000000000000000e+00" nType="0">
            <Node pos="l" depth="3" NCoef="0" IVar="-1" Cut="0.0000000000000000e+00" cType="1" res="4.1613078117370605e+00" rms="3.9379544258117676e+00" purity="1.0000000000000000e+00" nType="-99"/>
            <Node pos="r" depth="3" NCoef="0" IVar="-1" Cut="0.0000000000000000e+00" cType="1" res="9.5981520414352417e-01" rms="6.6327638626098633e+00" purity="1.0000000000000000e+00" nType="-99"/>
          </Node>
          <Node pos="r" depth="2" NCoef="0" IVar="10" Cut="1.0472081899642944e+00" cType="0" res="2.2088654041290283e+00" rms="6.8966603279113770e+00" purity="1.0000000000000000e+00" nType="0">
            <Node pos="l" depth="3" NCoef="0" IVar="-1" Cut="0.0000000000000000e+00" cType="1" res="1.6158601641654968e-01" rms="6.7805399894714355e+00" purity="1.0000000000000000e+00" nType="-99"/>
            <Node pos="r" depth="3" NCoef="0" IVar="-1" Cut="0.0000000000000000e+00" cType="1" res="6.6123592853546143e-01" rms="6.7613611221313477e+00" purity="1.0000000000000000e+00" nType="-99"/>
          </Node>
        </Node>
        <Node pos="r" depth="1" NCoef="0" IVar="0" Cut="3.4127876281738281e+01" cType="0" res="-1.0621874332427979e+00" rms="6.6122989654541016e+00" purity="1.0000000000000000e+00" nType="0">
          <Node pos="l" depth="2" NCoef="0" IVar="10" Cut="2.0318446159362793e+00" cType="0" res="-3.9806497097015381e-01" rms="6.5915412902832031e+00" purity="1.0000000000000000e+00" nType="0">
            <Node pos="l" depth="3" NCoef="0" IVar="-1" Cut="0.0000000000000000e+00" cType="1" res="-2.1425051987171173e-01" rms="6.0192346572875977e+00" purity="1.0000000000000000e+00" nType="-99"/>
            <Node pos="r" depth="3" NCoef="0" IVar="-1" Cut="0.0000000000000000e+00" cType="1" res="1.6487466171383858e-02" rms="6.7483940124511719e+00" purity="1.0000000000000000e+00" nType="-99"/>
          </Node>
          <Node pos="r" depth="2" NCoef="0" IVar="0" Cut="2.4076581954956055e+01" cType="0" res="-2.8830926418304443e+00" rms="6.3205208778381348e+00" purity="1.0000000000000000e+00" nType="0">
            <Node pos="l" depth="3" NCoef="0" IVar="-1" Cut="0.0000000000000000e+00" cType="1" res="-2.9853466153144836e-01" rms="6.3228416442871094e+00" purity="1.0000000000000000e+00" nType="-99"/>
            <Node pos="r" depth="3" NCoef="0" IVar="-1" Cut="0.0000000000000000e+00" cType="1" res="-6.4136135578155518e-01" rms="5.9245924949645996e+00" purity="1.0000000000000000e+00" nType="-99"/>
          </Node>
        </Node>
      </Node>
    </BinaryTree>
    <BinaryTree type="DecisionTree" boostWeight="1.0000000000000000e+00" itree="22">
      <Node pos="s" depth="0" NCoef="0" IVar="0" Cut="7.9242202758789062e+01" cType="0" res="9.7143575549125671e-02" rms="6.8460316658020020e+00" purity="1.0000000000000000e+00" nType="0">
        <Node pos="l" depth="1" NCoef="0" IVar="0" Cut="1.5010565185546875e+02" cType="0" res="2.8997588157653809e+00" rms="6.8803272247314453e+00" purity="1.0000000000000000e+00" nType="0">
          <Node pos="l" depth="2" NCoef="0" IVar="0" Cut="1.7521086120605469e+02" cType="0" res="7.4657855033874512e+00" rms="5.2061944007873535e+00" purity="1.0000000000000000e+00" nType="0">
            <Node pos="l" depth="3" NCoef="0" IVar="-1" Cut="0.0000000000000000e+00" cType="1" res="5.3918738365173340e+00" rms="2.9583663940429688e+00" purity="1.0000000000000000e+00" nType="-99"/>
            <Node pos="r" depth="3" NCoef="0" IVar="-1" Cut="0.0000000000000000e+00" cType="1" res="1.3344701528549194e+00" rms="6.3002257347106934e+00" purity="1.0000000000000000e+00" nType="-99"/>
          </Node>
          <Node pos="r" depth="2" NCoef="0" IVar="10" Cut="2.0787703990936279e+00" cType="0" res="2.4495048522949219e+00" rms="6.8611669540405273e+00" purity="1.0000000000000000e+00" nType="0">
            <Node pos="l" depth="3" NCoef="0" IVar="-1" Cut="0.0000000000000000e+00" cType="1" res="6.6580750048160553e-02" rms="6.8418102264404297e+00" purity="1.0000000000000000e+00" nType="-99"/>
            <Node pos="r" depth="3" NCoef="0" IVar="-1" Cut="0.0000000000000000e+00" cType="1" res="5.5629748106002808e-01" rms="6.6547446250915527e+00" purity="1.0000000000000000e+00" nType="-99"/>
          </Node>
        </Node>
        <Node pos="r" depth="1" NCoef="0" IVar="0" Cut="5.1242141723632812e+01" cType="0" res="-8.4226191043853760e-01" rms="6.5722966194152832e+00" purity="1.0000000000000000e+00" nType="0">
          <Node pos="l" depth="2" NCoef="0" IVar="12" Cut="3.3402984619140625e+01" cType="0" res="4.1430497169494629e-01" rms="6.5957307815551758e+00" purity="1.0000000000000000e+00" nType="0">
            <Node pos="l" depth="3" NCoef="0" IVar="-1" Cut="0.0000000000000000e+00" cType="1" res="-5.2065324038267136e-02" rms="6.6999912261962891e+00" purity="1.0000000000000000e+00" nType="-99"/>
            <Node pos="r" depth="3" NCoef="0" IVar="-1" Cut="0.0000000000000000e+00" cType="1" res="1.7040802538394928e-01" rms="6.3369126319885254e+00" purity="1.0000000000000000e+00" nType="-99"/>
          </Node>
          <Node pos="r" depth="2" NCoef="0" IVar="5" Cut="-9.7608573913574219e+01" cType="0" res="-1.7241346836090088e+00" rms="6.4103579521179199e+00" purity="1.0000000000000000e+00" nType="0">
            <Node pos="l" depth="3" NCoef="0" IVar="-1" Cut="0.0000000000000000e+00" cType="1" res="6.4773801714181900e-03" rms="6.8528170585632324e+00" purity="1.0000000000000000e+00" nType="-99"/>
            <Node pos="r" depth="3" NCoef="0" IVar="-1" Cut="0.0000000000000000e+00" cType="1" res="-2.9379138350486755e-01" rms="6.1806359291076660e+00" purity="1.0000000000000000e+00" nType="-99"/>
          </Node>
        </Node>
      </Node>
    </BinaryTree>
    <BinaryTree type="DecisionTree" boostWeight="1.0000000000000000e+00" itree="23">
      <Node pos="s" depth="0" NCoef="0" IVar="0" Cut="8.3473785400390625e+01" cType="0" res="1.0794226080179214e-01" rms="6.7793049812316895e+00" purity="1.0000000000000000e+00" nType="0">
        <Node pos="l" depth="1" NCoef="0" IVar="0" Cut="1.6179048156738281e+02" cType="0" res="2.8768637180328369e+00" rms="6.8764533996582031e+00" purity="1.0000000000000000e+00" nType="0">
          <Node pos="l" depth="2" NCoef="0" IVar="0" Cut="1.7942675781250000e+02" cType="0" res="7.8844828605651855e+00" rms="4.7191796302795410e+00" purity="1.0000000000000000e+00" nType="0">
            <Node pos="l" depth="3" NCoef="0" IVar="-1" Cut="0.0000000000000000e+00" cType="1" res="5.4648699760437012e+00" rms="3.1267006397247314e+00" purity="1.0000000000000000e+00" nType="-99"/>
            <Node pos="r" depth="3" NCoef="0" IVar="-1" Cut="0.0000000000000000e+00" cType="1" res="1.5238273143768311e+00" rms="6.1197571754455566e+00" purity="1.0000000000000000e+00" nType="-99"/>
          </Node>
          <Node pos="r" depth="2" NCoef="0" IVar="10" Cut="1.0472403764724731e+00" cType="0" res="2.4924814701080322e+00" rms="6.8653588294982910e+00" purity="1.0000000000000000e+00" nType="0">
            <Node pos="l" depth="3" NCoef="0" IVar="-1" Cut="0.0000000000000000e+00" cType="1" res="2.0530393719673157e-01" rms="6.8587527275085449e+00" purity="1.0000000000000000e+00" nType="-99"/>
            <Node pos="r" depth="3" NCoef="0" IVar="-1" Cut="0.0000000000000000e+00" cType="1" res="7.7635329961776733e-01" rms="6.4821681976318359e+00" purity="1.0000000000000000e+00" nType="-99"/>
          </Node>
        </Node>
        <Node pos="r" depth="1" NCoef="0" IVar="0" Cut="4.3052635192871094e+01" cType="0" res="-6.7322635650634766e-01" rms="6.5430488586425781e+00" purity="1.0000000000000000e+00" nType="0">
          <Node pos="l" depth="2" NCoef="0" IVar="5" Cut="8.2026453018188477e+00" cType="0" res="1.6509658098220825e-01" rms="6.5609803199768066e+00" purity="1.0000000000000000e+00" nType="0">
            <Node pos="l" depth="3" NCoef="0" IVar="-1" Cut="0.0000000000000000e+00" cType="1" res="2.6397171616554260e-01" rms="6.7896981239318848e+00" purity="1.0000000000000000e+00" nType="-99"/>
            <Node pos="r" depth="3" NCoef="0" IVar="-1" Cut="0.0000000000000000e+00" cType="1" res="-3.6108851432800293e-02" rms="6.4453797340393066e+00" purity="1.0000000000000000e+00" nType="-99"/>
          </Node>
          <Node pos="r" depth="2" NCoef="0" IVar="10" Cut="1.5629587173461914e+00" cType="0" res="-1.8749356269836426e+00" rms="6.3263845443725586e+00" purity="1.0000000000000000e+00" nType="0">
            <Node pos="l" depth="3" NCoef="0" IVar="-1" Cut="0.0000000000000000e+00" cType="1" res="-3.7205767631530762e-01" rms="5.6030550003051758e+00" purity="1.0000000000000000e+00" nType="-99"/>
            <Node pos="r" depth="3" NCoef="0" IVar="-1" Cut="0.0000000000000000e+00" cType="1" res="-1.5492245554924011e-01" rms="6.6784262657165527e+00" purity="1.0000000000000000e+00" nType="-99"/>
          </Node>
        </Node>
      </Node>
    </BinaryTree>
    <BinaryTree type="DecisionTree" boostWeight="1.0000000000000000e+00" itree="24">
      <Node pos="s" depth="0" NCoef="0" IVar="0" Cut="5.7562286376953125e+01" cType="0" res="9.8146401345729828e-02" rms="6.7037634849548340e+00" purity="1.0000000000000000e+00" nType="0">
        <Node pos="l" depth="1" NCoef="0" IVar="0" Cut="1.1824187469482422e+02" cType="0" res="1.5086110830307007e+00" rms="6.7978658676147461e+00" purity="1.0000000000000000e+00" nType="0">
          <Node pos="l" depth="2" NCoef="0" IVar="0" Cut="1.7379098510742188e+02" cType="0" res="4.4769530296325684e+00" rms="6.6345267295837402e+00" purity="1.0000000000000000e+00" nType="0">
            <Node pos="l" depth="3" NCoef="0" IVar="-1" Cut="0.0000000000000000e+00" cType="1" res="4.2360763549804688e+00" rms="3.9325537681579590e+00" purity="1.0000000000000000e+00" nType="-99"/>
            <Node pos="r" depth="3" NCoef="0" IVar="-1" Cut="0.0000000000000000e+00" cType="1" res="6.7801773548126221e-01" rms="6.7860078811645508e+00" purity="1.0000000000000000e+00" nType="-99"/>
          </Node>
          <Node pos="r" depth="2" NCoef="0" IVar="10" Cut="5.9393483400344849e-01" cType="0" res="1.0033360719680786e+00" rms="6.6954703330993652e+00" purity="1.0000000000000000e+00" nType="0">
            <Node pos="l" depth="3" NCoef="0" IVar="-1" Cut="0.0000000000000000e+00" cType="1" res="6.5471671521663666e-02" rms="6.5473799705505371e+00" purity="1.0000000000000000e+00" nType="-99"/>
            <Node pos="r" depth="3" NCoef="0" IVar="-1" Cut="0.0000000000000000e+00" cType="1" res="4.2770814895629883e-01" rms="6.9124593734741211e+00" purity="1.0000000000000000e+00" nType="-99"/>
          </Node>
        </Node>
        <Node pos="r" depth="1" NCoef="0" IVar="0" Cut="2.6166978836059570e+01" cType="0" res="-1.1799074411392212e+00" rms="6.3524093627929688e+00" purity="1.0000000000000000e+00" nType="0">
          <Node pos="l" depth="2" NCoef="0" IVar="10" Cut="1.6098524332046509e+00" cType="0" res="-8.1587761640548706e-01" rms="6.3298912048339844e+00" purity="1.0000000000000000e+00" nType="0">
            <Node pos="l" depth="3" NCoef="0" IVar="-1" Cut="0.0000000000000000e+00" cType="1" res="-2.2501410543918610e-01" rms="5.7660317420959473e+00" purity="1.0000000000000000e+00" nType="-99"/>
            <Node pos="r" depth="3" NCoef="0" IVar="-1" Cut="0.0000000000000000e+00" cType="1" res="-2.6349879801273346e-02" rms="6.6135559082031250e+00" purity="1.0000000000000000e+00" nType="-99"/>
          </Node>
          <Node pos="r" depth="2" NCoef="0" IVar="0" Cut="2.2669296264648438e+01" cType="0" res="-3.4166805744171143e+00" rms="6.0241556167602539e+00" purity="1.0000000000000000e+00" nType="0">
            <Node pos="l" depth="3" NCoef="0" IVar="-1" Cut="0.0000000000000000e+00" cType="1" res="-3.5538330674171448e-01" rms="6.0687069892883301e+00" purity="1.0000000000000000e+00" nType="-99"/>
            <Node pos="r" depth="3" NCoef="0" IVar="-1" Cut="0.0000000000000000e+00" cType="1" res="-6.0276043415069580e-01" rms="5.7993640899658203e+00" purity="1.0000000000000000e+00" nType="-99"/>
          </Node>
        </Node>
      </Node>
    </BinaryTree>
    <BinaryTree type="DecisionTree" boostWeight="1.0000000000000000e+00" itree="25">
      <Node pos="s" depth="0" NCoef="0" IVar="0" Cut="8.0100349426269531e+01" cType="0" res="9.8962754011154175e-02" rms="6.6350450515747070e+00" purity="1.0000000000000000e+00" nType="0">
        <Node pos="l" depth="1" NCoef="0" IVar="0" Cut="1.5270257568359375e+02" cType="0" res="2.2564349174499512e+00" rms="6.8631362915039062e+00" purity="1.0000000000000000e+00" nType="0">
          <Node pos="l" depth="2" NCoef="0" IVar="0" Cut="1.8986053466796875e+02" cType="0" res="6.4108152389526367e+00" rms="5.8083720207214355e+00" purity="1.0000000000000000e+00" nType="0">
            <Node pos="l" depth="3" NCoef="0" IVar="-1" Cut="0.0000000000000000e+00" cType="1" res="5.7280540466308594e+00" rms="3.1998403072357178e+00" purity="1.0000000000000000e+00" nType="-99"/>
            <Node pos="r" depth="3" NCoef="0" IVar="-1" Cut="0.0000000000000000e+00" cType="1" res="1.1939805746078491e+00" rms="6.5012636184692383e+00" purity="1.0000000000000000e+00" nType="-99"/>
          </Node>
          <Node pos="r" depth="2" NCoef="0" IVar="10" Cut="1.6567676067352295e+00" cType="0" res="1.8702741861343384e+00" rms="6.8258051872253418e+00" purity="1.0000000000000000e+00" nType="0">
            <Node pos="l" depth="3" NCoef="0" IVar="-1" Cut="0.0000000000000000e+00" cType="1" res="8.2060962915420532e-02" rms="6.7443017959594727e+00" purity="1.0000000000000000e+00" nType="-99"/>
            <Node pos="r" depth="3" NCoef="0" IVar="-1" Cut="0.0000000000000000e+00" cType="1" res="4.9030753970146179e-01" rms="6.7054562568664551e+00" purity="1.0000000000000000e+00" nType="-99"/>
          </Node>
        </Node>
        <Node pos="r" depth="1" NCoef="0" IVar="0" Cut="3.0465883255004883e+01" cType="0" res="-6.0011029243469238e-01" rms="6.4054098129272461e+00" purity="1.0000000000000000e+00" nType="0">
          <Node pos="l" depth="2" NCoef="0" IVar="5" Cut="-9.7608573913574219e+01" cType="0" res="-2.1668794751167297e-01" rms="6.4002251625061035e+00" purity="1.0000000000000000e+00" nType="0">
            <Node pos="l" depth="3" NCoef="0" IVar="-1" Cut="0.0000000000000000e+00" cType="1" res="1.5245890617370605e-01" rms="6.7149858474731445e+00" purity="1.0000000000000000e+00" nType="-99"/>
            <Node pos="r" depth="3" NCoef="0" IVar="-1" Cut="0.0000000000000000e+00" cType="1" res="-9.2111244797706604e-02" rms="6.2316403388977051e+00" purity="1.0000000000000000e+00" nType="-99"/>
          </Node>
          <Node pos="r" depth="2" NCoef="0" IVar="0" Cut="2.3437067031860352e+01" cType="0" res="-2.4018368721008301e+00" rms="6.1158995628356934e+00" purity="1.0000000000000000e+00" nType="0">
            <Node pos="l" depth="3" NCoef="0" IVar="-1" Cut="0.0000000000000000e+00" cType="1" res="-2.4288398027420044e-01" rms="6.1195869445800781e+00" purity="1.0000000000000000e+00" nType="-99"/>
            <Node pos="r" depth="3" NCoef="0" IVar="-1" Cut="0.0000000000000000e+00" cType="1" res="-5.1112556457519531e-01" rms="5.8620905876159668e+00" purity="1.0000000000000000e+00" nType="-99"/>
          </Node>
        </Node>
      </Node>
    </BinaryTree>
    <BinaryTree type="DecisionTree" boostWeight="1.0000000000000000e+00" itree="26">
      <Node pos="s" depth="0" NCoef="0" IVar="0" Cut="8.7612365722656250e+01" cType="0" res="9.4911754131317139e-02" rms="6.5981335639953613e+00" purity="1.0000000000000000e+00" nType="0">
        <Node pos="l" depth="1" NCoef="0" IVar="0" Cut="1.6968875122070312e+02" cType="0" res="2.3942353725433350e+00" rms="6.8806757926940918e+00" purity="1.0000000000000000e+00" nType="0">
          <Node pos="l" depth="2" NCoef="0" IVar="0" Cut="1.9378230285644531e+02" cType="0" res="7.3078932762145996e+00" rms="5.1315097808837891e+00" purity="1.0000000000000000e+00" nType="0">
            <Node pos="l" depth="3" NCoef="0" IVar="-1" Cut="0.0000000000000000e+00" cType="1" res="5.6067395210266113e+00" rms="3.2700674533843994e+00" purity="1.0000000000000000e+00" nType="-99"/>
            <Node pos="r" depth="3" NCoef="0" IVar="-1" Cut="0.0000000000000000e+00" cType="1" res="1.5140546560287476e+00" rms="6.3597908020019531e+00" purity="1.0000000000000000e+00" nType="-99"/>
          </Node>
          <Node pos="r" depth="2" NCoef="0" IVar="10" Cut="1.9224941730499268e+00" cType="0" res="2.0540280342102051e+00" rms="6.8564610481262207e+00" purity="1.0000000000000000e+00" nType="0">
            <Node pos="l" depth="3" NCoef="0" IVar="-1" Cut="0.0000000000000000e+00" cType="1" res="6.3250973820686340e-02" rms="6.8514828681945801e+00" purity="1.0000000000000000e+00" nType="-99"/>
            <Node pos="r" depth="3" NCoef="0" IVar="-1" Cut="0.0000000000000000e+00" cType="1" res="5.2112716436386108e-01" rms="6.6614713668823242e+00" purity="1.0000000000000000e+00" nType="-99"/>
          </Node>
        </Node>
        <Node pos="r" depth="1" NCoef="0" IVar="0" Cut="5.0610725402832031e+01" cType="0" res="-4.5968148112297058e-01" rms="6.4057817459106445e+00" purity="1.0000000000000000e+00" nType="0">
          <Node pos="l" depth="2" NCoef="0" IVar="12" Cut="4.1029850006103516e+01" cType="0" res="3.8444373011589050e-01" rms="6.5020089149475098e+00" purity="1.0000000000000000e+00" nType="0">
            <Node pos="l" depth="3" NCoef="0" IVar="-1" Cut="0.0000000000000000e+00" cType="1" res="-1.3243885338306427e-01" rms="6.7132964134216309e+00" purity="1.0000000000000000e+00" nType="-99"/>
            <Node pos="r" depth="3" NCoef="0" IVar="-1" Cut="0.0000000000000000e+00" cType="1" res="1.0866703093051910e-01" rms="6.3558983802795410e+00" purity="1.0000000000000000e+00" nType="-99"/>
          </Node>
          <Node pos="r" depth="2" NCoef="0" IVar="10" Cut="6.8772161006927490e-01" cType="0" res="-1.2013617753982544e+00" rms="6.2262778282165527e+00" purity="1.0000000000000000e+00" nType="0">
            <Node pos="l" depth="3" NCoef="0" IVar="-1" Cut="0.0000000000000000e+00" cType="1" res="-2.2085274755954742e-01" rms="5.8980879783630371e+00" purity="1.0000000000000000e+00" nType="-99"/>
            <Node pos="r" depth="3" NCoef="0" IVar="-1" Cut="0.0000000000000000e+00" cType="1" res="-9.1572161763906479e-03" rms="6.8049244880676270e+00" purity="1.0000000000000000e+00" nType="-99"/>
          </Node>
        </Node>
      </Node>
    </BinaryTree>
    <BinaryTree type="DecisionTree" boostWeight="1.0000000000000000e+00" itree="27">
      <Node pos="s" depth="0" NCoef="0" IVar="0" Cut="8.7705368041992188e+01" cType="0" res="8.9136555790901184e-02" rms="6.5477323532104492e+00" purity="1.0000000000000000e+00" nType="0">
        <Node pos="l" depth="1" NCoef="0" IVar="0" Cut="1.6949504089355469e+02" cType="0" res="2.1978008747100830e+00" rms="6.8814568519592285e+00" purity="1.0000000000000000e+00" nType="0">
          <Node pos="l" depth="2" NCoef="0" IVar="0" Cut="2.0088752746582031e+02" cType="0" res="6.9097881317138672e+00" rms="5.4247031211853027e+00" purity="1.0000000000000000e+00" nType="0">
            <Node pos="l" depth="3" NCoef="0" IVar="-1" Cut="0.0000000000000000e+00" cType="1" res="5.9512457847595215e+00" rms="3.3950259685516357e+00" purity="1.0000000000000000e+00" nType="-99"/>
            <Node pos="r" depth="3" NCoef="0" IVar="-1" Cut="0.0000000000000000e+00" cType="1" res="1.4172121286392212e+00" rms="6.3894734382629395e+00" purity="1.0000000000000000e+00" nType="-99"/>
          </Node>
          <Node pos="r" depth="2" NCoef="0" IVar="10" Cut="7.3458862304687500e-01" cType="0" res="1.8667348623275757e+00" rms="6.8516001701354980e+00" purity="1.0000000000000000e+00" nType="0">
            <Node pos="l" depth="3" NCoef="0" IVar="-1" Cut="0.0000000000000000e+00" cType="1" res="1.7000366747379303e-01" rms="6.8088855743408203e+00" purity="1.0000000000000000e+00" nType="-99"/>
            <Node pos="r" depth="3" NCoef="0" IVar="-1" Cut="0.0000000000000000e+00" cType="1" res="7.2159314155578613e-01" rms="6.5842905044555664e+00" purity="1.0000000000000000e+00" nType="-99"/>
          </Node>
        </Node>
        <Node pos="r" depth="1" NCoef="0" IVar="6" Cut="-9.8296203613281250e+01" cType="0" res="-4.1265878081321716e-01" rms="6.3636775016784668e+00" purity="1.0000000000000000e+00" nType="0">
          <Node pos="l" depth="2" NCoef="0" IVar="10" Cut="1.0627979040145874e+00" cType="0" res="9.3843591213226318e-01" rms="6.6921873092651367e+00" purity="1.0000000000000000e+00" nType="0">
            <Node pos="l" depth="3" NCoef="0" IVar="-1" Cut="0.0000000000000000e+00" cType="1" res="-4.7611515969038010e-02" rms="6.3322443962097168e+00" purity="1.0000000000000000e+00" nType="-99"/>
            <Node pos="r" depth="3" NCoef="0" IVar="-1" Cut="0.0000000000000000e+00" cType="1" res="3.6522597074508667e-01" rms="6.8148260116577148e+00" purity="1.0000000000000000e+00" nType="-99"/>
          </Node>
          <Node pos="r" depth="2" NCoef="0" IVar="0" Cut="3.8189468383789062e+01" cType="0" res="-8.3129799365997314e-01" rms="6.1989164352416992e+00" purity="1.0000000000000000e+00" nType="0">
            <Node pos="l" depth="3" NCoef="0" IVar="-1" Cut="0.0000000000000000e+00" cType="1" res="-4.7956932336091995e-02" rms="6.2509069442749023e+00" purity="1.0000000000000000e+00" nType="-99"/>
            <Node pos="r" depth="3" NCoef="0" IVar="-1" Cut="0.0000000000000000e+00" cType="1" res="-2.5174966454505920e-01" rms="5.9423112869262695e+00" purity="1.0000000000000000e+00" nType="-99"/>
          </Node>
        </Node>
      </Node>
    </BinaryTree>
    <BinaryTree type="DecisionTree" boostWeight="1.0000000000000000e+00" itree="28">
      <Node pos="s" depth="0" NCoef="0" IVar="0" Cut="5.3806060791015625e+01" cType="0" res="7.5865998864173889e-02" rms="6.5160083770751953e+00" purity="1.0000000000000000e+00" nType="0">
        <Node pos="l" depth="1" NCoef="0" IVar="0" Cut="1.2915495300292969e+02" cType="0" res="9.8186457157135010e-01" rms="6.6757607460021973e+00" purity="1.0000000000000000e+00" nType="0">
          <Node pos="l" depth="2" NCoef="0" IVar="0" Cut="1.9342460632324219e+02" cType="0" res="4.0712971687316895e+00" rms="6.7237539291381836e+00" purity="1.0000000000000000e+00" nType="0">
            <Node pos="l" depth="3" NCoef="0" IVar="-1" Cut="0.0000000000000000e+00" cType="1" res="4.4276676177978516e+00" rms="4.1188192367553711e+00" purity="1.0000000000000000e+00" nType="-99"/>
            <Node pos="r" depth="3" NCoef="0" IVar="-1" Cut="0.0000000000000000e+00" cType="1" res="6.6972959041595459e-01" rms="6.8524007797241211e+00" purity="1.0000000000000000e+00" nType="-99"/>
          </Node>
          <Node pos="r" depth="2" NCoef="0" IVar="6" Cut="1.0671746730804443e-01" cType="0" res="6.8130320310592651e-01" rms="6.5942640304565430e+00" purity="1.0000000000000000e+00" nType="0">
            <Node pos="l" depth="3" NCoef="0" IVar="-1" Cut="0.0000000000000000e+00" cType="1" res="3.0853605270385742e-01" rms="6.7615380287170410e+00" purity="1.0000000000000000e+00" nType="-99"/>
            <Node pos="r" depth="3" NCoef="0" IVar="-1" Cut="0.0000000000000000e+00" cType="1" res="3.1030097976326942e-02" rms="6.4826626777648926e+00" purity="1.0000000000000000e+00" nType="-99"/>
          </Node>
        </Node>
        <Node pos="r" depth="1" NCoef="0" IVar="11" Cut="6.5033912658691406e+00" cType="0" res="-9.2209595441818237e-01" rms="6.1836037635803223e+00" purity="1.0000000000000000e+00" nType="0">
          <Node pos="l" depth="2" NCoef="0" IVar="10" Cut="1.7661722898483276e+00" cType="0" res="-2.8585082292556763e-01" rms="6.2652945518493652e+00" purity="1.0000000000000000e+00" nType="0">
            <Node pos="l" depth="3" NCoef="0" IVar="-1" Cut="0.0000000000000000e+00" cType="1" res="-1.7487031221389771e-01" rms="5.6926584243774414e+00" purity="1.0000000000000000e+00" nType="-99"/>
            <Node pos="r" depth="3" NCoef="0" IVar="-1" Cut="0.0000000000000000e+00" cType="1" res="3.3582825213670731e-02" rms="6.4837884902954102e+00" purity="1.0000000000000000e+00" nType="-99"/>
          </Node>
          <Node pos="r" depth="2" NCoef="0" IVar="0" Cut="2.4540935516357422e+01" cType="0" res="-1.7434383630752563e+00" rms="5.9772033691406250e+00" purity="1.0000000000000000e+00" nType="0">
            <Node pos="l" depth="3" NCoef="0" IVar="-1" Cut="0.0000000000000000e+00" cType="1" res="-1.8649806082248688e-01" rms="5.9822463989257812e+00" purity="1.0000000000000000e+00" nType="-99"/>
            <Node pos="r" depth="3" NCoef="0" IVar="-1" Cut="0.0000000000000000e+00" cType="1" res="-4.2241609096527100e-01" rms="5.7177939414978027e+00" purity="1.0000000000000000e+00" nType="-99"/>
          </Node>
        </Node>
      </Node>
    </BinaryTree>
    <BinaryTree type="DecisionTree" boostWeight="1.0000000000000000e+00" itree="29">
      <Node pos="s" depth="0" NCoef="0" IVar="0" Cut="1.0263726043701172e+02" cType="0" res="7.9905837774276733e-02" rms="6.4737796783447266e+00" purity="1.0000000000000000e+00" nType="0">
        <Node pos="l" depth="1" NCoef="0" IVar="10" Cut="1.3753807544708252e+00" cType="0" res="2.4630842208862305e+00" rms="6.8869972229003906e+00" purity="1.0000000000000000e+00" nType="0">
          <Node pos="l" depth="2" NCoef="0" IVar="0" Cut="2.0207861328125000e+02" cType="0" res="1.2305033206939697e+00" rms="6.9373340606689453e+00" purity="1.0000000000000000e+00" nType="0">
